{"model": {"name": "CIFAR-10 Tiny CNN", "title": "The Landscape", "description": "Classifies tiny 32\u00d732 color photos into 10 categories (airplane, car, bird, etc.)", "source": "Custom (trained in-repo)", "source_url": "", "architecture": "CNN (conv3\u00d73\u2192pool \u2192 conv3\u00d73\u2192pool \u2192 conv3\u00d73\u2192pool \u2192 dense\u219210)", "year": 2026, "total_params": 14410, "accuracy": 0.6571, "seed": 42}, "layers": [{"name": "conv1.weight", "description": "First convolutional layer \u2014 detects basic color edges and gradients", "shape": [8, 3, 3, 3], "dtype": "float32", "min": -0.557168, "max": 0.577925, "mean": -0.002417, "std": 0.223511, "weights": [-0.164917, 0.249853, -0.110704, -0.241239, 0.047078, 0.03821, -0.338836, 0.30965, 0.37896, -0.501132, 0.284636, 0.035842, -0.326664, 0.131202, 0.127301, -0.323952, 0.375278, 0.322818, -0.278955, 0.346283, 0.054156, -0.341936, 0.143932, 0.198695, -0.328636, 0.204956, 0.174267, -0.112321, -0.004991, -0.252626, 0.057206, -0.475722, -0.061509, 0.145875, 0.296223, 0.45249, -0.073092, 0.04848, -0.094706, -0.236834, -0.295741, -0.286233, 0.097866, 0.466307, 0.387852, -0.020847, 0.163595, 0.044395, 0.07821, -0.310872, -0.327472, -0.035109, 0.023585, 0.302904, 0.297994, -0.019253, -0.16104, 0.333073, 0.05521, -0.376513, 0.027907, -0.108605, 0.017259, 0.255082, -0.052396, -0.321404, 0.577925, -0.206353, -0.379706, -0.096754, 0.128956, -0.028417, 0.577749, -0.151782, -0.346523, 0.26243, -0.171201, -0.131282, 0.136942, 0.169727, -0.138923, -0.249883, 0.051852, 0.158752, 0.135973, -0.557168, 0.33031, 0.131923, -0.238733, -0.104849, -0.011002, -0.023941, 0.392526, 0.199308, -0.505232, 0.221588, 0.390191, -0.126911, -0.140907, -0.133386, -0.075093, 0.231136, 0.109003, -0.43433, 0.202421, 0.144924, -0.218052, -0.204115, -0.072149, -0.025212, 0.41062, -0.17691, 0.020794, 0.001859, -0.298141, -0.030592, 0.200075, -0.276368, -0.207943, -0.138207, -0.299944, -0.21762, 0.037726, -0.308442, -0.140367, -0.008006, -0.023175, -0.118806, 0.234052, -0.191703, 0.148284, 0.187546, -0.210815, 0.23763, 0.136545, -0.140631, -0.258111, -0.208698, -0.041354, -0.181818, 0.11416, -0.31455, -0.074923, -0.238187, -0.096479, -0.02046, 0.049884, 0.19577, 0.182725, -0.052593, -0.036543, -0.232874, -0.130311, -0.0967, 0.239114, -0.08488, 0.350507, 0.287339, 0.332681, 0.01151, 0.22199, 0.088527, 0.155164, -0.083081, 0.093519, 0.048468, -0.076959, 0.208259, -0.036627, -0.204459, -0.053941, 0.025566, 0.143895, -0.174382, -0.065129, -0.039576, -0.152964, -0.103338, -0.010549, -0.234531, 0.290102, 0.331158, 0.039376, 0.22304, 0.346706, 0.240088, 0.024799, -0.059843, -0.031719, 0.295991, 0.278855, 0.157326, 0.385361, 0.329024, 0.173576, 0.037504, 0.008719, -0.263991, -0.061961, -0.092402, -0.277755, -0.223831, -0.134857, 0.013335, -0.091137, -0.227906, -0.263549, -0.293284, -0.22471, 0.00947, -0.010969, -0.143184, -0.130461, -0.062894, 0.073214, 0.370075]}, {"name": "conv1.bias", "description": "Bias for first conv layer", "shape": [8], "dtype": "float32", "min": -0.262857, "max": 0.252024, "mean": 0.035187, "std": 0.16114, "weights": [0.252024, 0.053121, 0.09127, 0.010439, -0.262857, 0.220724, 0.062258, -0.145486]}, {"name": "conv2.weight", "description": "Second convolutional layer \u2014 combines edges into textures and corners", "shape": [16, 8, 3, 3], "dtype": "float32", "min": -0.921339, "max": 0.672557, "mean": -0.00578, "std": 0.193579, "weights": [-0.12588, 0.217527, 0.326463, -0.158021, -0.134884, 0.022692, -0.124085, 0.02947, 0.105051, 0.057491, 0.0659, 0.131825, -0.122448, -0.042058, -0.021874, -0.02129, 0.142031, -0.01122, -0.194569, -0.304365, -0.12999, -0.316982, -0.419473, -0.16641, -0.19009, 0.042545, 0.061698, -0.066224, -0.065729, -0.329793, -0.159375, -0.143903, -0.120287, -0.178544, -0.08011, 0.025746, 0.086885, -0.012575, 0.101985, -0.121636, 0.035103, 0.053551, -0.109985, -0.064858, -0.062645, -0.295791, -0.055262, -0.062045, -0.011727, 0.141574, 0.321749, 0.087457, 0.115061, 0.289521, 0.119095, 0.066504, 0.248989, -0.169652, -0.042947, 0.156806, -0.134819, -0.272795, -0.205084, 0.672557, 0.514013, 0.026813, 0.104363, -0.165842, -0.45712, -0.205178, -0.190804, -0.254435, 0.06564, 0.221344, 0.024822, 0.030495, 0.209495, 0.055889, -0.16705, -0.079336, -0.143708, 0.30614, -0.019221, 0.18816, -0.018105, 0.23076, 0.33942, 0.161017, -0.180251, 0.092356, 0.378495, -0.185306, 0.233277, 0.323405, -0.101402, 0.127626, -0.130056, -0.156411, 0.149927, -0.092227, -0.206952, -0.169994, -0.149059, -0.147548, 0.01784, 0.113231, 0.203992, 0.025629, -0.108748, -0.212411, -0.104483, -0.140465, -0.126543, 0.027132, 0.080998, 0.127815, 0.041401, -0.001898, -0.106475, -0.26005, 0.068828, 0.017172, 0.158052, 0.201088, 0.080028, 0.122556, -0.174725, -0.0377, 0.083711, 0.04242, -0.161379, -0.049621, 0.180773, 0.117647, -0.024731, 0.203202, -0.029839, -0.098344, 0.038381, 0.145877, 0.127705, 0.135864, 0.140364, -0.05559, -0.101363, 0.059311, 0.03206, 0.199771, -0.046253, -0.164034, -0.275793, -0.100096, 0.029168, 0.115021, 0.31374, -0.138674, 0.123594, -0.084422, 0.357897, 0.294878, 0.261746, 0.051875, -0.080163, -0.091574, 0.00968, -0.27279, 0.079134, 0.183172, 0.307107, 0.181031, -0.038071, -0.25989, -0.240906, -0.134972, 0.187065, -0.0562, -0.187276, 0.061584, 0.130354, 0.099385, -0.143164, -0.201395, -0.202588, 0.067578, 0.01325, -0.114889, 0.007779, 0.100735, 0.111127, 0.130729, 0.087517, -0.026522, 0.164545, 0.34039, 0.061193, 0.11341, -0.000947, 0.079614, -0.324998, -0.019287, 0.283039, 0.027913, 0.004107, -0.272873, 0.009919, -0.062068, 0.079047, 0.048776, -0.049032, 0.109345, -0.061672, 0.221213, 0.006098, 0.001599, 0.066904, -0.056732, -0.105705, -0.043296, -0.058062, 0.218509, 0.169813, 0.096415, 0.049999, 0.254108, 0.271429, -0.916901, -0.808665, -0.373959, -0.54792, -0.728466, -0.469949, 0.002336, -0.237649, -0.022168, -0.315787, -0.368382, 0.068923, -0.253724, -0.388108, 0.024829, -0.033885, -0.256975, 0.103043, 0.040925, 0.082416, -0.045866, 0.066627, 0.013855, -0.097484, 0.135789, -0.065855, -0.039605, 0.130041, 0.041026, 0.054388, 0.007503, -0.032377, -0.034417, 0.062545, 0.052483, -0.012523, 0.021273, 0.074684, 0.002374, 0.153854, 0.17056, 0.060875, 0.106664, 0.150138, 0.002837, -0.116171, -0.113187, -0.138082, 0.105364, 0.084903, 0.00072, 0.055934, 0.065575, 0.136868, -0.074219, 0.021422, 0.094228, -0.103753, -0.024779, 0.121795, 0.126574, 0.102318, 0.05726, 0.205361, -0.145701, -0.307181, -0.38698, 0.159543, -0.093983, -0.241103, -0.212916, -0.208075, -0.156105, 0.075735, 0.064859, 0.290809, 0.055753, 0.118406, 0.156534, 0.140784, 0.145228, 0.056036, 0.032375, -0.02945, 0.273719, 0.135221, 0.040949, -0.351709, -0.325632, -0.486544, 0.184293, 0.042002, -0.004006, 0.097466, 0.13463, 0.187391, -0.306234, -0.095236, 0.025149, 0.20859, 0.032121, 0.129147, 0.206127, 0.154254, 0.378376, -0.251237, -0.159649, 0.165824, 0.291348, 0.258839, 0.297212, 0.168508, 0.205964, 0.135004, -0.059906, -0.027424, -0.046069, -0.206151, -0.314794, -0.200624, -0.303915, -0.478063, -0.458804, -0.416781, -0.418753, -0.52774, 0.134128, 0.321169, 0.275074, -0.140502, -0.146498, -0.060124, -0.106347, -0.075547, -0.114596, 0.005856, -0.201925, -0.385931, 0.13879, 0.002426, -0.342109, 0.09626, 0.122215, -0.037029, -0.067341, 0.011635, -0.145212, -0.001541, -0.236835, 0.052738, -0.354444, -0.461611, -0.092982, 0.114901, 0.25852, 0.087947, -0.118569, 0.031003, 0.199946, 0.008101, -0.004344, 0.352207, -0.172457, -0.082613, 0.276218, 0.042533, -0.19145, 0.135099, -0.280439, -0.177573, -0.159741, -0.010234, 0.090465, 0.17627, -0.019228, -0.115679, 0.115114, -0.266267, -0.052166, -0.25023, 0.184908, 0.163633, -0.065172, 0.158993, 0.300337, 0.02321, -0.200221, -0.163509, -0.108669, -0.005702, 0.045087, -0.233721, -0.018983, 0.321397, 0.066376, -0.180228, 0.019713, 0.043919, 0.013591, 0.009286, 0.133613, 0.038686, -0.173531, 0.242855, -0.008639, -0.027994, 0.25707, 0.101963, 0.216649, -0.062119, -0.224701, -0.058665, 0.172606, -0.025789, -0.200916, -0.280514, -0.375933, -0.489455, 0.158494, 0.340706, -0.083245, -0.79297, 0.298995, 0.53076, 0.038226, -0.175008, -0.109612, 0.157505, 0.01315, -0.352491, -0.30362, 0.028351, 0.22125, -0.152648, 0.13913, -0.127079, -0.289478, -0.057022, 0.312362, -0.276619, -0.131851, 0.169519, 0.561802, 0.01842, 0.059298, -0.187169, -0.06202, 0.257285, 0.106051, -0.109256, 0.169493, 0.264627, -0.133474, 0.001383, -0.076652, -0.105987, -0.242535, 0.051814, 0.254351, -0.006528, -0.101184, 0.01618, 0.345541, 0.199065, -0.25028, 0.160242, 0.347882, 0.056446, -0.345558, -0.138148, 0.0872, 0.116533, 0.115557, 0.063612, 0.247898, 0.054627, -0.26569, -0.152665, -0.155448, -0.038076, -0.069821, 0.251787, -0.263322, 0.137123, 0.140097, 0.076315, 0.275045, -0.070998, -0.414908, -0.073016, 0.05508, -0.164493, -0.065393, -0.041182, 0.093326, -0.156053, -0.052534, 0.163152, -0.064716, -0.024283, 0.39321, -0.152486, 0.223642, 0.193747, -0.171679, 0.173111, -0.199153, 0.017543, 0.056429, -0.126619, 0.08831, -0.191546, -0.065207, -0.162832, -0.175, -0.126304, 0.169422, 0.143293, -0.135356, 0.196709, 0.072914, 0.094907, 0.184563, -0.159441, -0.164426, 0.008486, 0.051873, -0.13139, 0.148956, 0.200385, -0.014996, 0.131678, 0.019272, -0.172232, 0.027481, -0.027826, -0.127973, 0.02719, 0.079084, -0.237479, 0.091558, -0.096212, 0.095916, 0.082346, -0.043606, 0.214229, -0.112737, -0.043272, 0.036435, -0.104235, 0.067927, -0.054113, -0.350119, -0.298923, 0.185242, -0.239084, -0.249182, 0.221885, -0.024855, 0.042666, -0.198881, -0.338241, -0.198186, 0.437522, 0.425319, 0.406614, 0.284226, 0.295388, 0.33926, -0.005752, -0.452297, -0.345235, -0.068445, -0.479588, -0.359823, -0.112482, -0.170312, 0.120026, -0.001643, -0.052248, 0.005709, -0.112887, -0.241049, -0.14889, -0.134055, -0.144512, 0.209256, -0.104453, -0.205382, 0.057256, -0.073309, -0.239681, -0.124752, -0.019793, -0.153035, 0.428553, -0.044869, -0.01821, 0.002454, 0.097611, 0.234779, 0.217867, -0.069684, -0.113774, 0.092143, -0.022525, -0.118723, -0.119155, 0.232896, 0.092803, 0.087954, 0.198936, 0.049856, 0.137493, -0.013955, -0.16876, 0.061342, 0.079825, -0.176881, -0.190519, 0.219146, 0.078434, 0.304275, 0.07216, -0.159659, 0.018199, -0.240395, 0.01841, 0.241247, -0.079233, 0.094753, 0.089667, 0.191792, -0.190584, 0.235154, -0.259808, 0.27788, 0.25579, 0.13915, 0.125504, -0.065123, -0.141679, -0.050509, 0.286922, 0.130955, 0.321894, -0.222323, 0.008412, -0.133856, 0.150231, -0.198323, 0.135238, 0.136985, 0.085905, -0.077087, -0.112098, 0.029094, -0.212481, -0.08593, -0.037387, -0.248, -0.20133, 0.006654, -0.031113, 0.011196, 0.278235, 0.113602, -0.156879, 0.332961, -0.029639, -0.287503, 0.163581, -0.215049, -0.256221, 0.092421, 0.108849, -0.038338, -0.118986, 0.087108, -0.172938, 0.119799, -0.328926, -0.441259, -0.084586, -0.257608, -0.034204, -0.135814, -0.09825, 0.022218, -0.037306, -0.141759, -0.26156, -0.176662, -0.129628, 0.033941, -0.134642, 0.077341, 0.05024, 0.040231, 0.062799, 0.198383, 0.315441, -0.011453, 0.44772, -0.073534, -0.067884, 0.069776, -0.273207, -0.420437, 0.062647, -0.03731, -0.333093, -0.230466, -0.08342, -0.027598, -0.136857, 0.195921, -0.122542, -0.205194, 0.135148, 0.502069, -0.065761, 0.298244, 0.154692, 0.053694, 0.219987, 0.204127, -0.244096, 0.291276, 0.373546, 0.022319, 0.337666, 0.125234, 0.123665, 0.202362, -0.152478, -0.263836, 0.207076, 0.124472, 0.014533, -0.024129, 0.012053, 0.105208, -0.012606, -0.201736, 0.21008, 0.01298, 0.008042, 0.138865, 0.048008, -0.012618, 0.078691, -0.134608, -0.141756, -0.095463, -0.186214, -0.064075, -0.046687, 0.194514, 0.173435, 0.015325, 0.059696, 0.100569, -0.053224, 0.005304, -0.006024, 0.036172, -0.158426, -0.018994, 0.170741, 0.076097, -0.122111, 0.150027, -0.064903, 0.013025, 0.173824, 0.08843, 0.181012, -0.058277, 0.077983, -0.0, 0.051767, -0.007542, 0.068764, -0.031628, -0.168164, 0.105931, 0.180226, -0.195674, 0.031796, 0.05222, -0.191259, 0.089291, 0.122432, 0.022745, 0.040584, -0.029176, -0.051033, 0.077479, 0.167947, -0.015901, 0.354023, 0.091294, -0.221919, -0.088003, 0.028402, -0.300559, -0.1862, -0.148562, -0.114039, -0.098159, -0.09574, 0.041506, 0.320859, 0.397948, -0.008835, 0.334018, 0.174459, 0.108874, 0.364741, 0.252942, 0.079003, 0.006761, -0.081546, -0.050997, -0.183268, -0.099601, -0.234067, -0.205611, -0.23316, 0.23136, -0.29383, -0.033921, -0.427645, -0.921339, -0.47726, 0.403008, 0.210511, 0.323231, -0.14751, 0.007336, 0.172124, 0.015849, -0.027789, -0.02161, 0.16223, 0.055641, -0.04827, 0.319049, 0.248397, 0.208184, 0.157877, 0.314303, 0.026166, 0.331309, 0.073604, 0.065689, 0.15008, 0.337535, 0.105227, 0.07031, -0.293795, -0.506254, -0.307464, -0.491032, -0.360188, 0.307955, 0.150494, 0.105616, -0.097618, -0.216237, -0.38841, -0.290846, -0.308447, -0.208159, 0.323317, 0.088183, 0.268123, 0.184305, 0.190946, 0.142571, -0.132688, 0.08391, -0.127076, -0.068421, 0.143217, 0.024446, -0.216916, -0.097368, -0.145435, -0.104947, 0.030389, 0.143441, 0.052272, 0.033331, 0.115308, -0.099012, -0.175251, 0.018992, -0.06836, 0.032575, 0.128787, 0.149272, 0.144903, -0.054069, -0.392263, -0.454117, -0.311468, 0.032031, -0.063644, 0.108454, 0.248901, 0.191691, 0.177613, 0.085961, -0.148874, 0.125816, -0.281355, -0.269104, -0.308343, 0.038717, -0.040549, -0.085362, 0.185822, 0.137338, 0.290677, 0.217765, 0.182344, 0.117761, 0.180986, 0.06788, 0.15378, 0.071473, -0.066941, 0.031578, -0.184091, -0.292168, -0.186845, 0.155189, 0.075452, 0.076363, 0.126111, 0.175629, 0.08316, 0.069778, 0.012572, 0.007817, -0.028631, -0.039466, -0.057132, -0.049517, -0.02705, -0.063714, 0.031883, 0.041862, -0.00104, -0.247766, -0.100269, -0.073589, 0.024314, -0.010454, 0.012938, -0.074223, 0.071738, 0.133215, -0.014167, 0.110908, 0.053251, 0.208477, 0.129236, -0.040207, 0.076553, 0.102763, 0.11373, -0.122446, -0.181015, -0.553025, 0.208887, 0.141088, -0.178422, 0.151156, 0.271017, 0.176287, 0.111986, 0.316795, 0.063361, 0.110545, -0.089185, -0.236212, -0.165632, -0.264121, 0.075614, 0.182959, 0.027104, -0.239344, 0.010503, -0.646613, -0.132093, -0.711138, -0.213246, 0.194273, -0.125395, -0.343371, -0.090163, -0.461794, 0.111443, 0.20253, 0.332632, 0.500699, -0.003672, -0.223144, -0.296817, -0.111735, -0.466375, -0.383166, -0.006032, -0.09122, 0.020988, 0.14095, 0.270823, 0.074596, -0.109207, 0.186671, -0.165198, 0.08842, -0.133848, 0.160354, 0.473433, -0.087657, 0.089102, 0.260399, -0.032193, 0.095335, 0.054786, -0.207333, -0.24815, 0.205813, -0.019746, -0.049396, 0.391366, -0.15455, 0.164419, 0.102806, 0.261716, -0.070931, -0.176473, -0.285316, -0.18695, -0.01941, 0.02237, 0.407734, 0.406451, 0.183426, 0.344898, 0.259199, -0.060761, 0.054038, 0.079353, -0.059535, 0.022172, 0.06925, 0.099836, 0.146527, 0.14672, -0.060556, 0.121056, -0.088859, -0.048297, 0.059203, -0.00034, 0.018027, -0.084904, 0.054043, 0.040616, 0.074794, -0.057737, -0.116283, 0.039387, 0.15587, 0.106931, 0.210736, 0.014251, 0.074951, 0.140126, 0.142573, 0.071954, 0.095469, 0.135509, 0.048625, 0.137082, 0.08717, -0.155626, -0.294654, -0.020213, 0.080394, -0.179302, -0.133346, 0.014721, -0.045686, -0.100332, -0.200172, -0.209947, -0.15054, -0.130224, -0.293656, 0.013384, -0.020487, -0.355354, -0.000347, -0.241967, -0.262152, -0.070568, -0.041338, -0.313883, -0.017669, 0.109054, -0.252297, -0.108898, -0.051999, -0.001607, -0.051284, 0.018073, 0.047099, -0.115002, -0.111329, 0.001142, 0.060843]}, {"name": "conv2.bias", "description": "Bias for second conv layer", "shape": [16], "dtype": "float32", "min": -0.387827, "max": 0.452226, "mean": 0.040788, "std": 0.231584, "weights": [0.325685, -0.126423, -0.013897, 0.452226, 0.13116, 0.056028, -0.010439, -0.195636, 0.280486, 0.17824, -0.266492, -0.037234, -0.133843, -0.387827, 0.016114, 0.384455]}, {"name": "conv3.weight", "description": "Third convolutional layer \u2014 recognizes parts of objects (wheels, wings, ears)", "shape": [32, 16, 3, 3], "dtype": "float32", "min": -0.96438, "max": 0.588425, "mean": -0.015019, "std": 0.174219, "weights": [-0.072426, -0.153652, -0.19171, -0.14179, -0.051007, -0.218556, -0.125669, 0.209154, -0.002056, -0.113234, -0.104154, 0.184904, 0.059567, -0.04028, -0.101791, -0.091303, -0.218491, -0.129516, 0.056241, 0.182134, 0.21602, 0.046833, -0.034359, -0.271066, 0.149062, 0.032607, -0.080759, -0.108282, 0.140802, 0.055642, 0.014982, -0.116598, 0.114137, -0.179029, -0.192843, -0.003896, -0.111386, -0.269799, 0.014959, -0.006483, -0.210508, 0.134799, 0.100285, 0.062685, 0.150986, -0.083665, -0.154906, 0.115024, -0.297363, -0.101293, -0.038676, -0.457928, -0.647537, -0.038913, -0.019155, -0.047036, -0.341799, -0.191426, -0.295345, -0.256798, 0.175118, 0.242249, 0.099952, -0.226796, 0.142709, 0.014898, -0.138341, 0.24341, 0.115065, -0.100386, 0.024286, 0.19556, -0.043538, -0.129866, 0.151905, 0.074874, -0.006053, 0.017554, 0.126521, -0.394041, -0.296269, 0.061837, -0.165386, -0.006204, 0.00367, -0.057974, 0.257838, 0.037609, 0.119973, 0.048122, -0.088647, -0.177641, -0.287751, 0.113432, -0.135871, 0.069756, -0.010187, 0.149429, 0.193689, 0.055245, 0.161649, 0.395407, 0.025159, -0.206122, -0.108942, 0.041609, -0.059546, 0.182104, 0.076363, -0.113601, -0.12315, 0.101654, 0.030379, -0.053599, 0.122668, 0.128547, 0.071254, 0.330276, -0.010792, 0.133908, 0.321701, 0.261266, 0.072539, 0.19002, -0.02581, -0.089762, -0.120983, -0.146958, 0.042141, 0.134052, 0.469423, 0.440482, 0.037558, 0.209021, 0.039151, 0.135931, -0.058494, -0.06269, 0.154681, 0.050761, 0.007629, -0.079147, -0.03776, -0.030917, 0.014604, 0.04088, -0.186907, -0.265219, 0.020374, -0.082082, 0.048542, -0.104106, -0.333373, -0.040964, 0.055682, 0.005126, 0.040345, 0.143298, 0.105344, 0.065282, 0.114577, 0.28371, 0.165346, 0.03108, 0.18087, -0.165285, -0.015941, 0.056512, -0.03387, 0.073471, 0.245246, -0.089705, -0.290899, -0.221567, 0.078027, -0.043157, -0.104504, 0.266245, -0.068804, 0.144874, -0.047939, -0.08132, 0.183439, 0.062069, -0.014048, 0.270909, 0.001235, 0.079832, 0.091389, 0.256472, 0.067825, -0.031875, 0.084259, -0.00869, -0.00837, -0.003646, 0.020408, 0.00675, -0.231637, -0.018584, 0.06511, -0.284083, 0.030489, 0.0925, -0.188448, 0.072385, 0.151287, 0.035007, 0.000957, 0.049386, -0.048023, 0.000352, -0.042813, 0.053323, -0.272263, -0.156034, -0.167629, -0.033456, 0.007553, -0.148407, -0.110495, 0.091297, 0.052838, -0.223637, -0.2294, -0.203585, 0.121028, 0.036122, -0.261401, -0.17023, 0.151081, 0.09602, 0.083282, 0.193677, 0.007017, -0.108418, 0.059873, 0.001242, 0.026289, 0.031575, 0.130995, 0.115968, 0.148686, 0.129216, -0.346069, -0.194612, -0.001694, -0.199154, -0.019529, 0.269724, -0.121839, -0.095747, -0.020626, -0.112338, 0.230763, -0.396823, -0.032286, 0.112652, -0.05935, -0.048371, 0.085828, -0.500696, -0.106259, -0.09909, -0.273757, -0.186687, 0.112548, -0.145028, -0.040424, 0.007903, 0.14634, -0.0109, -0.028945, -0.03032, -0.171064, -0.005676, -0.185214, -0.165455, -0.291771, 0.086072, 0.150911, 0.282253, -0.016438, 0.020643, 0.087348, 0.082727, 0.075895, 0.142992, 0.056184, 0.095893, 0.194121, -0.135941, 0.01679, 0.185886, -0.176116, 0.147086, 0.214346, 0.137046, -0.128153, -0.352086, 0.124456, 0.056736, -0.171914, 0.053517, 0.086567, -0.039999, 0.167219, -0.107229, -0.362448, -0.009328, 0.063338, -0.120752, -0.062297, -0.037816, -0.14237, -0.187805, -0.016036, 0.172898, -0.006294, 0.116737, 0.177325, 0.182561, 0.134386, 0.271529, -0.12254, 0.107662, 0.236917, 0.017049, 0.131434, 0.188117, 0.019221, 0.048869, 0.109493, 0.295094, 0.018905, 0.004411, 0.116538, -0.106532, -0.057056, 0.203167, 0.207669, 0.136884, 0.204857, 0.22234, 0.192061, -0.101026, -0.076259, 0.191132, -0.256893, -0.212323, -0.110902, -0.240518, -0.191401, -0.192775, -0.068388, -0.056579, -0.055137, -0.025516, 0.16572, 0.114409, 0.092283, 0.359472, 0.172255, 0.048018, 0.119815, -0.081474, -0.060001, -0.079411, -0.198784, -0.054581, -0.134154, -0.105372, -0.098099, -0.072594, -0.164234, 0.054585, -0.061993, -0.092325, -0.116965, -0.084678, -0.069539, -0.006239, 0.111836, 0.178321, -0.070758, -0.063071, 0.060663, -0.035638, 0.173617, -0.055227, -0.019343, 0.157714, 0.05227, -0.155492, 0.134881, 0.108987, -0.376266, -0.215466, 0.150383, -0.109412, -0.110033, 0.135373, -0.178515, -0.174943, -0.121759, 0.195837, 0.205072, -0.040595, -0.226426, -0.107466, -0.043356, -0.148583, -0.113436, -0.264205, 0.062989, -0.21654, -0.264354, -0.210189, -0.256973, -0.341295, -0.116571, -0.146063, -0.383752, 0.042642, -0.157829, -0.525685, 0.021429, 0.043467, -0.226397, 0.291613, 0.09051, -0.020628, 0.108941, 0.109587, -0.035427, 0.122991, 0.087366, 0.104603, -0.081543, 0.19764, 0.054272, 0.066564, 0.121118, 0.120633, 0.165598, 0.113423, 0.130438, 0.037651, -0.099779, 0.080517, 0.073342, -0.270308, -0.027685, 0.024188, -0.035108, -0.079282, 0.017933, 0.092236, 0.131771, 0.036303, 0.112833, 0.060478, -0.125999, 0.011518, -0.272013, -0.376514, -0.358619, -0.196239, 0.015331, -0.113611, -0.099126, -0.003996, -0.216851, 0.051999, 0.22445, 0.295376, 0.252708, -0.033188, 0.175108, -0.077531, -0.061261, 0.180774, 0.10696, -0.040261, -0.476998, 0.13096, -0.051735, -0.031021, -0.116494, 0.015752, -0.121772, 0.108767, 0.084648, 0.013367, -0.029927, 0.10749, 0.00454, -0.001288, 0.119545, 0.093882, 0.01389, 0.007845, -0.192451, 0.135639, 0.245553, 0.247665, 0.28297, -0.195038, -0.155497, -0.017476, 0.019544, -0.025237, -0.067341, -0.272542, -0.194809, -0.280221, -0.12691, -0.224802, -0.19907, 0.012355, 0.070079, -0.096706, 0.039962, 0.145222, 0.048605, 0.080973, 0.108356, 0.002655, -0.098723, -0.035699, 0.038699, 0.056958, 0.06988, -0.044051, 0.110981, -0.096279, -0.005943, 0.368142, 0.166383, 0.16677, -0.154209, 0.003453, -0.241929, -0.29635, -0.272517, -0.262974, -0.062806, 0.012324, 0.058502, 0.144701, 0.1656, -0.03677, 0.098184, -0.090727, -0.035418, -0.101982, -0.023239, -0.133181, -0.065482, 0.002715, 0.05709, -0.17212, -0.130508, 0.012189, -0.188045, -0.363147, -0.027029, -0.184357, -0.016992, -0.062413, -0.225298, -0.069348, -0.032736, -0.260674, -0.170947, 0.192957, 0.015967, 0.065027, 0.158902, -0.105408, -0.403592, -0.260156, -0.152924, -0.240149, -0.129825, -0.026641, -0.033581, 0.159085, 0.046337, -0.053436, 0.075267, 0.154586, 0.007789, -0.048561, 0.158585, -0.094915, 0.016073, 0.058018, -0.093433, 0.050404, 0.017456, -0.078528, -0.052857, -0.216668, -0.17144, 0.31276, -0.100518, 0.127509, -0.003015, -0.114792, -0.041482, -0.277037, 0.009925, -0.104687, 0.085563, 0.062499, 0.14853, 0.188427, 0.242738, 0.182111, 0.079342, -0.115879, -0.507177, -0.27511, -0.061762, -0.618, -0.406206, 0.156604, -0.149631, -0.012464, -0.037292, -0.065271, 0.195902, 0.015973, -0.224769, -0.03781, 0.0174, -0.042104, -0.218603, -0.105272, -0.510885, -0.716118, -0.228947, -0.465144, 0.079986, -0.121059, -0.540574, -0.076798, 0.098375, -0.046356, -0.002546, -0.126125, 0.064018, -0.149511, 0.017295, 0.094806, -0.255791, 0.382024, 0.13695, 0.110693, 0.097453, -0.158842, -0.030411, 0.160089, 0.035305, 0.170375, 0.009471, -0.136512, -0.140203, 0.146675, 0.078348, -0.085044, 0.210394, 0.08007, 0.043963, 0.157769, -0.037071, 0.087017, -0.33745, -0.25513, -0.180052, -0.276856, -0.09371, -0.156659, 0.299548, 0.044978, 0.097973, -0.018998, -0.025093, -0.058989, -0.024802, -0.23268, -0.115214, -0.066643, 0.091419, 0.000124, 0.096415, -0.048747, -0.206806, 0.196215, 0.043019, 0.043702, 0.128527, -0.242301, 0.002634, -0.163192, -0.789818, -0.169629, -0.200405, -0.411275, -0.012657, 0.181206, 0.146766, 0.244159, 0.337131, 0.160313, 0.22874, 0.233703, 0.270621, 0.374866, 0.195368, -0.042355, 0.13176, 0.066425, 0.310945, 0.484874, 0.035379, 0.246748, 0.506925, 0.076572, 0.117675, 0.105356, 0.081337, 0.058006, 0.192878, -0.1911, -0.207054, -0.009337, 0.039792, 0.023438, -0.127204, 0.061761, 0.009363, 0.006796, -0.003754, 0.062227, 0.207093, 0.035727, 0.034579, 0.11461, -0.256002, -0.150418, 0.191495, -0.23245, 0.134418, 0.2346, -0.217479, -0.322413, -0.12108, 0.038026, 0.044621, -0.115855, 0.096737, 0.194102, -0.077339, -0.056649, -0.295292, -0.023858, 0.122407, -0.348113, 0.149856, 0.111635, -0.198241, -0.014746, -0.148468, -0.108632, 0.010953, -0.109033, 0.032318, 0.003539, -0.106364, -0.059061, 0.030115, -0.023485, -0.193876, 0.067934, -0.283169, 0.041689, 0.010603, -0.106382, -0.127885, -0.253182, -0.064887, -0.050092, -0.158214, -0.093163, -0.151571, -0.169735, 0.00476, -0.080459, 0.164115, -0.025338, 0.060123, -0.115573, -0.014602, 0.09373, 0.115983, 0.074421, -0.010013, -0.079027, 0.0956, 0.032036, -0.060991, -0.029598, 0.168797, 0.16084, 0.010328, 0.166128, -0.064484, 0.005908, -0.087295, 0.089232, -0.204154, 0.007563, -0.011049, -0.035288, 0.128073, 0.156835, -0.062601, 0.03519, -0.133243, -0.235013, 0.141811, 0.16934, -0.042261, 0.253438, 0.267852, 0.073491, 0.020907, -0.105056, 0.207586, 0.156427, 0.306925, -0.269837, -0.170965, -0.021714, -0.158304, -0.348023, 0.109431, 0.23246, -0.200502, -0.165765, -0.030464, -0.292966, -0.143001, 0.096417, 0.115587, 0.011238, 0.15287, -0.031587, -0.066155, -0.02616, -0.240334, -0.227592, 0.288963, 0.154806, -0.144075, -0.030972, -0.028659, 0.348307, 0.173281, 0.066292, 0.109225, -0.063842, -0.071711, -0.054808, -0.058305, 0.000984, -0.188554, 0.002773, -0.044802, -0.025583, 0.257908, 0.053151, -0.121728, 0.070743, -0.093525, -0.072564, 0.136392, -0.112299, 0.196902, -0.128876, -0.322784, 0.110913, -0.137278, -0.10238, 0.366251, 0.313592, 0.062081, 0.028395, 0.163003, 0.121606, 0.212547, 0.141319, 0.157265, -0.028095, 0.115525, -0.051139, 0.150008, -0.118331, -0.020157, 0.088831, -0.024144, 0.130464, -0.007818, 0.011428, -0.019779, 0.023408, -0.050138, 0.087918, -0.005303, 0.224103, -0.108852, -0.079388, 0.089245, 0.058761, 0.01927, 0.018892, 0.13984, -0.133471, 0.065467, 0.12869, 0.156558, -0.297544, -0.346569, -0.002873, -0.098549, -0.103257, 0.009214, -0.084477, -0.472699, -0.07809, 0.045298, -0.232183, -0.200919, 0.201858, 0.282672, 0.356111, 0.268888, 0.299698, 0.045851, 0.041012, 0.078576, 0.118111, 0.053474, 0.149434, 0.124563, -0.119422, -0.071178, 0.032037, -0.220782, -0.06898, -0.117297, 0.063338, 0.069829, -0.070456, -0.028979, -0.361428, -0.381341, -0.021139, -0.206695, 0.010866, -0.144737, 0.224879, 0.301523, 0.134156, 0.123155, 0.151436, -0.084169, -0.201682, -0.398517, -0.16006, -0.065872, -0.087441, -0.130664, -0.257249, -0.521946, -0.048742, -0.445682, -0.218644, 0.097865, -0.160052, -0.001103, -0.042338, 0.118977, 0.095895, 0.05968, -0.303015, 0.029713, 0.086274, 0.112243, 0.103393, -0.204827, -0.024073, 0.13645, 0.160196, 0.291876, 0.332295, -0.390163, -0.467928, -0.393041, -0.130859, -0.240201, -0.467404, -0.352276, -0.453244, -0.230767, 0.15272, -0.01286, 0.090233, 0.123226, 0.002976, 0.157029, 0.056437, -0.124458, 0.177379, 0.138045, 0.210579, -0.108003, 0.266884, 0.275615, 0.154964, 0.164735, 0.010211, -0.048565, -0.179892, -0.17554, 0.028285, -0.316471, -0.370133, -0.34245, -0.237396, -0.320346, -0.074575, 0.090526, 0.047802, 0.112795, 0.160727, 0.163727, 0.083856, 0.206322, 0.016956, -0.033959, -0.125181, 0.132686, 0.083743, -0.196033, -0.076793, -0.217337, -0.048418, -0.265856, -0.408441, -0.131903, -0.239851, 0.057462, 0.124725, 0.02385, -0.088534, 0.238081, -0.010882, -0.003023, -0.23208, 0.01922, -0.012769, 0.045257, -0.041983, 0.140256, -0.050094, 0.023884, -0.094926, -0.230631, -0.415869, -0.060205, -0.105848, -0.487754, -0.247821, 0.123994, -0.213614, -0.133802, -0.141225, 0.039007, -0.124879, -0.080975, 0.030574, 0.064915, 0.13172, 0.223554, 0.0964, -0.146464, 0.067683, 0.018308, 0.019872, 0.012171, 0.078864, 0.144604, 0.19749, 0.140696, 0.064285, 0.031431, -0.441248, -0.078029, -0.365665, -0.607679, -0.26017, -0.338215, -0.187328, -0.094642, -0.243724, -0.351861, -0.18599, -0.118487, -0.089194, 0.153255, 0.063393, -0.064472, 0.111606, -0.039653, -0.104773, -0.029522, -0.230697, -0.156179, 0.029311, -0.163718, -0.031941, 0.089525, 0.047745, 0.176598, 0.22126, -0.017757, -0.271251, 0.217869, -0.34721, -0.047544, 0.033684, 0.033616, 0.126658, 0.095688, -0.05282, 0.179575, 0.156115, -0.018544, 0.212767, 0.18773, 0.053996, 0.107003, 0.03349, -0.255409, -0.153749, 0.130208, -0.016032, 0.10667, 0.057141, 0.103299, 0.112321, -0.065859, 0.151211, 0.174913, -0.065649, -0.024573, 0.124719, 0.305921, 0.194887, 0.134928, 0.043682, 0.193725, 0.26359, 0.145725, 0.26983, 0.191447, 0.004469, -0.533909, -0.560095, 0.10097, -0.258541, -0.507899, 0.151493, 0.099187, -0.042454, 0.083014, -0.204509, -0.061536, 0.090614, -0.081631, 0.050639, 0.078806, 0.109091, 0.162837, 0.053826, -0.215132, -0.218231, 0.151586, 0.006985, -0.094588, 0.337445, 0.319111, 0.000599, 0.130433, -0.131247, 0.152683, 0.133269, 0.140211, -0.063515, -0.059198, 0.216234, 0.098967, -0.09953, -0.409775, -0.348158, -0.165395, -0.609857, -0.489705, -0.192599, -0.22539, -0.137021, -0.36925, -0.302355, -0.304843, -0.13092, -0.212768, -0.162388, -0.16647, -0.281367, -0.25006, 0.119878, 0.057366, 0.012294, -0.025696, 0.021494, 0.170373, -0.12021, 0.153503, 0.198922, 0.090605, -0.178611, -0.151857, 0.179127, 0.031839, -0.125197, 0.027501, 0.144687, 0.179837, 0.127392, -0.17171, -0.169729, -0.014839, -0.124879, -0.166814, 0.148642, 0.016407, -0.246185, -0.035632, -0.21213, -0.183766, -0.0533, -0.215691, 0.024393, -0.292943, -0.120513, -0.027578, -0.050069, -0.006142, 0.200173, 0.089429, -0.059134, -0.002172, -0.10981, 0.077692, 0.011605, 0.038523, -0.19715, -0.39432, -0.337942, -0.570164, -0.12759, 0.215678, -0.149349, -0.303868, -0.241152, 0.01445, -0.149648, -0.072408, 0.085243, 0.050482, 0.024195, 0.020462, 0.097322, -0.440544, 0.391197, 0.127784, -0.180765, 0.429926, 0.184873, -0.180224, -0.008199, 0.021247, 0.148669, -0.055504, -0.148993, 0.259093, -0.082445, 0.00234, 0.187533, 0.09042, 0.141985, 0.00041, -0.018404, 0.036476, -0.143904, -0.066549, -0.194329, 0.18807, 0.184065, 0.216725, 0.061217, 0.073323, 0.073495, 0.13522, -0.071693, 0.018349, 0.213514, 0.174267, 0.095742, 0.115482, -0.130456, 0.116069, 0.064243, 0.020593, 0.015627, -0.023557, 0.044363, 0.099226, 0.132695, -0.421238, -0.142577, 0.141773, -0.215635, -0.037605, -0.239175, -0.250587, 0.08158, 0.168987, 0.021504, 0.060247, -0.004381, -0.228355, 0.063764, -0.065922, -0.184524, -0.095734, -0.013433, -0.848243, 0.280004, 0.137099, -0.65153, 0.020555, -0.057936, -0.516207, -0.086555, 0.024639, 0.345874, 0.066476, 0.203789, 0.177468, 0.034224, 0.200457, -0.034573, 0.00308, -0.045986, -0.571007, -0.103811, -0.011588, -0.309314, -0.148338, 0.031844, -0.199015, -0.106532, 0.279577, -0.644977, -0.181888, -0.193068, -0.386465, -0.304432, -0.03676, -0.1885, 0.035786, 0.093221, 0.062076, 0.267683, -0.011183, -0.09209, 0.204684, -0.04654, -0.100897, 0.080255, 0.158579, 0.056059, -0.181779, 0.136761, -0.008568, 0.122794, 0.193758, -0.110184, -0.17293, 0.158321, -0.038642, -0.093692, 0.122214, -0.112076, 0.175829, -0.055451, -0.160035, -0.132004, -0.004132, -0.126173, 0.177229, 0.151637, -0.258053, -0.019081, 0.078975, -0.132485, 0.151601, -0.02152, -0.663506, -0.215132, -0.017114, -0.200351, 0.012913, -0.010726, -0.028142, -0.052139, 0.12842, 0.015036, 0.045891, 0.128893, 0.247492, 0.510531, -0.283844, 0.184111, 0.387054, -0.131405, -0.089394, 0.114439, 0.074063, -0.069382, 0.26213, 0.076194, -0.01912, 0.025223, -0.078094, -0.071121, -0.04394, 0.048032, 0.087034, 0.18396, 0.011531, -0.011845, 0.084466, 0.055024, 0.165186, 0.0292, -0.011963, -0.088176, -0.112419, 0.004922, 0.00633, -0.023213, 0.008507, -0.08069, -0.079121, 0.09071, 0.181766, 0.123445, -0.065278, 0.129635, 0.052556, -0.055797, -0.179599, 0.204858, 0.217557, -0.139839, -0.027315, 0.076325, -0.055248, -0.210127, 0.025828, -0.12601, -0.272396, 0.003501, -0.020896, -0.179571, 0.055944, -0.00949, -0.108568, 0.116786, 0.073498, -0.015026, 0.395728, 0.08211, 0.038202, -0.147483, -0.137788, -0.101785, -0.376374, -0.521889, -0.141351, -0.050928, 0.077162, 0.19461, -0.434429, 0.115305, 0.272356, 0.112548, -0.114643, 0.022041, -0.074007, -0.126512, -0.041107, 0.155458, 0.144765, -0.022905, 0.168724, 0.239608, -0.094446, 0.052968, 0.093937, -0.072706, -0.03579, -0.198451, -0.238995, 0.008849, 0.068728, 0.087728, 0.057028, -0.08069, -0.062546, -0.060676, -0.144753, -0.083519, -0.523853, -0.462999, -0.478059, -0.223773, -0.108873, 0.122541, -0.084986, 0.280499, 0.18281, -0.215803, -0.07835, -0.066824, -0.087083, -0.008263, 0.082611, 0.331752, -0.021373, -0.03798, 0.0429, -0.245624, 0.013855, -0.063103, -0.010984, 0.010295, -0.074149, -0.027303, 0.153543, 0.097342, 0.1356, 0.185339, 0.273199, 0.128185, -0.005368, -0.031357, -0.12334, -0.123724, -0.079657, -0.230606, 0.070757, -0.122298, -0.008172, 0.240715, 0.290857, 0.269591, 0.17446, 0.142721, 0.08922, -0.020205, -0.037534, -0.222108, -0.216295, -0.060098, -0.109631, -0.047343, 0.288853, 0.087706, 0.123771, -0.113111, -0.378233, -0.174433, 0.170738, 0.200827, 0.168511, -0.23687, -0.100373, 0.030537, -0.189521, 0.087181, -0.203194, 0.232576, 0.147156, 0.042321, 0.159633, 0.228771, 0.096742, -0.151946, 0.147138, 0.163581, 0.074373, -0.038596, 0.06313, 0.027993, -0.007336, 0.01969, -0.168633, -0.05156, 0.022934, 0.132064, 0.054998, -0.039439, 0.160528, 0.042498, 0.063512, 0.040862, 0.040829, -0.092146, 0.110477, -0.027995, 0.017948, 0.052154, 0.019437, 0.121518, -0.413675, -0.279231, 0.087243, -0.16353, -0.335638, -0.223731, -0.004749, -0.329163, -0.181114, -0.102393, 0.023432, -0.012228, 0.207198, 0.084062, 0.207957, 0.109108, 0.044013, 0.216704, -0.010395, 0.086249, -0.040274, -0.01134, -0.179432, -0.072042, 0.21253, 0.033397, 0.163094, -0.303651, -0.560598, -0.430673, 0.021569, 0.134818, 0.114629, 0.112571, 0.120953, 0.126683, -0.13237, -0.079877, -0.128487, -0.081156, -0.056659, -0.017776, 0.026304, -0.012541, 0.062873, 0.196811, 0.183342, 0.206433, 0.078363, -0.181368, 0.065384, 0.178907, 0.003626, -0.102792, 0.016879, 0.073124, 0.006536, -0.162299, -0.546351, -0.353849, -0.165184, -0.07658, -0.195604, 0.134445, -0.174188, 0.079511, 0.248313, 0.298896, 0.203002, 0.078199, -0.057937, 0.022636, -0.167103, -0.262075, -0.399496, 0.319954, 0.181059, -0.002, -0.061729, 0.032109, 0.155652, -0.13764, -0.095024, -0.016245, -0.162144, -0.438424, -0.092867, 0.109062, 0.008044, -0.028866, -0.070925, -0.147569, -0.118263, 0.033589, -0.036155, -0.080037, -0.023307, -0.115869, 0.157919, -0.439669, -0.269125, 0.239244, -0.061577, -0.328019, 0.11344, -0.145636, 0.01298, -0.111973, 0.077133, -0.16962, -0.282957, 0.031304, -0.072871, 0.01062, -0.114465, -0.031435, -0.133105, -0.028037, -0.016343, 0.008005, -0.146733, 0.093291, 0.074553, 0.282696, 0.065242, -0.045513, 0.043886, -0.056537, -0.162435, 0.136643, 0.111016, -0.196421, -0.0575, -0.118396, 0.121927, -0.139281, -0.186688, 0.173638, -0.216272, -0.12979, 0.086382, -0.039968, 0.021278, -0.219792, 0.126721, -0.014363, 0.025597, 0.05123, 0.079984, -0.089634, -0.131429, -0.08581, 0.09725, -0.351835, -0.004706, 0.307303, -0.301244, -0.090252, 0.024911, -0.080929, -0.027644, 0.122552, -0.342951, -0.081845, 0.101181, 0.123242, 0.001142, -0.032533, 0.141461, 0.037957, -0.293315, 0.033679, -0.013726, -0.131071, 0.147104, 0.111846, 0.001896, -0.321299, -0.250105, -0.237331, -0.133031, -0.28361, -0.01657, 0.044576, -0.237645, 0.130948, -0.230744, 0.095311, 0.189382, -0.146528, -0.024079, 0.193441, -0.039828, 0.006348, 0.187421, -0.117658, -0.206158, 0.229856, -0.440182, -0.372573, 0.04462, -0.415654, -0.073726, 0.113224, 0.080424, 0.248472, 0.303853, 0.065297, 0.195122, 0.267455, -0.005558, 0.193102, -0.031884, 0.27742, 0.327986, 0.060856, 0.174874, 0.122105, -0.132906, 0.495908, 0.370992, -0.1571, -0.032395, 0.016952, 0.23062, -0.088746, -0.186974, 0.113145, 0.026411, -0.330625, 0.299519, 0.115574, 0.060586, -0.108327, 0.02639, 0.070002, -0.095659, 0.119136, 0.009251, 0.052403, 0.037317, 0.128064, 0.12376, -0.037064, 0.119924, 0.173987, -0.107729, 0.145179, 0.144097, -0.21067, -0.177269, 0.001571, -0.207825, -0.142249, -0.404733, -0.021332, -0.029351, -0.427675, -0.285332, -0.026823, 0.332977, -0.305112, -0.062714, 0.353366, -0.349861, 0.020533, 0.301995, 0.253872, 0.252365, 0.165238, 0.173319, 0.140003, 0.190783, 0.196233, 0.411444, 0.198547, 0.022944, -0.261272, 0.223213, -0.048241, -0.206434, 0.025827, -0.240376, -0.250081, 0.084309, -0.222661, -0.189806, -0.094055, -0.006583, -0.451121, -0.10718, 0.073829, -0.398533, 0.228409, -0.208692, -0.181757, 0.00202, -0.207982, -0.11708, 0.077742, -0.098013, 0.0223, 0.130972, 0.000671, 0.062066, 0.072419, -0.080528, -0.013318, 0.29081, 0.121531, 0.134823, 0.312342, -0.275007, -0.147816, 0.04063, -0.52029, -0.373874, -0.142293, -0.130475, -0.539999, 0.113357, -0.371536, -0.10175, 0.174887, -0.169821, -0.076612, 0.01837, -0.021841, 0.164191, 0.158383, -0.193031, -0.131026, 0.168087, -0.20723, -0.185246, 0.118895, -0.272833, -0.07919, 0.050697, 0.026647, 0.159562, 0.225777, 0.095776, -0.028172, -0.050876, -0.138009, -0.112027, -0.212244, -0.119072, 0.047881, 0.302909, -0.075409, -0.082503, 0.182356, 0.041113, 0.082508, 0.074693, 0.277135, 0.023037, -0.167599, 0.05686, -0.128869, 0.043018, 0.319291, -0.05011, 0.129984, 0.125115, -0.059233, 0.134743, 0.329149, -0.128436, 0.060691, 0.123908, 0.271289, 0.250989, 0.140703, 0.283449, 0.063387, 0.083917, 0.249991, 0.180441, 0.054718, 0.198474, 0.154367, 0.117336, 0.149695, 0.340734, 0.051895, 0.147836, 0.239654, 0.127057, 0.125534, 0.150402, -0.089331, -0.075204, -0.217529, -0.143097, -0.196953, -0.162376, -0.196279, 0.110263, 0.108895, -0.022454, 0.035481, 0.098153, 0.15714, -0.246333, 0.000821, 0.077973, -0.113496, -0.058247, 0.231695, 0.076831, -0.017806, -0.00537, -0.076072, -0.140957, -0.060486, -0.350199, -0.222386, 0.101158, 0.258921, 0.222244, 0.180057, 0.322686, -0.015417, -0.001987, 0.104743, 0.097386, -0.219982, -0.371199, -0.275538, -0.002195, -0.448845, -0.448731, -0.112519, -0.280916, -0.162032, 0.251913, -0.103737, -0.017238, 0.098755, 0.17348, 0.078491, 0.123067, -0.013284, 0.120309, 0.066683, -0.004543, -0.020193, 0.077913, -0.25473, -0.087236, -0.108758, -0.035793, -0.129696, -0.187994, -0.101389, -0.14791, -0.002761, -0.109393, 0.048978, 0.095503, 0.178212, 0.046892, -0.122537, -0.150169, 0.094348, -0.13992, -0.10633, 0.147605, -0.076069, 0.011674, -0.070568, 0.068941, 0.124348, 0.138807, -0.037937, -0.210898, 0.028201, -0.190537, -0.232321, -0.176309, -0.247102, 0.180884, 0.288889, 0.254431, 0.095078, 0.069074, -0.184608, -0.054218, 0.073294, 0.056601, -0.0727, -0.209583, -0.047732, -0.157529, -0.134436, 0.0822, -0.090013, 0.050183, -0.0028, -0.070922, -0.071006, -0.060822, -0.035435, 0.17195, 0.079778, 0.063834, -0.001634, -0.149406, -0.352044, -0.23167, -0.089537, -0.776496, -0.763747, 0.056346, -0.165011, -0.079665, -0.006765, 0.108694, 0.28115, 0.089259, 0.142827, 0.227253, 0.181701, 0.261333, 0.347571, -0.111541, -0.069079, 0.060107, -0.057835, 0.068759, 0.108852, 0.116689, 0.071313, 0.166649, 0.131262, -0.062801, -0.113991, 0.113054, -0.3417, 0.045035, 0.014372, -0.476381, -0.134098, 0.17327, -0.029456, 0.049401, 0.073587, 0.034821, 0.054932, 0.013204, 0.060612, -0.096997, -0.000716, -0.40132, -0.374371, -0.06138, -0.478467, -0.149277, -0.394872, -0.629585, -0.217135, 0.015051, -0.110762, 0.021044, -0.228088, -0.291355, -0.218582, -0.227161, -0.082574, -0.100872, 0.013038, 0.012015, -0.10972, -0.045199, 0.00203, -0.031366, -0.107319, -0.352365, -0.127985, 0.070326, 0.01739, 0.177553, 0.034783, -0.158944, -0.006027, 0.006971, -0.143074, -0.177224, -0.046848, 0.157699, -0.009893, 0.220128, 0.137534, 0.099662, 0.03635, -0.008013, 0.097748, -0.027498, 0.090729, -0.016246, 0.134547, 0.113558, 0.023018, -0.061896, -0.166215, -0.102614, -0.015074, -0.005344, -0.042146, 0.233737, 0.069112, 0.070086, 0.113641, 0.187862, 0.10305, 0.078421, -0.028894, -0.03874, 0.207335, -0.002286, -0.004252, 0.085088, -0.035647, -0.281362, -0.217431, -0.259906, -0.10746, -0.154781, -0.185469, -0.164196, -0.037434, 0.036678, -0.203644, 0.020151, -0.064931, -0.16153, -0.082236, -0.310021, -0.289457, 0.021235, -0.198555, -0.052122, 0.109849, 0.110374, -0.082104, 0.188267, 0.195632, 0.020099, -0.047647, 0.061327, 0.163946, 0.047095, 0.159354, 0.224074, -0.235861, 0.009467, 0.132374, 0.154805, -0.160922, 0.088521, -0.343359, -0.424671, -0.142473, -0.121861, -0.496255, -0.107904, 0.371604, 0.036744, 0.093028, 0.011171, -0.539166, -0.05246, -0.021019, -0.288918, -0.01075, 0.194817, 0.115831, 0.272519, 0.168316, 0.036114, 0.26026, 0.283658, 0.126358, 0.05412, 0.258046, 0.119685, -0.0664, -0.167426, 0.015328, -0.033159, -0.209064, -0.134816, -0.077137, 0.129685, 0.036419, 0.207649, 0.098425, -0.197912, 0.265448, 0.177286, -0.253634, 0.101651, 0.076032, -0.156886, 0.083973, -0.13437, -0.55649, -0.275241, 0.11995, -0.548335, -0.49642, 0.151635, -0.075951, -0.188928, 0.052871, 0.185468, 0.066568, -0.090201, -0.102632, 0.074227, -0.1144, -0.065222, 0.137876, 0.055979, -0.099758, 0.139917, 0.333416, -0.025136, 0.067452, 0.10734, 0.190547, 0.052369, -0.072731, -0.024546, -0.062441, -0.178873, -0.240314, 0.010389, 0.090156, 0.054709, 0.09739, -0.009702, -0.023652, 0.106856, 0.005564, -0.198154, 0.071655, 0.079005, -0.063755, -0.040117, -0.220073, 0.015658, 0.176918, -0.194001, -0.116126, 0.164778, -0.205575, 0.029103, 0.009884, -0.366596, -0.329187, -0.352437, -0.302422, -0.244877, 0.131079, -0.037526, 0.033791, 0.255073, -0.646198, -0.816724, -0.252328, -0.222097, -0.524817, -0.135989, 0.290875, -0.018218, 0.100968, -0.070576, -0.2342, 0.086044, -0.245885, -0.025639, 0.256388, -0.190876, -0.045141, 0.438794, 0.33058, 0.194877, 0.195608, 0.252337, 0.025816, -0.00026, 0.256437, 0.095913, -0.027642, -0.235592, 0.034224, 0.120132, -0.134257, 0.178251, -0.153525, -0.001971, 0.133658, -0.312907, -0.186334, 0.012807, 0.044263, -0.099683, 0.014901, -0.068216, 0.074106, 0.053579, 0.066883, 0.056137, 0.147172, 0.125778, -0.077445, 0.010157, 0.031827, 0.145371, 0.239698, 0.273551, 0.102748, -0.144774, -0.094917, -0.195102, -0.357078, -0.161853, -0.308384, -0.174282, -0.061367, -0.070938, 0.075901, 0.101553, -0.016016, 0.111787, 0.013077, 0.114372, 0.09879, 0.095021, -0.04248, -0.077581, -0.020521, -0.029112, -0.167602, -0.178898, -0.183756, -0.218867, -0.106913, 0.147465, 0.135526, 0.097062, -0.106953, -0.213522, -0.092552, -0.190941, -0.232512, -0.125288, -0.027092, -0.054056, -0.146755, -0.098386, 0.125553, 0.044023, 0.161861, -0.099874, -0.079503, -0.075509, 0.092225, 0.323872, -0.524641, -0.156469, -0.207304, -0.215291, -0.455168, -0.669071, 0.041099, 0.111078, -0.191099, 0.010465, -0.060276, -0.12682, 0.142423, 0.029339, 0.063742, 0.079263, 0.115476, -0.014889, 0.03935, 0.011662, 0.062288, 0.133082, 0.036091, 0.052317, -0.042056, -0.036223, 0.214116, -0.01042, 0.024811, 0.281562, 0.161091, 0.106279, 0.199766, -0.241585, 0.105472, 0.16747, -0.228962, 0.05222, 0.021756, -0.066327, -0.143313, -0.358303, -0.363525, -0.036844, -0.118822, -0.255213, -0.235215, -0.185954, -0.091071, -0.186884, 0.070521, 0.142032, -0.03677, 0.089534, 0.129327, 0.175308, -0.186106, -0.063696, -0.022331, -0.206434, 0.201487, 0.118209, -0.072927, -0.0164, -0.016002, -0.116884, 0.204621, 0.093652, 0.051659, -0.318658, -0.087872, 0.307289, -0.322378, -0.378506, -0.277409, -0.150573, -0.125176, -0.059637, 0.022308, 0.0287, 0.047985, -0.018429, -0.075865, -0.037726, -0.180808, -0.022413, 0.040107, 0.040578, 0.384111, 0.072632, -0.13275, 0.128004, 0.438362, -0.087752, -0.290023, -0.068891, 0.098124, 0.071575, -0.091605, -0.073013, -0.117111, -0.006253, 0.301993, 0.348787, 0.066014, 0.153468, 0.177094, -0.266449, 0.049955, 0.043101, 0.133213, -0.029052, -0.155797, -0.122571, 0.065816, -0.207842, 0.207571, 0.272479, 0.124026, -0.029421, -0.033617, 0.406007, 0.228843, 0.204973, 0.233761, 0.098456, -0.053981, 0.375515, 0.260973, 0.008006, 0.267592, 0.130353, -0.152801, -0.032658, 0.080388, -0.268451, -0.106048, -0.034301, -0.139831, -0.620947, -0.084808, 0.000897, 0.070597, 0.137708, 0.110879, -0.267738, -0.206068, 0.35021, -0.021068, 0.093732, -0.109945, -0.192565, -0.208384, 0.086098, 0.116308, -0.086091, 0.079155, 0.013969, 0.037511, 0.272843, 0.214615, 0.04311, -0.281297, 0.151476, 0.186007, -0.081144, -0.30677, 0.185171, 0.059484, 0.034673, -0.061878, -0.127798, 0.043761, -0.06736, 0.031342, -0.016423, 0.200378, -0.545007, -0.386303, -0.089989, -0.01663, -0.293579, -0.082378, -0.010338, -0.043502, 0.065166, 0.042705, -0.015414, 0.404832, -0.140797, 0.074728, 0.05332, -0.479659, -0.067315, 0.025454, -0.087789, -0.159286, -0.164942, -0.05142, -0.514136, -0.185054, 0.232574, -0.084497, -0.139164, 0.021271, -0.212996, -0.051822, -0.060142, 0.04565, -0.161999, 0.10211, 0.15505, 0.025658, -0.160451, -0.102575, -0.239318, -0.255734, -0.004457, 0.079821, -0.642211, -0.200283, -0.168889, -0.195866, -0.170659, 0.021489, 0.084079, -0.130883, 0.222145, -0.02898, -0.034191, -0.245706, 0.09511, 0.129109, 0.028529, -0.009204, 0.025533, -0.04675, 0.014248, -0.06628, -0.143133, -0.09086, -0.029996, 0.062554, -0.085412, 0.112368, 0.293361, -0.281846, -0.085003, 0.1243, 0.028101, 0.140761, -0.102032, 0.127339, 0.084242, -0.241206, 0.013151, -0.010488, -0.16116, -0.309312, -0.159379, 0.263314, 0.097705, -0.233008, 0.060161, 0.177293, 0.271937, -0.1031, 0.13853, 0.148779, -0.067429, 0.158347, 0.194572, -0.102232, -0.262731, -0.104563, -0.03541, 0.034649, -0.027046, 0.123743, 0.05477, 0.038203, 0.041453, -0.035827, 0.052444, 0.105191, 0.057385, 0.155027, 0.097383, 0.205394, -0.044925, -0.014599, 0.139978, 0.002675, 0.061171, -0.167267, -0.200699, -0.039421, 0.022149, -0.054244, 0.014988, 0.155189, -0.007109, -0.105655, -0.024731, -0.069093, -0.140019, 0.115526, 0.137824, 0.169862, -0.227555, -0.112749, 0.205999, -0.18777, -0.092189, 0.112657, -0.134642, -0.367457, -0.003559, -0.083572, 0.005064, -0.022033, -0.101216, -0.06333, 0.173862, -0.051075, -0.153705, -0.157577, -0.007859, -0.15027, 0.017884, -0.099349, 0.170294, 0.156046, 0.109467, -0.160411, 0.134772, -0.189224, -0.235063, -0.293166, 0.111458, 0.129963, -0.018913, 0.025785, -0.076653, 0.003817, -0.110293, -0.082026, -0.046692, -0.030491, -0.161703, 0.280014, 0.027012, 0.051836, 0.145669, 0.154699, 0.066691, -0.02535, -0.096326, -0.067985, 0.02459, -0.15642, 0.115629, -0.185695, -0.14823, -0.012317, -0.03223, -0.046678, -0.02791, 0.035083, 0.094187, -0.057526, -0.055421, 0.152752, 0.044467, 0.044827, -0.084596, 0.024705, 0.086935, -0.010184, 0.015125, 0.088381, -0.221508, -0.307806, -0.116025, -0.058051, 0.19632, -0.005035, 0.03223, -0.048918, -0.094901, 0.126594, -0.114742, 0.221947, 0.062113, -0.245776, 0.021677, 0.093676, -0.193853, 0.028224, 0.067614, -0.047291, 0.064416, 0.265458, -0.133596, -0.304688, 0.116799, -0.406933, 0.02107, 0.402379, -0.29516, 0.004396, 0.005961, -0.035472, 0.034578, 0.311647, 0.025082, 0.203429, -0.303848, -0.268199, -0.125957, 0.231135, -0.058417, -0.06964, -0.047773, 0.273148, 0.093096, -0.002304, 0.357826, -0.128509, 0.071925, -0.103443, 0.193353, 0.136346, -0.001111, 0.575876, -0.260438, -0.242514, 0.396009, 0.008009, 0.114908, -0.025984, -0.052784, 0.118033, 0.009414, -0.226028, -0.091939, -0.085506, 0.050196, 0.053285, -0.139603, 0.124375, 0.080934, -0.034311, -0.03648, 0.074689, -0.10349, 0.063485, -0.331293, -0.060725, 0.030879, -0.304383, -0.08062, 0.193814, -0.04611, 0.043958, -0.015892, 0.00019, 0.189123, -0.090735, 0.079909, -0.062811, -0.124298, -0.094316, 0.100804, -0.208647, -0.266079, -0.154586, -0.124809, -0.3225, 0.001594, -0.332098, -0.400163, -0.092151, -0.058816, -0.039671, 0.003582, -0.150674, -0.014096, 0.044261, -0.016218, 0.04692, 0.124256, 0.199542, 0.107186, 0.192708, -0.141663, -0.077947, 0.083267, -0.046108, -0.025595, -0.12986, 0.489476, 0.166873, -0.352621, -0.000367, -0.135959, -0.360926, -0.161656, -0.102824, -0.112951, -0.271911, -0.134076, -0.206516, -0.298866, -0.132769, 0.169167, -0.148243, -0.18363, 0.102087, -0.010579, 0.107996, 0.188129, -0.106809, 0.049121, -0.019764, -0.111563, -0.029459, 0.216338, 0.254691, 0.291168, -0.438485, 0.209757, 0.015226, -0.510196, -0.063816, -0.338441, 0.024014, -0.163471, -0.054389, 0.166972, -0.315633, -0.086897, 0.149271, 0.048582, 0.179452, 0.146789, 0.016213, 0.371474, 0.260079, -0.026441, 0.305201, 0.066438, -0.208264, 0.132816, 0.090634, 0.294467, -0.039343, 0.179884, -0.072342, 0.238873, 0.242118, 0.073158, 0.139465, 0.305104, 0.224459, 0.195734, -0.40894, 0.226459, 0.156574, -0.261266, 0.027914, 0.077713, -0.436058, 0.07003, 0.333244, -0.240861, 0.155964, -0.173471, -0.388612, -0.254573, -0.378396, -0.020967, -0.074112, -0.013857, 0.334165, -0.178679, 0.002291, 0.210923, -0.036523, 0.082041, -0.160706, -0.026885, -0.142112, -0.113717, -0.124507, -0.007907, -0.123622, 0.010451, 0.159859, 0.123162, 0.267031, 0.175528, -0.083905, 0.098734, 0.216668, -0.416228, -0.051644, -0.192058, -0.001794, -0.139095, 0.04598, 0.274437, -0.138062, -0.189504, -0.178033, -0.29621, 0.065739, -0.323453, -0.020562, -0.318992, -0.143932, -0.05773, -0.046283, -0.093199, -0.304391, -0.093872, -0.015759, 0.373033, 0.046535, 0.084075, 0.149912, 0.229223, -0.358823, 0.068228, 0.158564, 0.12955, -0.240009, -0.327936, 0.164508, -0.003102, 0.058854, 0.30043, -0.043983, 0.210064, 0.024677, -0.005679, -0.041416, 0.234299, 0.256001, 0.131591, -0.217581, 0.181073, 0.070912, -0.102696, -0.110233, 0.031903, -0.018307, -0.063458, -0.127962, -0.009577, -0.365044, -0.30508, 0.012849, 0.121143, 0.046685, 0.013072, 0.204828, 0.089861, 0.038492, -0.014016, -0.271949, -0.200512, -0.083767, -0.015725, 0.020101, -0.074331, -0.175819, 0.016473, -0.089689, 0.108864, 0.207987, -0.110007, -0.027015, 0.034642, 0.241116, 0.052037, 0.023929, 0.034775, 0.034293, -0.045723, 0.08005, -0.064037, -0.23262, 0.048375, 0.134171, -0.071247, 0.086127, 0.212634, 0.153689, -0.118547, -0.239345, -0.063947, -0.368712, -0.240761, 0.074937, -0.345007, -0.458986, 0.186903, 0.312052, 0.125185, -0.08601, 0.574916, 0.242203, -0.144727, -0.038176, 0.242476, 0.117325, 0.07645, 0.012401, -0.028889, -0.34105, -0.250535, 0.17651, -0.003787, -0.21776, -0.056865, 0.234566, 0.224592, 0.012186, 0.262636, -0.042657, -0.116274, 0.024542, -0.105977, -0.1389, -0.012465, -0.01474, -0.232922, 0.001398, 0.029009, 0.087859, -0.068604, -0.05255, -0.10276, 0.209119, -0.036159, -0.344972, 0.145704, -0.00551, -0.060048, -0.011955, 0.052764, -0.081029, -0.066926, 0.08742, 0.078895, 0.364129, -0.002801, -0.259291, 0.152031, -0.216988, -0.21825, 0.117047, -0.119591, 0.174709, -0.106999, -0.163916, -0.231101, -0.411608, -0.455213, -0.409421, 0.205723, 0.012078, -0.077637, 0.319106, 0.165836, -0.123536, 0.249214, 0.021083, -0.169551, -0.021201, 0.047582, 0.170477, -0.248708, -0.228953, 0.315752, -0.029934, -0.052309, 0.340019, -5.3e-05, -0.000988, -0.022891, -0.007042, 0.028432, 0.08231, -0.322343, -0.051098, -0.064188, -0.183295, -0.315287, -0.007751, 0.102737, 0.065906, 0.004694, 0.128772, 0.134852, 0.038202, 0.054577, 0.070637, 0.168848, 0.213872, 0.183161, 0.300896, 0.043139, 0.042204, 0.016867, 0.204921, 0.102436, 0.187067, -0.119817, -0.31166, -0.135234, 0.009874, 0.048547, -0.067045, 0.107575, -0.097261, -0.162133, 0.118851, -0.055566, -0.091318, 0.223466, 0.057686, -0.087771, -0.090341, -0.177607, 0.051107, -0.159753, -0.129145, 0.186237, -0.173745, 0.009556, 0.215356, 0.16028, -0.168898, -0.066792, -0.013105, -0.001632, 0.001741, -0.200907, 0.075403, 0.114557, 0.283992, -0.069426, 0.269492, 0.033001, 0.074763, -0.000675, -0.013219, 0.03769, -0.197576, 0.127565, 0.080477, 0.031068, 0.154234, 0.304735, 0.089517, -0.042015, -0.069952, -0.313882, -0.045156, 0.068559, 0.042945, 0.119595, 0.039458, -0.031399, -0.016213, -0.113048, -0.037553, 0.020894, -0.207693, -0.072788, -0.072018, -0.201287, 0.002458, -0.060514, 0.168455, 0.115538, -0.17574, -0.034069, -0.041718, 0.02978, 0.074747, 0.14239, 0.097404, -0.095425, 0.180516, 0.07447, -0.075618, 0.090616, -0.049933, 0.239458, 0.157523, -0.088765, 0.086081, -0.14832, -0.058205, -0.022873, 0.204055, -0.010148, -0.097518, -0.006204, -0.051032, -0.113157, -0.088079, -0.133011, 0.226545, 0.042503, -0.040022, 0.021044, -0.029366, 0.230191, 0.219228, 0.024269, -0.099401, 0.091915, -0.042264, 0.089749, -0.174357, -0.095487, -0.090253, -0.068549, 0.140879, -0.247132, 0.305628, 0.022172, -0.018807, 0.41377, 0.195522, 0.085947, 0.369018, 0.178935, 0.080538, 0.13859, 0.091947, 0.070195, -0.002171, 0.038279, 0.151178, 0.050181, 0.036901, 0.110323, -0.003739, 0.045421, 0.146971, 0.023066, 0.094434, 0.068671, 0.139552, -0.035273, 0.055249, -0.059517, -0.005018, -0.225381, -0.409772, -0.266231, -0.301312, -0.45447, -0.303548, -0.322398, -0.296808, -0.211715, -0.086401, -0.120654, -0.28948, 0.192296, 0.24194, 0.021513, -0.129583, -0.205953, -0.133937, -0.354507, -0.173666, -0.211966, -0.133807, -0.289905, -0.277208, -0.10113, -0.061907, -0.145001, -0.005353, 0.011685, -0.203945, 0.080136, -0.087066, -0.044074, -0.319867, -0.248718, -0.03571, 0.124405, -0.238797, -0.008215, 0.269091, 0.144764, 0.206275, 0.150422, 0.029247, 0.063757, 0.2616, 0.122633, -0.079563, -0.085016, -0.02837, -0.153543, -0.310585, -0.324787, -0.032712, -0.174735, -0.091559, 0.011936, 0.064672, 0.26344, 0.178882, -0.182266, -0.212591, -0.12504, 0.183487, 0.065091, 0.086888, 0.196558, -0.117569, 0.07493, -0.026919, -0.101816, -0.00329, -0.083137, 0.123074, 0.044083, 0.193282, 0.182682, -0.095682, -0.033278, 0.092351, -0.263648, -0.355221, -0.305746, -0.056925, 0.122335, 0.165537, 0.103596, 0.067883, 0.082392, 0.042543, 0.274205, 0.088169, -0.020076, 0.192292, 0.10523, 0.033833, 0.129013, 0.156085, 0.203181, 0.061352, 0.008191, 0.048216, -0.098797, -0.193212, -0.156324, -0.264888, -0.145298, 0.104519, -0.098757, -0.200918, 0.014671, -0.130291, -0.129074, 0.069566, -0.133904, -0.279287, -0.092749, 0.412298, -0.023848, -0.265839, -0.023917, 0.317996, -0.161984, 0.063891, 0.072341, 0.037294, 0.018088, -0.019969, -0.076727, 0.068815, 0.06256, -0.012284, 0.159131, 0.010329, 0.013588, 0.059299, 0.043919, -0.052174, 0.252554, 0.109453, 0.028519, 0.096775, -0.119679, -0.048293, -0.239333, -0.024909, 0.119061, -0.025818, 0.207346, 0.080808, 0.084699, -0.027402, -0.108702, 0.216991, 0.049187, 0.035823, -0.031857, -0.034656, -0.018176, 0.148355, -0.128987, 0.096943, -0.228124, 0.164704, -0.129787, -0.305459, 0.118499, 0.034801, 0.127012, -0.043155, -0.040486, -0.122354, -0.098391, -0.031291, -0.005681, 0.061834, -0.160374, -0.222054, 0.166377, 0.121065, -0.424561, 0.074579, 0.081751, -0.338972, -0.129028, -0.041398, -0.016944, 0.014959, -0.100548, -0.027022, 0.090187, -0.369285, 0.376306, 0.175559, 0.05845, 0.088285, 0.099869, -0.092726, 0.131317, 0.068561, 0.092329, -0.166376, 0.007075, -0.040839, -0.021979, -0.025979, 0.066508, -0.370282, -0.291065, 0.123247, -0.025392, -0.159029, 0.157853, -0.10845, 0.003551, -0.188319, 0.054638, 0.279536, -0.124148, 0.084547, 0.307676, 0.013218, -0.170234, -0.071259, -0.071268, 0.215107, 0.043835, -0.035178, 0.038086, -0.083117, -0.129995, 0.201437, -0.12394, -0.21387, 0.235979, 0.073741, -0.112482, -0.044243, 0.022214, -0.049926, 0.036268, -0.031594, -0.01388, -0.436958, -0.213526, -0.103772, 0.174679, -0.05542, 0.013546, 0.130416, -0.189733, -0.000221, 0.166949, 0.014051, 0.006412, 0.02183, 0.166712, 0.157887, 0.067858, 0.111103, 0.064576, 0.273271, 0.321973, 0.079496, 0.578367, 0.454356, 0.552323, 0.136429, 0.299523, 0.219673, 0.123693, -0.023378, 0.056683, -0.225044, -0.314252, -0.122022, 0.08492, 0.085383, 0.110745, 0.09027, 0.055596, -0.095792, -0.062971, -0.317064, -0.054671, -0.000802, 0.091676, 0.025584, -0.107758, -0.209987, -0.062147, 0.000837, 0.065677, 0.029333, -0.148275, -0.275177, -0.163186, 0.104258, 0.13921, 0.001237, 0.273957, 0.093563, 0.006151, -0.137989, -0.075993, -0.127703, -0.326957, -0.490619, -0.486569, -0.211423, -0.448649, -0.273897, -0.003435, 0.041976, 0.100866, 0.182641, -0.009848, 0.062724, 0.028509, 0.018497, -0.062655, 0.006009, -0.094452, -0.179799, -0.288781, -0.16954, -0.064405, -0.42268, -0.315927, -0.244595, 0.059593, -0.058255, -0.02675, 0.080442, 0.068159, -0.017362, 0.16272, 0.060422, 0.186313, -0.015721, -0.086268, -0.009714, -0.153854, -0.051881, 0.159555, -0.055799, -0.060025, 0.122537, -0.08729, -0.064214, 0.154983, -0.206456, -0.151236, -0.063365, -0.084105, -0.017052, -0.012553, -0.049983, -0.076057, -0.020211, -0.021461, -0.108458, -0.070912, 0.118452, 0.034384, -0.011137, 0.015889, 0.047899, -0.026183, 0.21784, 0.112157, 0.196673, 0.033745, 0.109313, 0.242522, 0.152112, 0.132068, 0.143005, 0.16616, 0.099607, 0.125728, -0.296938, -0.248234, -0.285407, -0.01194, -0.038271, 0.057276, 0.1465, 0.058589, -0.18566, 0.061864, -0.380082, -0.129715, -0.034037, 0.028148, 0.087588, -0.189973, -0.234215, -0.092688, -0.105896, -0.043231, 0.033535, -0.151137, -0.013617, 0.013983, 0.588425, -0.248701, -0.130295, 0.487359, 0.272588, 0.483936, 0.015607, -0.301416, -0.108385, 0.298154, 0.081556, -0.070895, 0.115709, 0.121433, 0.05511, 0.131983, -0.263286, -0.09827, 0.225204, -0.016796, -0.115997, 0.181718, -0.030488, -0.216871, 0.303822, 0.197998, 0.257019, -0.118667, -0.20984, 0.043477, -0.166658, 0.009569, 0.119387, -0.025977, -0.059806, 0.090432, -0.097963, 0.152882, -0.013831, 0.015431, 0.096391, -0.061663, 0.193439, 0.141383, -0.174915, -0.318724, 0.060718, 0.138708, -0.053319, 0.359778, -0.006144, 0.269529, -0.086282, -0.032634, 0.232082, 0.120931, 0.062329, -0.048388, -0.166103, -0.065427, 0.234341, -0.074716, -0.155395, -0.013048, 0.134028, -0.062806, 0.110106, 0.099389, 0.067683, -0.100891, 0.055334, 0.19568, -0.176968, -0.179779, -0.014653, -0.613055, -0.582228, -0.34447, 0.259036, 0.014777, -0.135571, 0.317209, 0.114109, -0.108472, -0.041069, 0.013884, -0.101378, 0.170263, -0.161097, 0.049829, 0.04916, -0.044942, -0.133394, -0.035646, -0.019048, 0.037521, -0.08682, -0.250365, -0.107779, 0.209591, -0.110785, -0.165914, 0.309528, 0.015164, -0.062509, 0.043843, -0.207834, 0.080552, 0.03154, -0.239314, -0.01891, -0.100775, -0.172281, -0.11836, 0.378751, -0.232817, 0.036892, 0.178592, -0.052459, 0.072167, -0.007383, -0.069222, 0.044783, 0.008359, -0.1511, -0.128926, -0.066544, -0.084, 0.019229, 0.005008, 0.012313, 0.109946, 0.088334, 0.159923, -0.080462, -0.175242, -0.060928, 0.095395, -0.16018, -0.198185, -0.230842, -0.23922, 0.098179, 0.113179, -0.058178, 0.058514, -0.019043, 0.246713, -0.258347, -0.069008, 0.031574, -0.077189, 0.133671, 0.093549, -0.050154, 0.001584, -0.055125, -0.239122, -0.048814, -0.10175, -0.08714, 0.252751, -0.073177, -0.038102, -0.015884, -0.106061, -0.136172, -0.282578, 0.04713, 0.133494, 0.008436, 0.040156, -0.063989, -0.148509, -0.112565, -0.088231, -0.126033, 0.001356, -0.257018, -0.155197, 0.17434, -0.061432, 0.010314, 0.014573, 0.072416, -0.018677, -0.029968, -0.046284, 0.273687, -0.02287, 0.001316, 0.119477, -0.243291, -0.283602, -0.053441, 0.006695, 0.084468, 0.224677, -0.127351, -0.129366, 0.045151, -0.272256, -0.137923, -0.160985, 0.070572, 0.327472, 0.04686, 0.158397, 0.281067, 0.011903, 0.230837, 0.222101, -0.23039, -0.171968, 0.474322, 0.574921, -0.171947, -0.004961, 0.001011, 0.106147, 0.174593, 0.187826, -0.164367, -0.144451, -0.100886, 0.017264, 0.013568, -0.058773, 0.115129, 0.058842, 0.012608, 0.160604, -0.121125, -0.2765, 0.169797, 0.101287, -0.063917, 0.239914, 0.060933, -0.412394, -0.434015, -0.358094, 0.102654, 0.014992, -0.01372, 0.106689, 0.258433, 0.066447, -0.001215, -0.239529, -0.030346, 0.051723, -0.099394, -0.081881, 0.189835, -0.040431, 0.027936, 0.035696, 0.057807, -0.076013, 0.230977, -0.087698, -0.062341, 0.123146, 0.03853, 0.105133, 0.04513, -0.061717, 0.158413, -0.084277, -0.169545, 0.027769, -0.062776, -0.320339, -0.283441, -0.341767, 0.034954, -0.026916, -0.003182, 0.215485, -0.200643, 0.037193, 0.288936, -0.009437, 0.219376, 0.166527, -0.054797, 0.269837, -0.069697, 0.252441, 0.062767, 0.020378, 0.155552, 0.119725, -0.0597, -0.059401, -0.03221, -0.282186, -0.162755, -0.096234, 0.168744, 0.107303, 0.128797, 0.124863, 0.027506, 0.318168, 0.036171, 0.158788, 0.131421, 0.286105, 0.148444, 0.070792, -0.067851, 0.045801, 0.127579, 0.095261, -0.195013, 0.175306, 0.132398, -0.027663, 0.145298, -0.153859, 0.129789, -0.075282, -0.154746, -0.00158, -0.090627, 0.061401, 0.056865, -0.073478, -0.187792, -0.151768, 0.059576, -0.124617, -0.081085, 0.015857, -0.05995, -0.051255, 0.009269, 0.055679, 0.121277, 0.04205, -0.093094, 0.261757, 0.160528, 0.269496, 0.245529, -0.135284, -0.395351, -0.283477, -0.254927, -0.96438, -0.415966, -0.261305, -0.239674, 0.090613, 0.035963, -0.210936, 0.141148, 0.281239, 0.070791, 0.133886, 0.032628, 0.140041, 0.009353, -0.269675, 0.078002, -0.113349, -0.080084, -0.072574, 0.175765, 0.005594, 0.194262, 0.140574, 0.05944, -0.067147, -0.077043, -0.186303, -0.192438, -0.116797, -0.109155, -0.122307, 0.105944, 0.190661, 0.057261, 0.001812, 0.099208, -0.296999, -0.089597, -0.20924, -0.064114, 0.256205, 0.070989, 0.104528, -0.082793, 0.02305, 0.051739, -0.099031, -0.054505, -0.020316, 0.017434, -0.049723, -0.009552, -0.06854, 0.095518, -0.198241, -0.113872, -0.074143, -0.146937, -0.196677, -0.101344, 0.013088, -0.099245, -0.010177, 0.136997, 0.249996, 0.008066, -0.148614, 0.024046, -0.070082, 0.253409, 0.027385, 0.064199, -0.096665, 0.034761, 0.030785, -0.247576, 0.068744, 0.407966, 0.017727, -0.246751, -0.235604, 0.107821, -0.161497, -0.347951, 0.289519, 0.013343, 0.094586, 0.227291, 0.007496, 0.071886, -0.111563, 0.015935, 0.261643, -0.053251, 0.085043, -0.03631, 0.120791, -0.03022, -0.011853, 0.009645, -0.02504, 0.274764, -0.138535, 0.066893, 0.257928, -0.000552, 0.010385, -0.019085, 0.06436, -0.035384, 0.106105, 0.164422, -0.071225, 0.156989, 0.145344, 0.055266, 0.115273, -0.004864, -0.266368, -0.086227, -0.249941, -0.384591, 0.136476, 0.002384, -0.061999, 0.04138, -0.030401, -0.064029, -0.135446, -0.125806, -0.333325, 0.036989, -0.062257, -0.053756, 0.117186, 0.100744, -0.191053, -0.030971, 0.014368, 0.117428, 0.247191, 0.078104, 0.288317, 0.046607, 0.080929, 0.023337, 0.207542, -0.178747, 0.031462, 0.069786, 0.070636, -0.104481, -0.206347, -0.09751, 0.025172, -0.046307, -0.260745, -0.207469, -0.341741, 0.018419, 0.04079, 0.020501, 0.206183, 0.128555, 0.025806, 0.008129, 0.188117, 0.285716, 0.025717, -0.019424, -0.004509, -0.078572, -0.105914, 0.046827, -0.162086, -0.136445, 0.013701, -0.117947, -0.209224, -0.266091, -0.41251, -0.282021, -0.254937, -0.324815, -0.219089, 0.097461, 0.091168, 0.229521, -0.021716, -9.6e-05, 0.169416, 0.149848, -0.005919, -0.036018, 0.054508, -0.051604, 0.085916, -0.171959, 0.101205, 0.087738, 0.151676, -0.159031, -0.067916, 0.090154, 0.122697, 0.165833, -0.00803, -0.04136, -0.094933, 0.089841, -0.246288, -0.042796, 0.168833, 0.358933, -0.018801, -0.248732, 0.343489, 0.195617, -0.141051, 0.330848, 0.095885, -0.039272, -0.28385, -0.081653, -0.03466, -0.029904, -0.159351, 0.132714, 0.117655, -0.068992, 0.004557, -0.004941, 0.030342, 0.298703, 0.176944, 0.065034, 0.127946, 0.118439, 0.094283, 0.028765, 0.069438, 0.165422, 0.105081, 0.261413, 0.22743, 0.081026, 0.21237, 0.174251, 0.033686, 0.082345, 0.020492, 0.088315, -0.399893, -0.483993, -0.327557, -0.382078, -0.12449, -0.005387, 0.096401, -0.13081, -0.10964, 0.001717, 0.048905, 0.143277, 0.099725, 0.018697, 0.051576, -0.229751, -0.186423, -0.06778, -0.179028, -0.229834, -0.262642, -0.378791, -0.213734, -0.148536, -0.254137, -0.401176, -0.193957, -0.15461, -0.22289, -0.240186, -0.066166, -0.040949, -0.14601, 0.226482, 0.088809, 0.006639, -0.047305, -0.173067, 0.194619, -0.190539, -0.030368, -0.29724, -0.070181, -0.01851, -0.130714, -0.103221, -0.141338, -0.098477, -0.081768, -0.013843, 0.037144, 0.152143, 0.010428, 0.12078, 0.069685, 0.066287, 0.126262, 0.239063, -0.014387, -0.135114, -0.117209, -0.201258, -0.108036, -0.06637, -0.139404, -0.269683, 0.271014, 0.102079, -0.002902, -0.108163, -0.190046, -0.028125, -0.026016, 0.053407, -0.073037, 0.133108, 0.013719, 0.241843, 0.065073, -0.014898, -0.203289, 0.019278, 0.076988, 0.162511, -0.029568, -0.033755, -0.040123, -0.010868, -0.234587, -0.059901, 0.053051, 0.019533, 0.032827, -0.102853, -0.088448, -0.027991, 0.290045, 0.273324, 0.106197, 0.238652, 0.209276, 0.189478, 0.032895, -0.039403, 0.18167, 0.042232, 0.026837, -0.082785, 0.075692, -0.129645, -0.243773, 0.08136, -0.107831, -0.293536]}, {"name": "conv3.bias", "description": "Bias for third conv layer", "shape": [32], "dtype": "float32", "min": -0.341268, "max": 0.41827, "mean": 0.041756, "std": 0.229002, "weights": [-0.165846, 0.195108, 0.41827, -0.118963, 0.052476, -0.208469, 0.288022, 0.16946, 0.186331, 0.391186, -0.241201, -0.070898, 0.352992, 0.386797, -0.096319, 0.33935, 0.271415, 0.158868, -0.220053, 0.27788, 0.156503, -0.268453, -0.118455, -0.302336, -0.125063, -0.341268, -0.071649, -0.188567, -0.131868, 0.159423, 0.169051, 0.032475]}, {"name": "fc1.weight", "description": "Dense layer \u2014 combines spatial features into abstract object representations", "shape": [16, 512], "dtype": "float32", "min": -0.539374, "max": 0.776525, "mean": -0.001635, "std": 0.098103, "weights": [-0.028577, 0.006721, -0.017183, -0.076128, -0.034377, -0.032154, -0.010206, -0.0864, -0.064898, -0.024461, -0.002552, -0.049084, -0.034209, -0.03376, -0.062849, -0.035937, -0.000806, 0.008774, 0.009939, -0.002234, 0.013353, -0.013211, -0.033604, 0.024084, 0.025837, 0.030012, 0.037388, 0.008596, 0.043575, 0.05175, -0.021898, -0.0374, -0.035581, 0.020786, 0.021706, -0.011947, -0.038719, -0.032904, 0.009067, 0.035427, 0.003436, -0.035406, 0.029294, 0.033369, -0.036603, -0.050839, 0.003679, -0.048529, -0.000651, -0.035667, -0.042008, -0.070751, -0.089111, 0.006401, -0.023717, -0.046676, -0.012384, -0.019827, -0.040673, -0.064288, -0.065885, -0.049705, -0.012882, -0.082553, 0.015191, 0.037254, 0.010209, -0.049423, -0.003415, -0.028328, 0.01203, -0.002027, 0.02198, -0.004322, 0.013763, 0.027105, -0.027302, 0.019608, 0.058177, 0.052506, -0.035584, -0.030484, -0.020272, -0.071069, -0.050687, 0.031908, 0.00957, -0.041129, -0.084489, -0.051499, -0.011467, -0.078399, -0.045495, -0.054423, -0.011767, -0.020225, -0.071501, 0.000526, -0.014732, -0.043383, 0.008211, -0.044349, -0.024085, -0.011133, -0.051828, -0.021537, -0.017719, -0.017001, 0.016454, -0.048126, -0.023139, -0.013251, -0.050738, 0.001262, -0.017933, 0.009034, -0.058969, -0.007483, 0.025668, -0.00851, -0.029891, 0.028553, -0.040714, 0.029618, -0.0003, 0.015696, 0.027371, -0.005016, -0.011748, -0.023201, -0.058962, -0.007372, 0.012012, 0.006458, -0.013383, -0.052515, -0.021549, -0.014588, -0.043263, 0.027158, -0.01129, -0.005687, 0.016447, -0.000714, -0.044001, -0.002193, 0.011762, 0.007278, -0.058606, -0.027719, -0.054086, -0.021698, -0.067577, -0.006607, 0.008051, -0.069222, -0.054313, -0.057243, -0.070031, 0.007503, -0.068084, -0.036496, -0.057658, -0.025027, -0.057819, -0.017259, 0.020266, -0.043587, -0.028277, -0.000271, -0.017511, -0.018477, -0.060442, -0.013044, -0.054665, -0.029697, -0.074653, -0.075531, -0.074255, -0.052691, -0.013051, 0.002731, 0.003483, -0.082478, 0.02197, 0.01663, -0.050346, -0.03205, -0.0408, -0.03625, 0.028775, -0.023114, 0.001795, -0.022385, -0.016737, -0.024397, -0.059337, 0.007953, 0.00701, 0.008838, -0.052589, -0.011969, 0.000632, -0.010171, -0.00581, -0.032453, 0.029371, -0.052487, -0.031931, 0.01602, -0.04288, -0.053107, -0.064063, 0.025065, -0.031339, -0.015714, -0.011535, -0.043716, -0.040034, -0.01108, -0.046189, -0.044031, -0.00594, -0.063939, -0.035685, -0.04765, -0.005415, -0.013626, -0.069836, -0.048369, -0.014357, -0.055863, -0.011993, -0.010861, -0.047112, -0.058936, -0.057666, -0.011166, 0.020957, 0.002425, -0.038349, 0.022851, 0.026096, 0.014881, -0.001779, 0.009314, 0.004916, -0.025171, -0.057773, -0.016343, 0.031608, 0.028312, -1e-05, 0.019065, 0.033464, -0.002579, 0.021693, -0.009886, -0.0237, -0.028629, -0.048379, -0.06698, -0.010163, 0.032228, -0.006788, -0.028977, -0.052004, -0.039902, -0.040098, -0.025227, -0.03019, -0.051656, -0.008676, -0.011562, -0.00996, 0.014553, -0.031436, 0.037006, -0.032419, 0.027062, 0.000815, 0.008643, -0.017654, -0.021625, -0.043647, -0.047705, 0.029821, 0.0398, -0.009518, -0.021845, -0.000364, -0.029037, -0.056774, 0.000366, 0.036442, -0.056002, -0.057002, -0.036107, 0.019813, -0.056335, -0.053922, -0.010325, 0.014834, 0.0148, -0.001515, 0.003576, 0.034473, 0.0209, 0.005232, 0.003425, 0.016158, -0.016963, 0.005558, 0.010226, -0.035965, -0.039618, -0.063889, -0.032597, -0.006108, -0.032975, -0.06481, -0.03306, 0.031138, -0.02385, -0.023117, 0.024711, 0.022662, -0.038424, -0.042384, -0.032828, -0.008338, -0.048406, -0.024559, 0.013242, 0.061458, -0.002068, 0.027518, 0.020379, -0.043557, -0.033588, -0.013086, -0.032854, -0.005194, -0.002195, -0.052045, -0.001872, -0.027846, 0.029464, 0.00145, -0.041322, -0.007816, -0.048535, 0.022108, -0.043111, -0.007071, -0.003634, 0.018186, 0.015493, 0.005873, -0.035118, 0.022521, -0.00435, -0.012527, -0.011396, -0.050673, -0.044807, -0.019949, 0.006491, 0.003422, -0.031637, 0.006595, -0.055138, -0.01457, -0.01387, 0.007086, -0.058459, -0.045979, -0.026987, -0.033148, -0.066688, -0.005528, -0.057016, -0.029135, -0.055164, -0.034956, -0.036275, -0.04632, -0.014569, -0.084117, -0.013884, -0.012853, -0.039423, -0.001947, -0.006973, -0.015355, -0.022607, -0.006087, -0.059514, -0.083053, -0.006171, -0.060191, -0.022819, -0.031245, 0.007835, 0.023338, -0.016985, -0.011442, -0.088151, -0.015168, 0.036567, -0.033572, -0.045883, -0.049905, -0.050778, 0.007187, -0.067167, -0.004275, -0.027669, -0.061597, -0.003502, 0.024592, -0.023528, 0.012528, -0.014185, 0.009978, -0.043694, 0.027613, -0.015518, 0.002176, -0.05533, -0.004012, -0.008644, 0.016386, -0.000424, -0.003189, -0.046809, -0.050117, -0.027874, 0.047625, -0.004486, -0.053354, -0.00743, -0.015402, -0.031911, 0.000452, -0.049685, -0.042466, -0.063378, -0.011709, 0.030433, 0.040472, -0.081725, -0.009164, 0.028552, -0.015531, -0.044368, 0.010674, 0.052557, 0.040074, -0.055665, -0.073565, -0.002032, -0.049082, 0.007109, 0.027884, -0.026533, -0.000732, 0.000347, -0.031955, 0.016358, -0.012521, -0.025615, -0.056303, 0.023603, -0.061137, 0.018231, -0.032573, -0.031686, -0.019386, 0.016778, -0.047624, -0.041263, 0.022258, -0.032355, -0.027488, 0.023138, -0.028634, 0.011601, -0.029872, 0.02421, 0.030429, -0.009454, -0.030004, 0.012876, 0.008009, -0.004252, -0.001373, -0.017424, 0.009688, -0.030526, -0.039425, -0.02132, -0.025473, -0.010887, -0.006583, -0.001488, -0.049596, 0.006215, -0.014717, -0.016979, -0.023252, -0.057341, -0.0322, -0.034607, -0.065983, 0.010678, -0.045783, -0.0608, -0.054288, 0.02075, 0.029177, -0.067446, -0.063171, -0.025516, -0.043824, -0.066488, 0.007332, -0.064253, -0.022858, -0.019603, 0.003146, -0.063336, -0.004624, -0.019476, 0.000904, 0.005875, -0.036634, -0.032506, -0.0363, 0.00917, -0.044811, 0.003544, -0.007122, 0.047556, 0.001032, 0.00232, -0.06607, -0.054356, -0.059745, -0.012607, -0.021338, -0.011897, -0.010182, -0.033547, -0.018807, -0.046503, 0.002734, -0.069715, -0.072482, -0.002284, 0.035486, -0.022103, 0.047633, -0.015688, -0.039588, -0.012773, -0.010575, -0.029005, 0.035447, -0.05716, -0.053453, -0.049995, -0.071095, 0.018061, -0.019418, -0.044693, -0.045019, 0.005591, -0.011013, -0.015354, -0.043251, -0.00927, -0.023605, 0.003586, -0.021762, 0.032437, 0.030499, 0.007723, -0.04235, 0.008992, -0.033345, 0.007593, -0.010951, -0.002362, -0.037726, -0.042479, 0.025499, -0.008424, -0.047247, 0.006984, -0.002095, -0.032497, -0.049554, -0.009885, 0.002273, -0.043266, -0.006188, -0.031359, -0.045488, -0.032282, -0.078828, -0.01311, -0.061151, -0.073345, -0.04366, -0.047451, -0.065116, -0.015309, -0.010669, 0.007955, 0.001957, -0.04225, -0.026835, -0.050237, 0.031452, 0.015893, 0.022037, -0.044944, 0.024203, 0.001953, -0.048547, 0.036712, -0.006746, 0.002594, 0.031317, 0.023539, 0.035116, -0.04681, 0.038464, 0.005007, -0.03583, -0.059675, -0.061023, 0.005349, -0.004183, -0.002799, -0.040511, -0.061766, -0.025374, -0.058019, -0.065102, -0.022352, -0.002927, -0.055731, -0.043235, -0.03161, -0.021019, -0.029136, -0.014532, -0.008049, -0.017827, 0.027151, 0.018941, -0.00046, -0.022808, -0.009445, 0.023144, -0.010924, -0.052082, -0.001283, -0.007487, -0.041889, -0.013497, -0.011429, 0.021824, 0.031259, -0.034682, 0.035034, -0.019481, -0.021014, -0.025105, -0.062102, 0.006433, -0.023601, -0.009836, -0.014954, 0.031169, -0.047963, 0.024292, -0.017945, 0.004849, 0.006093, -0.028596, -0.029866, -0.000552, -0.049182, -0.014708, -0.001798, 0.021384, 0.003884, -0.042702, -0.04851, 0.007799, -0.03914, 0.024226, -0.001039, 0.007431, -0.044823, 0.037663, 0.003718, -0.014705, 0.006067, 0.01598, -0.054921, -0.008891, 0.026021, 0.005504, -0.01963, -0.034413, -0.036534, -0.011368, -0.016972, -0.04468, -0.026611, -0.025472, -0.075919, 0.03292, -0.02938, -0.055128, -0.031914, -0.020434, 0.003915, 0.006088, -0.012566, -0.041692, -0.028788, 0.010709, -0.017528, -0.037869, -0.004701, -0.022837, -0.041747, 0.015761, -0.018543, 0.004852, -0.015794, 0.018821, -0.0187, -0.014363, -0.003313, 0.000833, -0.034043, -0.050132, -0.013647, -0.05756, -0.038736, -0.024723, -0.017703, -0.080013, -0.019693, -0.054701, -0.068526, -0.05644, -0.036826, -0.0122, -0.076548, -0.025242, 0.003431, -0.061308, -0.025781, -0.054235, -0.025281, -0.016982, -0.062026, -0.025388, 0.007589, -0.033149, -0.066874, -0.035434, -0.026314, -0.018286, -0.00865, -0.014984, -0.027165, -0.007325, -0.061767, -0.052158, -0.003089, -0.056006, -0.041786, -0.053639, -0.070466, -0.007174, -0.054598, -0.056298, -0.017206, -0.021544, 0.002285, 0.002392, -0.015803, -0.043125, -0.030311, -0.004329, 0.031989, -0.014881, -0.078142, -0.017966, -0.02486, 0.009635, -0.022784, -0.020747, -0.007961, -0.035986, -0.051141, 0.036098, 0.003848, -0.042223, 0.008075, -0.01373, -0.034591, -0.049128, -0.059084, -0.001319, -0.041579, -0.032757, 0.033123, -0.056093, 0.00954, -0.007422, 0.003547, -0.011654, -0.038298, -0.017797, 0.01956, -0.059266, -0.072457, -0.06153, 0.001198, -0.015712, -0.063279, -0.017922, 0.031461, 0.00037, -0.022156, -0.015373, -0.045118, 0.004884, -0.040826, -0.028616, -0.013883, -0.036643, -0.038307, -0.028391, -0.032084, 0.002105, -0.006789, -0.029505, -0.031464, -0.051547, -0.03802, 0.006377, -0.070634, -0.069918, -0.020776, 0.025204, -0.047619, 0.008367, 0.038246, -0.012855, -0.032265, -0.001046, 0.019509, -0.010344, -0.041781, -0.004002, -0.034148, -0.058578, -0.004187, -0.00127, -0.013428, -0.041678, 0.031484, 0.026374, 0.043975, -0.033789, -0.045721, -0.045629, 0.031606, -0.03993, -0.075797, 0.005582, -0.03133, -0.005036, -0.0437, -0.044576, 0.007252, 0.031099, -0.028837, -0.007161, 0.02436, -0.003638, -0.013969, 0.033525, 0.033348, -0.017588, 0.027808, -0.010197, -0.03497, 0.029984, -0.00939, -0.010256, -0.041766, -0.043346, 0.021297, -0.040264, -0.039611, 0.000311, -0.036468, -0.006804, -0.012834, 0.023213, -0.076265, -0.044328, -0.00913, -0.048735, -0.056728, 0.004112, -0.013855, -0.019167, 0.005967, 0.002076, -0.010063, 0.031176, -0.005694, 0.017737, -0.039892, -0.023554, 0.001886, -0.005799, -0.037167, 0.026493, -0.044454, -0.04735, 0.00657, -0.039024, -0.079009, -0.036739, -0.06691, 0.009213, -0.044284, -0.05064, -0.011806, -0.030874, -0.07672, -0.079485, -0.008386, -0.004579, 0.03037, -0.075077, -0.044772, 0.003189, 0.033784, -0.00632, 0.043945, -0.050956, -0.039867, -0.011972, 0.004805, -0.050537, -0.007044, -0.039384, -0.076181, -0.043958, -0.019901, -0.019758, -0.044969, -0.009819, 0.003558, -0.045337, -0.045066, -0.057464, -0.039187, -0.075097, -0.001717, 0.006388, -0.021919, 0.006262, -0.014558, -0.001803, 0.035325, -0.036038, -0.038486, -0.018142, -0.047356, -0.067056, -0.050331, -0.056209, -0.044863, -0.050179, -0.048814, -0.009224, -0.035586, -0.003139, -0.041773, -0.06121, -0.029344, 0.006035, -0.068936, 0.013236, 0.013783, -0.042116, -0.026098, 0.016261, -0.028088, 0.025657, -0.036418, 0.027381, -0.028148, 0.011917, -0.015091, -0.07227, -0.060748, -0.047864, -0.037309, 0.016885, -0.025188, 0.0006, -0.030956, -0.026671, 0.022002, -0.019049, -0.044635, -0.005087, -0.011082, 0.007293, -0.030074, -0.005654, -0.028476, -0.033026, 0.005822, 0.006814, 0.000336, 0.033147, 0.003942, -0.004676, 0.000216, -0.045401, 0.011306, 0.027573, -0.00412, -0.040469, 0.033512, 0.003904, 0.02371, 0.015243, 0.000969, -0.021188, 0.000651, 0.0059, -0.010784, -0.036833, -0.03127, -0.047913, -0.025294, -0.015262, 0.027324, -0.031054, -0.051043, 0.01639, 0.029973, -0.042779, -0.008409, 0.006882, 0.018589, -0.014346, 0.011712, 0.025002, 0.016018, 0.012916, 0.034432, -0.048484, 0.003386, 0.042101, -0.040571, -0.047627, -0.046482, 0.008015, 0.033846, -0.004009, -0.017568, 0.002615, -0.03644, 0.00765, -0.029055, -0.029746, -0.032238, -0.012512, 0.028802, 0.008976, 0.030756, -0.042637, -0.035991, 0.027078, 0.034812, 0.028213, -0.047938, 0.015402, -0.046382, -0.022876, -0.009579, 0.009976, -0.023746, -0.04059, -0.053363, -0.027534, 0.023416, 0.013758, 0.013687, -0.046085, -0.0497, 0.031933, 0.020995, -0.027813, -0.004028, 0.024877, 0.032338, -0.045437, -0.029914, 0.006548, 0.023742, -0.002376, -0.0108, -0.008021, 0.031909, -0.043971, 0.011422, -0.034499, -0.003287, -0.048, 0.020364, -0.028275, -0.001699, -0.035175, -0.003985, -0.028483, -0.026159, -0.022508, 0.023254, 0.001389, -0.015779, 0.0372, 0.004134, -0.023415, -0.011246, -0.026855, -0.024411, -0.022391, 0.000357, -0.047157, -0.044103, 0.022069, -0.018605, -0.009482, 0.005854, -0.022186, 0.022079, -0.01946, -0.003895, -0.038888, 0.009656, -0.039952, 0.018384, -0.014355, -0.024054, -0.022499, 0.009155, 0.034969, 0.003371, 0.019044, -0.04497, -0.018542, -0.033236, -0.040155, -0.000625, -0.020149, 0.003671, -0.023695, -0.047318, -0.029541, -0.051904, -0.00015, -0.043481, 0.033694, 0.022754, -0.028187, -0.022937, -0.039596, 0.030789, -0.016506, -0.018019, -0.004695, 0.014888, -0.021019, 0.013178, 0.014159, -0.011862, 0.021661, -0.046333, -0.031785, -0.012307, -0.013902, 0.008022, 0.023694, -0.039941, 0.014921, 0.002239, 0.030279, 0.016982, -0.016582, -0.013415, -0.035891, 0.002001, 0.028683, 0.00839, 0.029217, 0.009775, 0.000805, -0.016004, -0.045063, -0.015327, 0.030061, 0.031892, -0.023393, 0.027933, 0.028743, -0.045708, -0.052466, -0.029845, -0.011809, 0.009241, 0.010384, 0.018932, -0.029877, 0.023579, 0.002045, -0.040141, -0.040782, 0.007985, 0.041149, -0.029342, 0.005237, -0.041838, 0.022782, 0.01303, -0.011256, 0.023349, 0.012328, 0.029788, 0.00442, 0.000436, 0.021207, 0.014904, -0.037458, -0.016964, 0.021372, -0.028515, 0.033644, -0.014077, 0.037385, -0.031308, 0.026192, -0.021783, 0.023765, 0.017267, 0.014864, 0.008143, 0.022879, -0.019844, -0.013358, 0.007993, -0.038679, -0.004295, 0.010813, -0.046819, -0.010075, -0.00408, -0.040244, 0.028581, -0.005373, -0.048169, -0.020264, 0.002211, 0.023096, -0.021396, 0.031384, -0.024198, -0.042492, -0.014067, -0.031287, 0.010625, 0.024065, -0.04247, -0.038958, 0.018354, -0.015545, 0.03453, 0.034419, -0.035165, 0.019396, -0.049549, 0.011234, -0.031899, -0.007381, 0.036531, -0.001074, -0.029892, 0.010561, -0.013488, 0.031808, -0.040485, -0.013385, -0.04453, -0.033014, -0.01943, -0.036222, -0.037787, -0.01987, -0.034583, -0.034045, -0.005122, -0.040474, 0.019152, 0.023289, 0.035567, 0.007219, -0.011171, -0.014076, -0.027269, 0.023255, 0.017502, 0.024728, -0.015035, -0.037543, 0.007146, 0.028408, -0.011387, 0.026467, 0.023144, 0.013868, -0.020005, -0.019834, -0.014724, -0.007187, -0.010077, -0.049232, -0.035196, -0.023025, 0.032001, 0.012618, -0.04743, -0.03164, -0.02593, 0.041912, 0.010941, 0.0354, -0.035687, 0.041284, 0.035962, 0.003066, -0.020667, 0.017323, -0.023747, -0.018321, 0.016578, -0.033944, 0.010755, -0.009298, -0.005737, -0.00485, 0.003988, -0.032969, 0.011972, -0.048565, 0.011641, -0.042488, 0.035, 0.003358, 0.005163, 0.004726, 0.001484, -0.023968, -0.049643, 0.02041, 0.019828, -0.01404, -0.006101, -0.008917, -0.015462, 0.032633, -0.032423, -0.045446, -0.012119, -0.020308, -0.035189, -0.018697, -0.00906, 0.023037, 0.02487, 0.028008, 0.024735, 0.005317, -0.008846, -0.009323, -0.043463, -0.005244, -0.020078, -0.020387, 0.028146, 0.010614, 0.018504, 0.019777, -0.034627, 0.002564, -0.015087, 0.008467, 0.018571, -0.017934, 0.026293, -0.005214, -0.014535, 0.021763, 0.025619, -0.019933, 0.018239, -0.017159, -0.008511, -0.038265, -0.025211, 1.6e-05, -0.017204, -0.012221, 0.00231, -0.024795, 0.015316, 0.035004, 0.026662, 0.030157, -0.021365, -0.007031, -0.022869, -0.030298, -0.018573, 0.018024, -0.051086, -0.032419, 0.013622, 0.012661, -0.021937, -0.020072, -0.014363, 0.030858, 0.021858, -0.030821, -0.000439, -0.053501, -0.039888, -0.014743, -0.024224, -0.03096, 0.025806, 0.012399, -0.005186, -0.020888, -0.005868, 0.028642, -0.014365, 0.004739, 0.012698, 0.022612, 0.023726, -0.024361, 0.010529, 9.2e-05, 0.002031, -0.034189, 0.036938, 0.022056, 0.00084, 0.009872, -0.019354, -0.038923, -0.018767, -0.047295, 0.029801, 0.010743, 0.003964, -0.03722, -0.037021, 0.016502, -0.044107, 0.000603, 0.024394, -0.046835, 0.022455, -0.043035, -0.016703, 0.023028, 0.024558, 0.032837, 0.028313, -0.052152, 0.000355, -0.046009, 0.01739, 0.004294, 0.025063, 0.002287, 0.022507, -0.010486, -0.042672, -0.03825, -0.008685, -0.049427, 0.029779, -0.033915, -0.042616, 0.034587, -0.034882, -0.02581, -0.006871, 0.009413, -0.015478, 0.01568, -0.034799, 0.003958, -0.050374, -0.078282, -0.022061, -0.016159, -0.054906, -0.022914, -0.017982, -0.013823, -0.030422, -0.047735, -0.029779, -0.048116, 0.01968, 0.00256, -0.000959, -0.063466, -0.054865, -0.019363, -0.025043, -0.030948, -0.033187, -0.048948, 0.006921, -0.020112, -0.071773, -0.05735, -0.066772, -0.037425, 0.001402, -0.061263, -0.034469, -0.008713, 0.002578, -0.00661, -0.022753, -0.065709, -0.080801, -0.030276, -0.040605, -0.012567, -0.070167, -0.040456, -0.032446, -0.050887, -0.06418, -0.016079, -0.010903, 0.03845, 0.001633, 0.002665, -0.019592, -0.036672, 0.015425, -0.067386, -0.077415, -0.060764, 0.001345, 0.01215, -0.043587, -0.065402, -0.07612, -0.016399, -0.052457, 0.001598, -0.052492, 0.040432, 0.028492, 0.029112, 0.023507, -0.035513, 0.006064, -0.026366, -0.013581, 0.027373, -0.022457, 0.02787, 0.00228, -0.020955, -0.021462, -0.042961, 0.015159, -0.031674, 0.003987, -0.02094, -0.023715, -0.03751, 0.016407, -0.044575, -0.016254, -0.054784, -0.008954, -0.025785, -0.013239, -0.032064, -0.016341, 0.002281, 0.001793, -0.00837, -0.04797, -0.010363, -0.04518, -0.033494, -0.02928, -0.025633, -0.05663, -0.016292, -0.02486, -0.018178, 0.026568, -0.076898, 0.00342, -0.044657, 0.012049, -0.043367, -0.046218, -0.01925, 0.031538, 0.017091, 0.021804, -0.016647, 0.036518, -0.026393, -0.009887, -0.046664, -0.002695, 0.002898, -0.048036, 0.030146, 0.006119, 0.036785, -0.026138, -0.002433, -0.048812, 0.031442, -0.063267, 0.018302, -0.059523, 0.026712, -0.046838, -0.027736, -0.057369, -0.012739, -0.007849, 0.006618, 0.002187, -0.011564, -0.027916, 0.003272, -0.045233, -0.031343, 0.009716, -0.013531, 0.036257, -0.001863, 0.02221, -0.026707, -0.035162, 0.002213, -0.032582, -0.049655, -0.052684, -0.073161, -0.020072, -0.005586, -0.080786, -0.011789, -0.041628, -0.081283, 0.010185, -0.03698, -0.063959, 0.002071, -0.034894, -0.0638, -0.017158, -0.034519, -0.012192, -0.03344, -7e-06, 0.022966, -0.026091, 0.019409, -0.039149, -0.044465, -0.04369, -0.043629, 0.012906, -0.027242, 0.03432, 0.004708, -0.003807, -0.025881, -0.048393, 0.004505, 0.004379, -0.027681, -0.037385, -0.05728, -0.069595, -0.010915, -0.037158, 0.025505, 0.024858, -0.033887, 0.032701, -0.028132, -0.034891, 0.007775, -0.0466, -0.026382, -0.058542, -0.029688, -0.012335, -0.026725, -0.02739, -0.049979, -0.042301, -0.033457, 0.03772, 0.022231, 0.032723, -0.059903, 0.005087, -0.03461, -0.016674, -0.032787, -0.035108, -0.055627, -0.070377, -0.016271, -0.035929, -0.055229, -0.013211, -0.03943, 0.004351, -0.072918, -0.019316, -0.053368, -0.06514, -0.049499, -0.071957, -0.033733, 0.001233, 0.036174, -0.067514, 0.009584, -0.054523, 0.009594, 0.02258, 0.022573, -0.067794, -0.053498, -0.045199, -0.042515, -0.023387, 0.016502, -0.037371, -0.027107, -0.039857, -0.042767, -0.020601, -0.05945, -0.044702, -0.0376, 0.026433, -0.037284, 0.043677, 0.003056, -0.011045, -0.006358, -0.041739, -0.030506, 0.019425, -0.048768, -0.002304, -0.040555, -0.004919, -0.032878, -0.032536, -0.075405, -0.050262, -0.032962, -0.01902, -0.029583, -0.047192, -0.038088, -0.001116, -0.007856, 0.008529, -0.035974, -0.051563, -0.006671, 0.0046, -0.056846, -0.019278, -0.015736, -0.009129, -0.043664, -0.041124, -0.048855, -0.038545, 0.009402, -0.032724, 0.028868, -0.016395, -0.012266, -0.0123, -0.079206, -0.046679, -0.008793, 0.015928, -0.078723, -0.062522, -0.001922, -0.029888, 0.030177, -0.01507, -0.036344, 0.01598, -0.027253, -0.034335, -0.023593, -0.06551, -0.059933, -0.042954, -0.03535, 0.007022, -0.028044, 0.033992, 0.013425, -0.014417, -0.003105, -0.031966, -0.071598, 0.002477, -0.01612, 0.015547, 0.001838, 0.010504, 0.015702, -0.012666, -0.02142, -0.01828, -0.048288, -0.067463, -0.02875, -0.026682, -0.006664, -0.01851, 0.040602, 0.018272, -0.06848, -0.029904, -0.000259, -0.008236, -0.029934, -0.025402, -0.018023, -0.035704, -0.023022, -0.049215, 0.027896, -0.074463, 0.001181, -0.023433, -0.009079, -0.042746, -0.05588, -0.028282, -0.021506, -0.057602, -0.009763, 0.006301, -0.045182, -0.02275, -0.043185, -0.001761, -0.030508, -0.066033, -0.016957, 0.009947, -0.026482, -0.043081, -0.032976, -0.011866, 0.031725, -0.046318, -0.012873, -0.013136, 0.004648, 0.028008, -0.071745, -0.034401, -0.040642, -0.005983, -0.052746, -0.006936, -0.043384, -0.022158, 0.02835, -0.007346, -0.05132, -0.003832, -0.027639, -0.071334, -0.036242, -0.00138, -0.026919, 0.011505, -0.041932, -0.042739, 0.000513, -0.019883, -0.009124, -0.023241, -0.042375, 0.011355, 0.006177, 0.011565, -0.034999, 0.027979, -0.042688, -0.021217, -0.03436, -0.028116, 0.002669, -0.049503, -0.049943, 0.007805, -0.022455, -0.00548, -0.021788, -0.019189, -0.042918, -0.014412, -0.060132, -0.001765, 0.012642, -0.06515, -0.045376, -0.068267, -0.029459, -0.002475, -0.023465, -0.016573, -0.008153, -0.044926, -0.032074, -0.068582, -0.079966, -0.000843, -0.028405, 0.02579, 0.00153, -0.012319, -0.051418, -0.044004, -0.00272, 0.008983, -0.030073, -0.030297, -0.055077, 0.001929, -0.035808, -0.025977, -0.008628, -0.019625, -0.055703, -0.007661, -0.072346, -0.025976, 0.000479, -0.037253, -0.056203, 0.030082, -0.027885, -0.077464, -0.071493, -0.018312, -0.004332, -0.037519, -0.051476, -0.018856, -0.034354, -0.034643, -0.022865, -0.025359, -0.068743, -0.06943, 0.000486, 0.007676, -0.02271, 0.040223, -0.003679, 0.00461, -0.019344, -0.017608, 0.023817, -0.010159, -0.061675, -0.000147, 0.041815, -0.025309, -0.080342, -0.037403, -0.02309, -0.0523, -0.055221, -0.032674, -0.00927, 0.006724, 0.035978, 0.002097, -0.01279, -0.056201, -0.067725, -0.027237, -0.018034, -0.022468, -0.023685, -0.039588, -0.05745, -0.044664, -0.037771, -0.049252, -0.023834, -0.028932, -0.00767, -0.046365, 0.018242, -0.035899, 0.010201, -0.026598, -0.041696, 0.026997, -0.008376, -0.011852, -0.000518, -0.060377, -0.03495, -0.025025, -0.018715, -0.028106, -0.053994, -0.055997, -0.01319, 0.024941, -0.040947, -0.011115, 0.015946, -0.06047, 0.022908, 0.009223, -0.022198, 0.031804, 0.012353, 0.020725, 0.017275, -8e-05, 0.001195, -0.037428, -0.00424, 0.014629, -0.035847, 0.008978, -0.052266, 0.004031, 0.007099, 0.036498, -0.012339, 0.028911, 0.012614, -0.003176, -0.051386, 0.032226, -0.047129, 0.013404, -0.047659, 0.023051, 0.000528, -0.03502, 0.072532, -0.028169, -0.044102, -0.0115, 0.03725, -0.012123, 0.05378, 0.046882, 0.059871, 0.0117, 0.049241, 0.032307, 0.014233, -0.022726, 0.036359, 0.082473, -0.016895, -0.04624, -0.025791, 0.075161, 0.00952, -0.051951, -0.030611, -0.021691, -0.012377, -0.026377, -0.056863, -0.048368, -0.031378, -0.029739, -0.033802, -0.068248, 0.042134, -0.065227, -0.047351, 0.013188, -0.027689, -0.081636, 0.026722, 0.013375, 0.043898, -0.053441, -0.069571, -0.080041, 0.00837, -0.050475, -0.004261, -0.033146, -0.066537, -0.025528, -0.056158, 0.00069, -0.020546, -0.053909, -0.061472, -0.056899, -0.035589, -0.032977, -0.008127, -0.043978, 0.002138, -0.037746, 0.056089, -0.010795, -0.039321, 0.004686, 0.04241, 0.006001, 0.02388, -0.018863, -0.010069, -0.02299, -0.036334, -0.023521, -0.038795, 0.028162, 0.00339, 0.013966, -0.067015, 0.028255, 0.029916, 0.010664, -0.026116, -0.00971, 0.039342, 0.052963, -0.026659, 0.01759, 0.015131, -0.043079, 0.028623, 0.027556, -0.041881, -0.064938, -0.02832, 0.017925, -0.009738, 0.005454, 0.002511, -0.045597, 0.021086, 0.007333, -0.040086, -0.023968, 0.01003, -0.045275, -0.060266, -0.001337, 0.024667, 0.069439, 0.044443, 0.056159, 0.010873, -0.004553, -0.001701, 0.046224, -0.047195, -0.043336, -0.030443, 0.059523, 0.018841, -0.042225, -0.055004, 0.009494, -0.018434, -0.017502, -0.005501, -0.057085, -0.06334, -0.006105, -0.022181, -0.027141, 0.002088, -0.047877, -0.032556, -0.07129, -0.050487, -0.013251, 0.005648, 0.022635, -0.056998, 0.029782, -0.025815, -0.021133, -0.01794, 0.050361, 0.033686, -0.06619, 8.4e-05, 0.014021, 0.003891, -0.018747, -0.031883, -0.049766, -0.066336, -0.010717, -0.016867, 0.002407, -0.025404, 0.06907, -0.024547, 0.047316, -0.022256, 0.013233, -0.031517, 0.017251, 0.065918, 0.099397, -0.046281, 0.015348, 0.024318, -0.036748, 0.020977, 0.011345, 0.033661, 0.047672, -0.015831, -0.036162, -0.019661, 0.002691, -0.016033, -0.037947, 0.013535, 0.056376, -0.022929, 0.006742, -0.032407, -0.001643, -0.00717, -0.041929, -0.008949, -0.007853, -0.02095, -0.018377, 0.028719, -0.05343, 0.005778, -0.021307, -0.071383, -0.038597, -0.009914, 0.002815, 0.008878, -0.059725, -0.049891, 0.011629, 0.033036, 0.033714, -0.000898, 0.009674, -0.043097, -0.013201, -0.065242, -0.056071, -0.061774, -0.063602, -0.006329, -0.028787, -0.021372, -0.004754, -0.018961, -0.010775, -0.005488, -0.073067, -0.007115, -0.012071, -0.047449, 0.016463, -0.046275, -0.032713, -0.041189, 0.012648, -0.011167, -0.004665, -0.033085, -0.06791, 0.01147, 0.006586, 0.017312, -0.019012, -0.016822, -0.008211, 0.003857, -0.015922, -0.018731, -0.034642, -0.002681, -0.008414, -0.036538, 0.005703, 0.008596, 0.00803, -0.009509, 0.018507, -0.02912, 0.005241, -0.041282, -0.058016, -0.002074, -0.07043, 0.005163, -0.04784, -0.029316, -0.053246, 0.010132, -0.080529, -0.039463, -0.040189, -0.069835, 0.010934, -0.010007, -0.054717, -0.074566, 0.002381, 0.005613, -0.031448, -0.028572, -0.032781, 0.006057, -0.039308, -0.029329, -0.001075, 0.022018, 0.014211, -0.014368, 0.021528, -0.023251, -0.025383, -0.003866, -0.053531, -0.034005, -0.052104, -0.015845, -0.068692, -0.053195, -0.019508, 0.010756, -0.067817, -0.048295, -0.039556, -0.027515, -0.001576, 0.00982, 0.004555, -0.01012, -0.037457, -0.043583, -0.020668, -0.017203, -0.020777, 0.023046, 0.000361, -0.012723, -0.035138, -0.015765, -0.030503, 0.079456, -0.050019, -0.012122, 0.040724, -0.066791, -0.034161, 0.033706, 0.046976, -0.032391, 0.002106, -0.017602, -0.018047, 0.026472, 0.013142, 0.03356, -0.021274, 0.045964, 0.029469, -0.039387, -0.041288, -0.002544, -0.056919, -0.04266, -0.013019, -0.028436, 0.01597, -0.013723, 0.064309, -0.060435, -0.047804, 0.011543, -0.032304, 0.018457, -0.030052, -0.049117, 0.002747, 0.052089, -0.006203, 0.045561, 0.05022, 0.03745, -0.01141, -0.010503, -0.011271, -0.032019, -0.010417, -0.022984, 0.007484, -0.014284, -0.020333, 0.012499, -0.050701, 0.0283, 0.023172, -0.001848, -0.027337, -0.015401, 0.011464, -0.019506, -0.024254, -0.046692, -0.060845, -0.058051, -0.062782, 0.020864, 0.011947, -0.04916, -0.059916, 0.033139, -0.001836, -0.003795, -0.020788, -0.035206, -0.03521, 0.003863, -0.068045, -0.058554, -0.012444, -0.040004, -0.01947, 0.008947, -0.037688, -0.043076, -0.036805, -0.054459, -0.022149, 0.041235, 0.006233, -0.002223, -0.04985, -0.023762, -0.050819, -0.026162, 0.004966, -0.027353, 0.03632, -0.008398, 0.006203, 0.023267, 0.005712, -0.010044, -0.001112, 0.013825, -0.07881, -0.037986, -0.004304, -0.028895, -0.052856, -0.048554, -0.045132, 0.003154, 0.010005, -0.030082, -0.059258, 0.004206, -0.000598, -0.045118, 0.010974, -0.033421, 0.005931, 0.01158, 0.014723, -0.006386, 0.023241, -0.013608, -0.052021, 0.025015, 0.028861, -0.180246, 0.196817, 0.102842, 0.028146, 0.06065, 0.100595, 0.04719, -0.124615, 0.208222, -0.023029, -0.114567, -0.115736, 0.068532, -0.059092, -0.233009, -0.117126, -0.125867, 0.032232, -0.158698, -0.168174, -0.165204, 0.147585, 0.107797, 0.191042, -0.206287, 0.000199, 0.091474, 0.178895, 0.063516, -0.035634, 0.075311, 0.040997, 0.096758, -0.02034, 0.027639, 0.262206, 0.099422, 0.025795, -0.019975, 0.062454, -0.187813, -0.024607, -0.055433, -0.082981, -0.308773, -0.335552, -0.01302, -0.051611, 0.12144, 0.073469, -0.040321, 0.056683, 0.028655, 0.13126, -0.03058, 0.065546, 0.053757, 0.060306, 0.065826, 0.168065, -0.171994, -0.006984, -0.112372, 0.08837, -0.079798, 0.157469, 0.160087, 0.115362, 0.149587, -0.539374, -0.231946, 0.153049, 0.122627, -0.12866, -0.088796, 0.189165, -0.015619, 0.2328, 0.20539, -0.003948, -0.007438, -0.056324, 0.051412, 0.003456, 0.07545, -0.034253, 0.062201, 0.010103, 0.013483, 0.187096, 0.168099, 0.027929, -0.238139, -0.068294, -0.03883, -0.279186, -0.12636, 0.03788, 0.005464, 0.083445, 0.074465, 0.142568, 0.18331, 0.040635, -0.02902, 0.015685, -0.031916, -0.041084, 0.037661, 0.03895, -0.124723, 0.232923, -0.174998, -0.149623, 0.116116, -0.103854, -0.045364, -0.08903, 0.058158, -0.155131, 0.103843, 0.072541, -0.091993, -0.091747, -0.080888, -0.00321, 0.082915, -0.018614, 0.025589, 0.118177, 0.143714, -0.041779, -0.139165, -0.259965, 0.07369, -0.012038, -0.137717, -0.292943, -0.165293, -0.009974, -0.27316, -0.24851, -0.168671, -0.301583, 0.030635, 0.192392, 0.079058, 0.187106, -0.178085, 0.245542, 0.104083, -0.093003, 0.023232, -0.270667, -0.125859, 0.106257, 0.149909, -0.486313, -0.321228, 0.18792, 0.042876, 0.041249, 0.169541, -0.109766, 0.094236, -0.019361, 0.166081, 0.100951, 0.021779, -0.15972, -0.197938, 0.007934, -0.057351, -0.114404, -0.068155, 0.118035, 0.228453, -0.336388, -0.119038, 0.184443, -0.070639, -0.164542, -0.167607, 0.075498, 0.183366, -0.175703, -0.084896, 0.260944, 0.22376, -0.006167, 0.086466, 0.137613, -0.16738, -0.266496, -0.087934, -0.399392, -0.10492, 0.196876, -0.140229, -0.023656, 0.05045, 0.033335, -0.031064, 0.189679, 0.288412, 0.052001, 0.264311, 0.025455, 0.069572, 0.162342, 0.280698, 0.053903, 0.08583, 0.053756, 0.027084, -0.021073, 0.073036, -0.01492, -0.360099, -0.048252, -0.071662, -0.192966, -0.052908, 0.10409, 0.078465, 0.082477, -0.15418, -0.049516, 0.097312, 0.015665, -0.18565, 0.076099, 0.095779, 0.002273, -0.082343, 0.166956, 0.054842, -0.201999, -0.131129, 0.21021, 0.030505, 0.045702, 0.063123, 0.039984, 0.107057, -0.315947, -0.325197, 0.084371, -0.025562, 0.096685, -0.071337, 0.128146, 0.202763, 0.38205, 0.142586, 0.412744, 0.175843, 0.142988, 0.156637, 0.15413, -0.096544, 0.139565, 0.268042, -0.323854, 0.021524, 0.134533, 0.115455, 0.200709, 0.099029, 0.279193, 0.240264, 0.222843, 0.037871, 0.251612, 0.006698, -0.002613, -0.001265, 0.008624, 0.024287, -0.021122, -0.017091, -0.017804, 0.127404, -0.128227, -0.176008, -0.088389, -0.026466, -0.031735, -0.154307, 0.276633, 0.030414, 0.070548, -0.135642, -0.020909, -0.141024, -0.113905, -0.120487, 0.031423, 0.238711, -0.064542, -0.130805, 0.036074, 0.23796, 0.186349, -0.082895, 0.188451, 0.111092, -0.049133, -0.075824, 0.151102, 0.014237, -0.085229, -0.075772, -0.007005, 0.28674, 0.231845, 0.000215, -0.097962, 0.115292, 0.330982, 0.012117, 0.025343, -0.016362, -0.051059, 0.319947, 0.233883, 0.311797, 0.329717, 0.041172, 0.02567, 0.041912, 0.27389, 0.077355, 0.101274, 0.045044, 0.109375, 0.155829, 0.154914, 0.08414, 0.084862, -0.098174, 0.116208, 0.145404, 0.127681, -0.220079, -0.285169, -0.004823, -0.115763, -0.156417, 0.139855, -0.005463, 0.110129, 0.066566, 0.227066, 0.300745, -0.079801, 0.041871, 0.199237, 0.04596, -0.268161, -0.037192, 0.143641, -0.132141, -0.241455, -0.103008, 0.061874, 0.218733, 0.038207, 0.104493, 0.186455, 0.136125, 0.101959, -0.024559, -0.027604, 0.107408, 0.057926, 0.163664, 0.17748, -0.085322, -0.048462, 0.055165, -0.04494, -0.106311, -0.242845, -0.070154, -0.019049, 0.160744, 0.00188, -0.062744, -0.011334, 0.024254, 0.141995, -0.296892, 0.113163, 0.313613, -0.071345, 0.145264, 0.119522, -0.077642, 0.06135, -0.151521, 0.137881, 0.002704, 0.061533, 0.279024, 0.085162, -0.117221, 0.100393, 0.29739, 0.11216, 0.371113, 0.159641, 0.166531, 0.057075, 0.002583, -0.1204, -0.251134, -0.001015, -0.020129, -0.220387, -0.197233, -0.27072, -0.235829, -0.130418, 0.288035, -0.170489, -0.351074, -0.049522, 0.231763, 0.078456, -0.003437, 0.139662, -0.024901, 0.047866, 0.326954, 0.270558, 0.21966, 0.286875, 0.200302, 0.105826, -0.054178, 0.04347, -0.150091, -0.139865, -0.186314, -0.232228, -0.28541, -0.062554, 0.094178, -0.06869, -0.002425, 0.0492, 0.019388, 0.209711, 0.286037, 0.086303, 0.301945, 0.44967, 0.391375, 0.109512, 0.021056, 0.147086, 0.069239, 0.143647, 0.09209, 0.052483, -0.02914, 0.201482, 0.060308, -0.134934, -0.021588, 0.038511, 0.180787, -0.090732, 0.094939, 0.130305, -0.13179, -0.195731, -0.038436, 0.193548, -0.196346, -0.004951, -0.078282, -0.078826, 0.110669, -0.003061, -0.153356, -0.273979, 0.152298, 0.049446, -0.024276, -0.108601, 0.382152, -0.013279, 0.005843, 0.071351, 0.103345, 0.017585, 0.008345, -0.106813, -0.028054, -0.251784, -0.126726, -0.090795, -0.172878, -0.115637, -0.040305, 0.11271, 0.229056, -0.13995, -0.222185, -0.189779, -0.163533, 0.123043, -0.031409, 0.012409, -0.093536, 0.032784, 0.194537, 0.052977, 0.138133, 0.164288, 0.199713, 0.022715, -0.038809, -0.043087, -0.173502, -0.164621, 0.062034, 0.100143, -0.004307, 0.069976, -0.010389, -0.217148, 0.161035, 0.4502, 0.108148, -0.17782, 0.042461, 0.072788, 0.13548, 0.000544, -0.010447, -0.119795, -0.121009, 0.077632, 0.152447, 0.111763, -0.122789, 0.202077, 0.310695, -0.076411, -0.111004, -0.14509, -0.039006, -0.353577, -0.228933, -0.441901, -0.18173, -0.340017, -0.214353, 0.098635, 0.103416, -0.009334, -0.051019, 0.348347, 0.162434, 0.102994, -0.065174, 0.338846, 0.124786, 0.093792, -0.232886, 0.097734, -0.045698, -0.29491, -0.093821, 0.029066, -0.07089, -0.082957, -0.114921, 0.625864, 0.178713, -0.105106, 0.085093, 0.776525, 0.42543, -0.16831, 0.049217, 0.275901, 0.209071, -0.006297, -0.004046, 0.04811, 0.120843, -0.051963, 0.074436, 0.100192, -0.01673, -0.091606, -0.088764, 0.127628, -0.064858, 0.004162, 0.019836, -0.013532, -0.201566, 0.026191, -0.124765, -0.260618, -0.17066, -0.165132, 0.095813, -0.0286, -0.070278, -0.084716, 0.047563, 0.032316, 0.077043, 0.163352, 0.026568, 0.190004, 0.354747, 0.282521, 0.130975, -0.199538, -0.061351, 0.055504, 0.101266, -0.130481, -0.048106, 0.139127, 0.065197, 0.108932, -0.002664, 0.178899, 0.103815, 0.090844, 0.086682, 0.288309, -0.123512, -0.054054, 0.126284, 0.047773, -0.02492, 0.016385, 0.146686, 0.154396, -0.14798, -0.089011, -0.054686, 0.126951, -0.072228, -0.219997, -0.065885, 0.058912, -0.036862, -0.115568, -0.254538, -0.124181, -0.056173, 0.13847, 0.043366, -0.083454, 0.019982, 0.164651, 0.394662, 0.016533, -0.148798, 0.203441, 0.29897, 0.008548, 0.029632, -0.06106, -0.261782, -0.216485, -0.106738, -0.033514, 0.013453, 0.005412, 0.152888, 0.220982, 0.273695, 0.022904, 0.054434, 0.030826, 0.376377, 0.093559, -0.069339, 0.198985, -0.08735, 0.126652, -0.127016, 0.175574, 0.078852, -0.080311, 0.335581, -0.226149, -0.170462, 0.008816, 0.378266, 0.179899, 0.198191, 0.21737, -0.019609, 0.075784, -0.32982, -0.117914, 0.061077, -0.010683, 0.156104, 0.014303, 0.066606, 0.103402, -0.104107, -0.070148, 0.023897, 0.155145, -0.173977, 0.001588, 0.056959, 0.151816, 0.189994, -0.23212, 0.051742, 0.230536, 0.160778, -0.114218, 0.022362, 0.018094, -0.065065, -0.391566, -0.114137, -0.222261, -0.234358, -0.408311, -0.040119, 0.132668, 0.242914, 0.064267, 0.021934, -0.002799, -0.00551, -0.019024, 0.050741, -0.107052, -0.015696, -0.046424, 0.17515, -0.026476, -0.126971, -0.099729, 0.000769, 0.041688, 0.046862, 0.172701, -0.15015, -0.030799, -0.060661, 0.011786, -0.071035, -0.010896, -0.083784, 0.187762, 0.081724, 0.015124, 0.187608, 0.230831, 0.036088, -0.150277, -0.23789, 0.052489, 0.11049, -0.116757, -0.183499, 0.290431, -0.243611, -0.053132, 0.095655, -0.184107, 0.062346, -0.120632, -0.16349, 0.036344, 0.038144, -0.099856, 0.027329, -0.067767, 0.123042, 0.083892, -0.023176, -0.118007, 0.233703, 0.152328, 0.060257, 0.013392, -0.104368, 0.146174, 0.198868, 0.044257,