{"model": {"name": "CIFAR-10 Tiny CNN", "title": "The Landscape", "description": "Classifies tiny 32\u00d732 color photos into 10 categories (airplane, car, bird, etc.)", "source": "Custom (trained in-repo)", "source_url": "", "architecture": "CNN (conv3\u00d73\u2192pool \u2192 conv3\u00d73\u2192pool \u2192 conv3\u00d73\u2192pool \u2192 dense\u219210)", "year": 2026, "total_params": 14410}, "layers": [{"name": "conv1.weight", "description": "First convolutional layer \u2014 detects basic color edges and gradients", "shape": [8, 3, 3, 3], "dtype": "float32", "min": -0.510912, "max": 0.510544, "mean": 0.002404, "std": 0.211086, "weights": [-0.403956, -0.396604, -0.161327, 0.048265, 0.323178, 0.284105, 0.223317, 0.167575, 0.016011, -0.399344, -0.299156, -0.159486, 0.130028, 0.02617, 0.055314, 0.22791, 0.219595, -0.085238, -0.393732, -0.235562, -0.183941, 0.292513, 0.185961, 0.137889, 0.030081, 0.09636, 0.076499, -0.258448, -0.030896, 0.060894, 0.123653, -0.039701, -0.022993, 0.104999, 0.227476, 0.093103, -0.070328, 0.023096, -0.039899, -0.073817, 0.05527, -0.13093, -0.064979, -0.074595, -0.052667, 0.16668, 0.185955, 0.048768, 0.272291, 0.278415, 0.094735, 0.158321, -0.0771, -0.025754, -0.154578, 0.095437, 0.246067, -0.230041, -0.029931, 0.36934, -0.335106, -0.13822, 0.433863, -0.258324, -0.058503, -0.187036, -0.458228, -0.145189, 0.13217, -0.086236, -0.059939, 0.23853, -0.133574, -0.116354, 0.179804, -0.03498, -0.184432, 0.260052, -0.27717, 0.162826, 0.165734, 0.020618, 0.171591, -0.08653, 0.314983, 0.215756, -0.259321, 0.046394, 0.395909, -0.050001, 0.073014, 0.015007, -0.510912, 0.014423, 0.024503, -0.32531, -0.095194, 0.191379, -0.32386, 0.282564, 0.10744, -0.357357, 0.246236, 0.286955, -0.282254, 0.245787, 0.097209, -0.25174, 0.308369, 0.052167, 0.09345, 0.295172, -0.441387, -0.147497, 0.026221, -0.193102, 0.093245, 0.510544, 0.19793, -0.213968, 0.326213, -0.410868, -0.117274, -0.139244, -0.430846, 0.141116, 0.254767, 0.024687, 0.053901, 0.093597, -0.296879, -0.17805, -0.06363, -0.112845, 0.300667, -0.27775, 0.225315, 0.081326, -0.454109, 0.218502, 0.169107, 0.168071, -0.055303, -0.108111, -0.082237, 0.307367, 0.205773, -0.396329, 0.225899, 0.175891, 0.169882, 0.205047, -0.149292, -0.431606, 0.050572, -0.062332, -0.118227, 0.252302, 0.076687, -0.058267, -0.185354, -0.021496, -0.193693, -0.228493, 0.138825, -0.138409, -0.191685, -0.106534, -0.086024, -0.320109, 0.004765, 0.042345, 0.128225, 0.019382, -0.026393, 0.049292, 0.271386, -0.1925, -0.084698, -0.130552, 0.193109, 0.163533, -0.114164, 0.196368, 0.375254, 0.127449, -0.035322, 0.226795, -0.008064, 0.095616, 0.201044, -0.010101, 0.453492, 0.489315, 0.079026, 0.384514, 0.145983, -0.167379, -0.0458, -0.141619, -0.047152, -0.24155, -0.066074, -0.015063, -0.283993, -0.15767, -0.263174, -0.111597, -0.123104, -0.023427, -0.163826, -0.328208, 0.097858, -0.141993, -0.040539, 0.349669]}, {"name": "conv1.bias", "description": "Bias for first conv layer", "shape": [8], "dtype": "float32", "min": -0.141347, "max": 0.218943, "mean": 0.073129, "std": 0.118736, "weights": [0.096744, 0.101354, -0.048543, 0.203056, -0.001476, 0.156304, 0.218943, -0.141347]}, {"name": "conv2.weight", "description": "Second convolutional layer \u2014 combines edges into textures and corners", "shape": [16, 8, 3, 3], "dtype": "float32", "min": -1.000442, "max": 0.593522, "mean": -0.004858, "std": 0.180986, "weights": [0.359263, -0.032983, -0.135125, -0.38236, 0.214496, 0.233197, 0.135128, -0.023754, -0.085696, -0.126641, -0.16217, -0.108532, 0.0389, -0.060562, 0.103474, 0.038636, 0.10829, 0.203485, -0.209319, -0.123169, 0.060082, -0.116983, -0.068438, -0.073689, 0.094124, -0.005131, 0.059818, -0.154676, -0.143077, -0.06301, 0.027001, 0.062849, -0.084274, -0.061083, 0.082513, 0.149364, -0.326809, 0.109029, 0.132733, 0.517316, -0.005356, -0.278661, -0.057172, 0.006626, 0.27591, 0.118096, 0.183618, 0.056157, 0.15162, -0.038049, 0.060026, 0.001216, 0.297185, -0.147984, 0.020155, 0.125636, 0.068547, 0.182465, 0.06259, 0.167325, -0.052079, 0.065962, 0.071727, -0.024965, -0.027372, 0.073519, 0.14463, -0.091158, -0.076789, -0.010189, 0.069754, 0.085229, 0.050343, 0.062235, -0.131343, 0.06855, -0.091898, -0.04306, 0.090603, -0.190217, -0.000268, -0.119582, 0.04635, 0.100749, -0.058984, 0.069944, 0.137475, -0.080823, 0.027907, 0.09154, 0.105974, -0.092713, 0.031031, 0.283197, -0.158594, 0.217279, 0.211118, -0.218835, 0.339707, -0.146296, 0.052125, -0.064036, -0.182566, 0.253507, -0.135529, 0.006204, 0.46498, 0.09487, 0.05414, -0.093276, 0.099125, 0.060189, -0.027125, 0.291889, -0.098829, 0.213352, 0.113883, -0.223738, -0.090816, -0.172861, -0.109813, -0.247895, -0.061579, 0.176793, -0.026304, 0.279393, -0.046195, 0.005642, 0.054683, -0.042635, -0.030797, -0.055371, 0.125646, 0.020768, 0.191331, 0.176329, 0.04354, 0.220617, 0.013441, 0.246053, 0.155353, 0.043129, 0.106651, -0.024205, -0.019953, -0.120187, 0.054434, -0.074892, -0.056051, 0.1495, -0.004382, -0.009904, -0.060846, 0.169886, -0.027796, -0.041308, -0.005636, 0.063892, 0.108057, 0.029996, -0.005599, 0.195329, 0.134768, 0.039395, -0.087897, 0.135772, -0.028574, -0.090978, -0.007186, -0.03136, -0.112802, -0.006773, -0.139254, -0.138633, 0.151201, -0.04123, -0.159653, 0.171882, 0.020889, 0.058052, -0.453122, -0.988182, -0.747403, -0.275826, -0.974046, -1.000442, 0.22672, -0.309669, -0.131915, 0.154713, -0.098941, -0.076727, 0.288268, 0.115945, -0.036514, 0.112514, -0.101624, 0.069478, 0.173204, 0.049158, -0.040786, 0.056067, 0.010001, -0.229115, 0.021605, 0.179481, -0.047302, 0.111885, 0.220441, 0.108381, 0.198649, -0.007107, 0.19634, 0.158843, -0.038046, -0.146237, -0.03284, 0.068756, 0.008142, 0.213273, 0.240064, 0.233848, -0.093538, -0.097343, 0.035099, -0.137061, -0.115059, 0.024684, -0.138783, -0.081879, -0.176899, -0.011231, -0.184669, -0.028145, -0.131102, -0.123733, 0.121714, -0.173239, -0.323501, -0.006176, -0.076037, -0.135794, 0.05314, -0.152771, -0.122094, 0.17568, -0.048834, -0.199553, 0.096529, -0.115663, -0.130156, 0.007464, 0.091323, -0.024887, -0.007081, 0.094008, -0.12389, -0.170312, 0.187224, 0.058831, 0.180573, 0.189172, -0.122057, 0.128828, -0.128996, -0.286595, 0.00725, 0.171904, -0.072651, 0.244851, 0.216978, 0.120006, 0.144646, 0.037066, 0.090223, 0.085126, 0.177642, 0.249127, 0.087356, -0.334082, -0.74347, -0.350436, 0.047225, -0.149564, 0.169141, 0.343527, 0.45068, 0.333756, -0.045168, 0.028826, -0.046186, 0.013291, 0.203342, 0.274822, 0.19434, 0.246361, 0.242445, -0.06861, -0.157623, -0.009473, 0.005907, 0.076527, 0.181904, 0.113097, 0.224164, 0.190003, 0.018835, 0.074924, 0.015264, 0.029919, 0.044578, 0.00404, -0.047707, -0.063247, -0.145823, -0.020535, -0.121919, -0.027985, -0.166549, -0.258564, -0.158076, -0.160859, 0.001496, -0.034166, 0.126743, 0.160494, 0.251507, 0.1233, 0.20773, 0.363146, 0.109839, 0.056352, 0.173357, 0.118205, -0.015865, -0.061923, -0.226971, -0.303929, -0.200856, -0.261489, -0.278712, -0.126533, 0.056784, 0.065417, 0.020427, 0.007543, 0.096613, 0.091101, -0.195511, -0.191117, -0.087358, 0.322302, 0.380484, -0.017338, 0.175761, -0.0372, -0.224085, 0.121818, -0.150552, -0.252172, -0.291153, 0.093303, 0.083079, -0.048992, 0.145356, -0.107162, 0.133333, -0.068592, -0.189871, -0.299962, -0.167749, 0.034067, -0.305619, 0.107095, 0.190084, -0.094334, -0.074528, 0.063884, 0.072881, 0.178636, 0.053582, 0.19954, -0.062511, -0.295107, -0.016214, -0.132538, 0.009634, -0.082633, -0.128132, 0.060636, -0.273886, 0.086826, 0.213777, -0.094475, 0.016312, 0.005586, 0.052905, -0.097012, -0.382514, -0.032183, -0.255287, 0.113693, -0.472144, -0.217922, 0.037686, -0.024517, 0.062024, 0.058797, 0.168701, 0.125507, -0.086485, -0.020572, 0.042825, -0.118254, -0.308582, 0.011497, 0.213477, -0.277839, 0.359299, 0.444444, -0.119925, 0.272613, 0.327672, 0.593522, -0.054824, -0.164798, 0.432978, -0.332657, -0.441367, 0.229831, -0.167058, 0.051331, 0.037766, 0.124418, -0.047826, -0.008444, 0.136766, -0.212068, 0.15741, -0.007046, 0.015179, -0.080864, -0.066464, 0.139306, 0.058565, 0.096734, 0.055652, 0.061826, 0.162341, 0.116885, -0.184824, 0.073312, 0.125969, 0.071867, 0.043476, -0.173734, 0.037564, -0.279915, -0.041355, 0.062342, 0.024476, 0.218526, 0.167647, -0.122749, 0.229403, -0.056193, -0.099849, 0.04784, 0.2413, 0.112639, 0.303717, 0.189032, -0.189623, 0.258011, 0.040961, -0.062478, 0.07507, -0.099933, 0.086264, 0.040214, -0.091374, 0.406421, -0.03621, -0.037235, 0.138281, -0.056875, 0.120824, -0.037249, 0.114333, 0.087689, -0.03913, -0.052187, -0.205901, -0.132447, 0.051717, -0.251999, -0.383503, -0.531426, -0.243427, -0.240691, -0.29, 0.013539, 0.100508, 0.043568, 0.087451, -0.360169, 0.290671, 0.136469, 0.311246, 0.004032, -0.293859, 0.252346, 0.382273, 0.068174, -0.003937, 0.092803, 0.141093, -0.047464, -0.067599, -0.174707, 0.05756, -0.090815, 0.045284, 0.296262, -0.113963, -0.289832, -0.108006, 0.116528, 0.187944, -0.224759, -0.065111, 0.042854, -0.267336, 0.125395, 0.326007, 0.205318, -0.290778, -0.058563, 0.144404, 0.107846, -0.035832, 0.008606, -0.069556, -0.193686, -0.172431, 0.07729, -0.067242, -0.249496, -0.183117, 0.244657, 0.479596, 0.076827, -0.37518, -0.300575, 0.17777, 0.19396, -0.401661, -0.386511, -0.021549, 0.274241, 0.188302, -0.108233, -0.26555, 0.223184, -0.008571, -0.159195, -0.255412, -0.226767, 0.269833, 0.207884, -0.23218, -0.496207, -0.171671, 0.347864, 0.131111, -0.034235, 0.211719, 0.261208, -0.156445, -0.180354, -0.090975, 0.117778, -0.235316, -0.180184, 0.097883, 0.103128, 0.197986, -0.218748, 0.129175, 0.145816, -0.21835, -0.085709, 0.028414, 0.009213, 0.185188, 0.043487, 0.253461, 0.01363, 0.072444, 0.184355, -0.01094, 0.285571, 0.21222, -0.021544, 0.05168, -0.256448, 0.021174, -0.03105, 0.05445, 0.119943, -0.064425, 0.131698, 0.050029, -0.218353, -0.167241, -0.309037, -0.271061, -0.241913, -0.062146, -0.358487, 0.062991, -0.01406, 0.025601, 0.142974, -0.100301, -0.497423, -0.310459, -0.104412, -0.159408, -0.286651, 0.294995, 0.247188, 0.212054, 0.053139, 0.145445, 0.134882, 0.19571, 0.183791, 0.196874, -0.645731, -0.648174, 0.266032, -0.232038, -0.193397, -0.370421, -0.350738, -0.509742, -0.353356, 0.371361, 0.242917, 0.215832, 0.393093, 0.140588, 0.103967, -0.067013, -0.270435, -0.036138, 0.083963, 0.141232, 0.048062, -0.00133, 0.145914, -0.019804, -0.329343, -0.189321, -0.060012, 0.004201, -0.208079, -0.336371, -0.261701, -0.361123, -0.427592, -0.198053, -0.11407, -0.148703, -0.101035, 0.044549, 0.147464, -0.141682, 0.160046, 0.098175, -0.199695, -0.146872, 0.005693, -0.056326, -0.127698, -0.121404, 0.03022, -0.269768, -0.190709, 0.118838, 0.037888, -0.001459, -0.050152, 0.062303, -0.228146, 0.139883, 0.183293, 0.112121, 0.111928, 0.130533, 0.107386, 0.041555, -0.064353, -0.065027, -0.188612, -0.020065, -0.036749, -0.012898, -0.122901, -0.000661, -0.053675, -0.125549, -0.003809, 0.158209, 0.076131, 0.132728, 0.081239, -0.159039, 0.088952, 0.116599, -0.327296, 0.061025, -0.339649, -0.006629, 0.043096, 0.272002, 0.285303, 0.034316, 0.028273, 0.01818, -0.06952, 0.164912, -0.095138, -0.35662, -0.152172, -0.035685, -0.208312, 0.075238, 0.146433, -0.030897, 0.247449, 0.274839, 0.098587, 0.265745, 0.138075, 0.045664, -0.01503, -0.027901, -0.031636, 0.118682, -0.000707, -0.151489, -0.12192, -0.160246, -0.10754, -0.010688, 0.052566, -0.167078, 0.364317, 0.218636, -0.054064, 0.306246, 0.118399, 0.016065, 0.025957, -0.188244, -0.231232, -0.363848, -0.263281, -0.139601, -0.331985, -0.170741, -0.185648, 0.123992, 0.11123, -0.003728, 0.303248, 0.125204, 0.137996, -0.048586, 0.123007, -0.00131, 0.242619, 0.469478, 0.3536, 0.104191, 0.08001, 0.122522, -0.015963, -0.116378, -0.462096, -0.337685, -0.001178, 0.415979, -0.047461, 0.127966, 0.104213, 0.079016, 0.035968, 0.081917, 0.16942, -0.156283, -0.127111, -0.029196, -0.144339, -0.170835, 0.092705, -0.020213, -0.004438, -0.32096, 0.051253, 0.186147, 0.178285, 0.143606, -0.115856, 0.063, -0.006283, -0.022989, -0.036278, -0.164932, -0.250177, -0.11544, -0.195704, 0.107489, -0.016992, 0.090413, 0.059447, -0.126758, 0.177877, -0.149433, 0.257933, -0.27824, 0.145891, -0.09585, 0.112935, -0.038991, -0.183591, -0.024332, 0.118783, -0.119777, 0.197901, 0.018114, 0.193841, 0.102744, 0.002433, -0.084941, -0.195223, -0.155264, -0.014507, -0.392569, -0.198626, -0.015096, -0.10806, 0.053581, -0.140305, -0.155895, -0.090382, -0.187054, -0.011011, 0.056359, -0.068844, 0.008474, 0.051567, 0.084987, -0.133097, 0.049495, -0.074652, -0.311113, 0.058728, -0.211716, -0.050025, 0.051159, 0.010634, -0.095685, -0.061741, -0.14845, -0.150161, -0.084721, 0.192607, -0.026923, 0.223887, -0.153172, 0.105427, 0.256032, -0.145907, 0.062564, 0.227454, -0.152135, 0.07869, -0.039178, 0.250583, 0.007708, -0.107916, 0.28898, 0.058761, 0.111125, 0.270234, 0.100449, 0.044033, 0.02523, 0.102347, 0.1162, 0.075888, 0.231202, -0.0857, 0.096943, 0.061741, 0.206031, -0.164199, -0.046434, 0.072807, -0.028675, 0.119775, 0.087344, -0.119312, -0.027686, 0.0749, -0.082839, -0.091716, 0.019516, -0.170837, -0.410769, 0.019159, -0.172844, -0.243733, 0.071044, -0.127379, 0.025153, -0.144253, -0.013908, -0.142505, -0.091072, -0.068796, -0.105743, -0.166414, -0.240667, -0.115073, 0.0865, -0.470305, -0.638011, -0.132665, -0.135809, -0.392781, -0.198336, 0.112988, 0.07289, -0.030363, -0.158642, -0.002967, -0.143093, -0.220985, -0.136334, -0.005619, 0.111047, -0.140877, 0.035113, 0.281637, 0.107833, -0.121411, 0.269357, 0.180368, -0.148357, -0.040881, 0.234157, 0.152912, -0.272425, 0.134639, 0.135944, 0.049357, -0.179336, 0.180344, -0.186558, -0.003142, 0.050546, -0.283593, -0.320408, -0.080132, -0.197308, -0.143282, -0.060042, -0.012388, 0.042879, -0.005345, 0.160829, 0.127845, -0.070154, 0.047022, 0.382108, 0.093143, 0.236037, 0.088791, 0.148543, -0.07747, 0.032999, -0.061748, 0.002109, 0.195759, 0.086018, -0.053786, 0.035287, -0.116983, 0.071276, -0.05986, -0.026632, 0.185261, 0.012323, -0.067064, 0.19036, -0.100925, -0.096067, -0.283113, -0.110292, 0.182161, 0.087161, -0.088603, -0.107531, 0.311621, 0.335229, -0.016328, 0.120511, 0.118847, 0.008246, -0.08849, -0.189918, -0.286482, -0.015507, -0.330298, -0.398704, -0.087795, -0.202543, -0.142341, 0.066729, 0.107149, -0.000321, 0.103507, 0.20379, 0.129694, -0.152388, -0.136577, -0.124593, -0.020827, -0.180673, -0.019517, 0.165331, 0.341838, 0.203433, 0.25389, 0.181358, 0.026822, 0.216179, 0.019494, -0.047448, 0.086764, -0.078068, -0.151372, -0.165913, -0.098388, 0.07172, -0.273926, -0.15351, 0.11424, 0.091753, 0.133629, -0.114905, 0.049952, 0.13679, 0.055559, -0.067519, -0.09273, 0.041349, 0.065201, -0.2251, -0.041891, -0.039218, 0.147038, 0.11564, -0.048496, 0.191992, 0.272708, 0.042181, -0.001285, -0.057998, 0.028927, 0.019506, -0.107674, -0.020608, -0.021672, -0.02647, -0.24167, -0.124902, -0.220933, -0.013191, -0.088035, -0.168195, 0.155733, -0.074606, 0.030617, 0.081705, 0.100735, 0.03483, 0.035156, 0.088187, 0.000259, 0.305346, 0.060829, 0.027461, -0.212766, 0.028339, -0.193552, 0.043459, 0.084064, -0.009077, 0.158766, -0.089073, 0.04015, 0.180559, 0.210008, -0.003773, 0.112745, -0.27507, 0.293918, 0.260888, 0.177882, 0.067983, 0.122413, 0.021533, 0.064911, 0.246523, 0.088588, 0.176928, 0.102674, 0.086643, 0.177684, 0.010757, -0.007967, 0.211515, -0.114585, -0.249779, 0.013425, -0.139288, -0.328821, 0.049366, -0.080331, -0.067374, 0.113559, -0.112857, -0.053821, -0.037197, -0.052392, 0.011885, -0.010725]}, {"name": "conv2.bias", "description": "Bias for second conv layer", "shape": [16], "dtype": "float32", "min": -0.383367, "max": 0.472841, "mean": 0.045175, "std": 0.229389, "weights": [-0.223949, -0.287857, 0.472841, 0.070089, -0.064167, -0.02384, -0.383367, -0.10361, 0.122629, 0.288225, -0.083055, 0.30925, 0.03532, 0.250244, 0.288142, 0.055902]}, {"name": "conv3.weight", "description": "Third convolutional layer \u2014 recognizes parts of objects (wheels, wings, ears)", "shape": [32, 16, 3, 3], "dtype": "float32", "min": -0.855964, "max": 0.543184, "mean": -0.011302, "std": 0.157798, "weights": [0.276604, 0.239989, 0.176335, 0.009542, -0.022258, 0.063171, -0.293827, -0.206181, -0.260735, 0.048154, 0.112829, -0.020437, -0.093443, -0.103084, -0.008391, -0.205051, -0.201207, -0.229832, -0.180136, -0.092693, -0.074649, -0.152942, -0.051968, 0.28827, 0.232361, 0.267138, 0.323834, -0.155763, 0.152471, 0.052802, 0.050748, 0.16078, -0.087521, -0.080283, -0.172687, -0.040103, 0.089698, 0.077723, -0.062802, 0.154221, 0.242005, -0.100751, -0.064272, -0.048718, -0.14049, -0.090268, 0.012737, -0.083484, -0.002909, 0.022603, -0.073219, -0.207191, -0.083156, 0.157674, -0.180506, -0.004096, -0.003184, 0.096094, 0.039872, 0.010114, -0.35346, -0.327542, -0.146139, 0.027303, 0.214004, 0.293252, 0.417301, 0.266525, -0.111384, 0.102271, -0.103386, 0.018026, -0.008684, -0.042363, -0.115235, 0.112109, -0.079236, -0.104072, 0.187605, 0.133563, 0.205479, -0.042999, -0.063765, -0.010921, -0.13665, -0.236349, -0.056062, 0.054681, -0.143978, -0.022439, 0.001622, 0.206638, -0.067704, 0.105009, 0.506177, 0.186313, 0.053219, 0.022641, 0.106699, -0.066949, -0.177336, -0.054704, -0.091174, 0.021841, 0.059039, 0.084873, 0.038148, 0.240005, -0.155563, 0.004795, 0.024055, 0.222178, 0.135546, -0.16607, -0.063226, -0.142049, -0.200005, -0.091968, 0.111416, -0.000905, 0.075118, -0.021633, 0.185011, 0.343213, 0.161148, 0.011297, -0.266025, -0.014685, -0.030506, -0.198155, -0.113603, -0.110385, -0.219627, -0.22805, -0.108572, 0.118076, 0.077345, 0.043147, 0.062659, 0.068678, 0.07067, -0.098273, -0.182339, 0.074268, -0.051262, -0.212924, -0.084079, -0.120566, -0.657429, -0.499721, 0.057228, -0.096722, -0.13636, -0.16902, -0.172064, -0.164243, 0.121501, -0.128269, -0.415972, 0.057917, 0.061079, 0.063992, 0.24985, 0.024332, -0.040101, 0.236424, 0.10272, 0.208818, -0.019617, 0.114476, 0.153733, -0.246447, -0.028321, 0.284119, -0.227399, -0.31045, -0.157232, 0.180116, -0.167006, 0.145893, -0.474494, -0.097853, 0.355919, -0.393999, -0.321171, -0.332112, 0.33264, -0.083993, 0.135249, -0.276461, -0.116431, -0.001127, -0.304531, -0.197163, -0.003723, -0.076127, -0.102665, -0.216374, -0.219465, -0.042108, 0.131935, -0.187712, -0.202456, -0.22488, 0.248179, 0.043118, -0.02637, -0.132962, -0.225215, 0.082451, -0.062582, -0.277104, -0.257201, 0.228713, -0.24946, -0.210097, -0.143501, 0.145689, 0.078371, -0.226515, 0.008913, 0.256303, -0.310764, 0.032337, 0.216696, 0.137794, 0.049944, 0.107634, 0.336625, 0.102625, 0.212817, 0.150636, 0.158297, -0.058224, -0.317002, -0.029184, 0.024144, -0.083445, -0.206842, -0.480406, 0.288765, 0.158591, 0.33783, -0.016275, -0.076918, 0.165572, -0.135622, -0.115126, -0.005982, -0.098213, -0.060147, -0.086926, -0.138891, -0.378047, 0.069078, -0.067703, -0.152534, -0.486299, -0.102643, -0.080278, -0.164078, -0.02884, 0.174712, 0.189271, 0.127565, 0.077781, 0.112465, 0.182734, 0.052959, 0.234685, 0.205795, 0.172019, 0.289271, 0.028619, -0.233597, -0.030059, 0.188918, 0.171879, 0.096173, -0.079486, -0.10792, -0.122763, 0.053683, -0.264378, -0.415965, 0.28751, 0.074976, 0.094215, -0.08932, -0.121378, 0.236374, 0.431376, 0.222588, 0.010819, 0.305945, 0.14914, 0.037313, 0.110989, -0.138915, -0.062938, -0.138157, 0.091951, -0.366235, 0.176267, 0.207559, 0.062584, -0.292063, -0.225182, -0.208127, -0.330185, -0.187137, -0.283542, -0.2307, -0.108257, -0.06463, -0.146484, -0.027125, -0.066553, 0.014844, 0.166501, 0.139228, 0.059143, -0.076084, -0.111863, 0.008658, -0.164119, -0.072704, 0.174806, 0.190667, -0.142395, -0.203003, -0.087416, 0.04613, 0.051443, -0.008396, 0.100505, 0.265078, -0.091332, 0.15606, 0.152531, 0.120436, -0.041176, 0.091616, -0.110072, -0.065444, 0.078087, -0.260394, -0.167766, -0.070896, -0.102588, -0.006316, 0.107283, 0.140331, -0.00052, 0.300027, 0.142919, -0.024863, -0.137446, 0.242843, -0.097995, 0.139247, -0.068431, -0.289894, -0.110537, -0.232272, -0.098727, 0.087153, -0.332965, 0.016444, -0.110848, -0.167046, 0.027671, 0.102265, 0.113233, -0.101012, -0.012617, 0.067431, 0.074483, 0.211591, 0.03541, 0.01791, 0.137845, 0.108875, -0.151705, 0.242584, 0.228038, 0.083766, 0.117779, 0.193926, 0.160267, 0.037466, -0.113513, 0.100637, 0.157167, -0.052121, 0.099431, 0.04338, 0.240341, 0.182196, 0.028848, -0.335789, -0.317195, -0.12791, -0.16683, -0.290096, 0.212601, 0.161385, -0.123935, 0.026922, -0.128428, -0.562728, -0.161577, 0.119932, -0.014906, 0.082933, -0.056724, -0.239974, 0.268001, 0.215778, -0.003998, 0.034711, 0.142475, 0.04715, 0.168407, -0.048195, 0.241722, -0.187374, -0.324721, -0.175333, -0.049076, 0.066249, -0.146493, 0.164798, -0.098527, 0.206555, -0.006473, -0.009242, 0.124448, -0.130895, 0.065465, 0.064677, -0.179178, -0.432928, -0.323708, 0.022496, -0.063971, -0.071057, 0.143901, -0.088758, 0.179515, 0.238813, 0.162828, -0.169531, 0.007712, 0.135736, 0.138605, 0.05055, 0.161348, 0.011855, -0.171509, -0.009802, 0.170293, -0.044273, 0.122594, 0.074653, -0.043443, -0.012329, 0.085218, -0.204562, -0.113853, 0.079117, 0.112901, 0.052514, 0.056466, 0.115432, -0.125009, -0.0876, -0.146573, -0.467492, -0.315243, -0.136842, -0.304412, -0.355257, -0.032342, -0.03741, -0.20355, 0.064568, -0.061792, -0.065407, 0.042666, -0.131488, -0.13402, -0.093831, -0.107655, -0.0096, -0.074687, -0.152291, -0.00132, 0.079648, -0.068223, 0.013295, 0.265066, 0.077404, -0.201655, -0.108947, -0.23667, -0.427561, -0.189774, -0.266902, -0.203046, 0.243021, 0.101731, 0.003142, 0.139744, 0.111288, 0.05931, 0.079141, 0.176618, 0.011413, 0.035346, 0.101479, 0.124832, -0.216505, -0.171801, -0.218304, -0.077726, 0.053614, -0.126614, 0.066104, 0.036671, 0.012083, 0.142734, 0.102376, -0.01172, 0.315791, 0.245902, 0.221028, -0.023085, 0.009441, -0.006768, 0.202966, -0.14066, -0.185542, 0.06704, 0.055953, 0.100135, -0.106011, 0.052118, 0.061622, -0.110596, -0.364774, 0.041651, 0.058533, 0.028832, -0.161405, 0.090379, 0.029596, -0.023477, -0.148018, -0.141644, -0.023735, -0.176006, -0.227078, -0.082236, 0.041409, -0.056085, -0.013727, 0.08286, -0.010347, -0.022396, 0.280795, 0.009787, -0.019447, 0.092257, 0.157111, 0.176585, -0.24749, -0.233023, -0.191544, -0.085628, -0.072566, -0.017229, -0.081018, 0.09228, -0.149961, -0.132401, 0.11623, 0.174316, -0.084968, 0.107116, 0.247704, 0.046099, -0.095045, 0.161827, -0.14722, -0.151867, -0.123683, -0.027965, -0.154089, -0.263525, 0.170748, 0.005535, 0.065593, -0.050806, -0.403311, -0.277056, 0.219079, 0.23241, 0.004619, 0.252098, 0.258201, 0.333846, -0.227016, -0.31723, -0.146846, 0.077032, -0.036376, -0.003034, 0.119826, -0.017471, -0.112127, -0.334379, 0.166725, -0.234839, 0.022704, -0.110354, 0.071948, -0.238276, -0.061724, 0.016946, 0.047001, 0.002262, -0.116353, -0.006047, 0.11745, -0.106999, 0.007489, 0.121386, 0.023388, -0.106925, -0.262834, -0.162471, 0.149397, -0.053903, -0.165789, -0.017265, 0.018181, -0.046581, 0.093641, 0.329807, 0.13295, 0.028501, -0.012357, -0.022194, -0.090541, -0.169373, -0.193719, -0.024605, 0.136979, -0.127105, 0.02326, 0.11186, -0.032709, 0.039195, 0.21296, 0.22136, 0.121418, -0.287803, 0.103122, 0.08601, -0.130421, 0.013447, 0.058864, 0.070641, -0.191325, 0.082925, 0.017869, 0.005877, -0.072032, -0.090304, -0.024909, 0.022841, -0.014344, -0.096539, 0.351351, -0.025012, 0.331939, 0.056815, -0.246445, 0.270041, 0.039759, -0.327137, -0.032227, -0.078072, 0.127496, 0.19201, 0.187156, 0.020604, 0.133521, 0.07151, -0.086488, 0.113657, 0.036933, -0.156207, -0.03295, 0.064076, 0.046124, -0.16846, -0.069524, 0.102488, 0.005965, 0.078566, 0.045246, 0.058784, 0.032933, -0.159795, -0.039327, 0.012967, -0.101335, -0.095331, 0.031995, -0.062387, 0.14068, -0.115355, -0.113732, -0.092883, -0.126041, -0.224702, -0.092821, 0.113842, 0.121839, 0.119785, -0.204472, -0.079006, 0.055695, -0.203372, -0.0696, 0.052868, 0.083421, 0.015316, -0.1423, -0.105192, -0.104323, -0.13783, 0.254391, 0.108252, -0.068075, 0.164523, 0.135747, 0.295956, 0.29922, 0.475396, 0.141936, 0.115625, 0.171771, -0.024073, 0.110722, -0.011236, -0.028376, 0.223636, 0.097511, 0.126528, 0.056957, 0.093749, -0.01202, -0.069185, -0.116879, -0.00988, -0.399585, -0.49559, -0.201896, -0.362623, -0.206596, 0.114777, 0.173314, 0.099927, 0.20724, -0.05108, -0.187977, 0.170261, -0.008933, -0.013174, 0.073587, -0.124733, -0.069393, -0.131567, 0.18212, -0.207827, -0.227327, 0.11383, -0.113423, -0.240288, -0.098137, 0.007673, -0.12502, -0.307408, -0.274603, -0.250655, 0.201135, 0.08853, 0.097209, 0.01932, 0.151508, 0.209591, -0.040381, 0.07341, -0.040898, 0.019865, 0.063583, -0.005074, -0.093083, -0.110915, -0.242435, 0.035097, 0.057151, 0.034725, 0.113469, -0.09705, -0.098364, -0.057572, -0.182402, -0.303009, -0.048995, -0.226697, -0.08391, 0.044424, 0.045261, 0.008611, 0.093127, -0.051054, -0.022204, -0.030812, -0.296476, -0.002456, 0.199929, -0.014969, 0.331851, -0.05022, 0.002238, 0.014845, -0.025733, -0.417673, -0.167266, -0.1945, -0.283607, 0.062019, -0.042133, 0.031491, -0.001979, -0.009748, 0.134438, 0.032186, -0.116986, -0.07745, 0.094852, 0.254819, 0.039527, -0.020859, 0.157149, -0.190044, -0.019388, 0.106441, -0.067263, 0.221381, 0.019067, 0.147072, 0.091127, -0.03596, -0.073364, 0.124477, 0.186554, -0.194825, -0.203715, 0.089096, -0.053252, -0.187003, 0.060425, 0.171136, -0.13874, 0.049147, 0.016219, -0.137987, -0.076623, 0.117956, 0.1051, -0.190218, 0.03467, 0.102328, -0.010765, 0.016091, 0.026151, 0.052213, -0.046237, 0.144003, -0.250961, -0.479624, 0.196073, 0.170089, 0.043807, -0.041564, -0.429858, -0.172423, 0.101496, -0.03488, -0.641524, -0.149787, -0.107142, -0.324067, 0.104927, -0.192605, -0.101533, 0.222127, -0.210674, -0.0089, 0.150607, 0.105994, 0.087644, -0.149941, 0.033768, -0.03219, 0.035367, -0.084006, -0.139002, -0.047296, 0.024766, -0.1335, -0.25795, -0.03637, 0.193921, 0.442459, -0.049851, 0.098408, 0.414016, -0.123765, -0.122356, 0.150822, -0.161466, -0.083297, 0.244864, -0.1013, -0.197843, 0.093899, 0.22818, -0.179813, -0.328764, 0.000952, 0.007801, -0.011287, 0.017518, -0.140504, 0.027701, 0.187664, -0.370099, -0.096127, 0.163641, -0.228221, 0.01755, 0.332488, -0.137117, -0.12301, -0.062406, 0.010008, 0.110911, 0.135029, -0.188971, 0.01931, 0.106185, -0.11765, -0.290029, -0.078258, -0.150581, -0.05997, -0.078785, 0.053312, 0.051083, 0.07052, -0.063512, 0.04609, 0.167235, 0.137635, -0.142617, 0.047717, 0.252384, 0.245637, -0.068063, 0.171831, 0.304502, 0.168739, 0.100769, 0.103938, 0.19566, 0.062495, -0.003001, -0.231015, -0.111129, -0.004378, 0.071981, -0.067957, -0.004415, 0.12029, -0.15978, -0.196503, 0.143236, 0.01648, -0.057226, 0.053081, 0.019255, -0.130749, 0.045874, 0.065812, 0.0842, -0.095349, -0.061047, -0.204566, -0.092867, -0.032137, 0.099811, 0.028794, 0.112716, 0.16254, -0.042436, 0.036728, 0.054412, 0.006378, 0.057964, 0.047768, 0.332668, 0.022861, 0.163338, 0.284413, -0.487183, -0.260215, 0.12299, -0.129519, 0.043947, 0.27771, 0.19372, -0.181704, 0.160228, 0.098148, -0.231879, -0.041577, 0.029001, -0.106545, -0.032749, -0.028966, -0.082026, -0.233942, -0.024334, 0.128416, -0.05966, 0.084704, 0.091439, -0.102582, -0.112713, 0.022071, -0.194993, -0.283545, -0.180045, -0.41298, -0.263159, -0.011277, 0.044742, -0.011855, 0.028856, -0.078466, -0.036293, 0.140206, 0.015632, -0.156668, 0.03514, 0.048163, 0.020913, -0.101046, -0.210793, -0.095173, -0.185607, -0.215179, 0.02029, -0.002714, 0.111437, 0.297233, -0.071507, -0.216766, -0.146366, -0.170439, -0.046349, -0.299077, -0.162493, 0.272537, 0.119797, -0.09254, -0.006088, -0.090541, -0.258473, 0.149999, -0.034671, 0.096167, 0.052141, 0.038781, -0.018399, -0.130391, -0.081929, -0.012668, -0.040606, -0.04447, -0.047288, 0.092074, -0.009651, 0.186249, 0.00369, -0.086888, 0.060101, -0.208311, 0.04235, 0.015131, -0.110841, 0.12349, 0.054475, -0.083331, 0.157641, 0.192134, -0.065047, 0.116472, 0.173836, 0.104575, -0.011256, -0.188952, 0.207839, 0.093237, -0.008257, -0.313579, -0.246095, -0.028674, 0.278224, -0.045509, -0.088181, 0.038245, -0.119177, -0.203508, -0.118363, -0.133609, -0.074479, 0.007607, -0.055713, 0.064789, 0.011013, 0.018408, 0.185097, 0.071853, -0.023723, 0.130248, 0.249487, 0.246678, 0.202855, 0.283073, 0.199971, 0.275, 0.088206, -0.017093, 0.044031, -0.195646, -0.373858, -0.183883, -0.379089, -0.196867, -0.050175, -0.08449, -0.009855, 0.118783, -0.169488, -0.217842, -0.087468, -0.21157, -0.296475, 0.084003, -0.093058, -0.190332, -0.041542, -0.161968, -0.098785, -0.051509, -0.095383, -0.093836, 0.087757, -0.049013, -0.019134, 0.123785, 0.062387, -0.062323, 0.093714, -0.022259, -0.136659, -0.048069, 0.047197, 0.056569, -0.069209, 0.07549, 0.085086, -0.053798, -0.12712, -0.167861, 0.091232, -0.107028, -0.179898, 0.161295, 0.003333, -0.041898, -0.102033, -0.221846, -0.09784, 0.075064, 0.036526, 0.032638, 0.235083, -0.05244, 0.187196, 0.098782, 0.011601, -0.010481, 0.179048, -0.036185, -0.063382, 0.03165, -0.185839, -0.214062, 0.201488, 0.10037, 0.046545, 0.204161, 0.250922, 0.022618, 0.203043, 0.087895, 0.195166, 0.009872, 0.016224, 0.134199, -0.099553, -0.010869, 0.090794, 0.013954, -0.038981, -0.277568, 0.036052, 0.021257, -0.4231, 0.042637, -0.10427, -0.035909, 0.158146, 0.337047, 0.142838, 0.099871, -0.046547, -0.023891, 0.328739, 0.162983, 0.17143, 0.184752, 0.114025, -0.093131, -0.17066, -0.183487, -0.152463, 0.13259, -0.135092, 0.033196, 0.124998, -0.299637, -0.074983, 0.223312, -0.357845, -0.523037, -0.086865, -0.220169, -0.261628, -0.060652, 0.189014, 0.040191, 0.070125, 0.024967, -0.139868, -0.109003, -0.083834, -0.069792, 0.000575, 0.075149, 0.033123, 0.065687, 0.022232, 0.007557, 0.130064, 0.000775, 0.107055, 0.135458, -0.00732, 0.018642, -0.04859, -0.071379, 0.256869, 0.056885, -0.22981, -0.159469, -0.315992, 0.058244, -0.020487, 0.086591, -0.105074, 0.051851, -0.013878, 0.036206, 0.045372, 0.009996, 0.012039, 0.054037, -0.087554, -0.362863, -0.32387, 0.040988, 0.206517, 0.024504, -0.116162, -0.0167, -0.151915, -0.126413, 0.139032, 0.196274, 0.229333, 0.158714, 0.231477, 0.248862, 0.095083, 0.145556, 0.046257, -0.039986, 0.310108, 0.187287, 0.184687, 0.257361, -0.09474, 0.09736, -0.166865, -0.049237, -0.077109, -0.008195, 0.068061, 0.049887, 0.136093, -0.139977, 0.006821, 0.064309, -0.029459, -0.056002, 0.083, 0.075193, -0.173203, 0.158502, -0.150337, -0.09739, -0.041504, -0.155296, 0.039211, 0.156701, 0.084483, -0.178231, 0.040286, -0.131611, 0.130154, -0.012217, 0.073784, -0.123937, -0.258222, -0.178085, -0.01574, 0.031823, 0.071471, -0.040077, 0.105869, -0.069442, -0.370197, -0.103219, 0.168981, 0.017985, 0.14262, 0.173786, -0.119166, -0.122679, 0.004773, -0.019654, -0.073494, 0.014097, 0.044349, -0.116011, -0.104575, 0.073612, -0.174323, -0.259296, -0.031451, 0.06888, -0.056681, 0.112446, 0.020767, -0.313758, 0.00276, -0.069695, -0.067077, 0.249231, 0.120965, -0.080073, 0.027191, -0.094138, -0.054343, -0.001505, 0.044181, 0.269868, 0.056379, -0.249125, 0.084896, 0.215065, 0.179137, 0.002412, 0.120306, 0.101845, 0.108828, -0.225258, -0.179834, -0.089896, -0.186032, -0.212736, 0.099495, -0.024014, 0.078604, 0.037667, 0.024288, 0.071323, -0.110006, -0.009899, -0.002495, -0.064799, 0.011979, 0.059425, -0.166596, 0.071924, -0.309856, -0.081146, 0.203153, 0.036994, -0.012419, -0.100947, 0.033345, 0.10029, -0.070799, -0.166384, 0.030183, 0.105284, 0.196635, 0.023476, 0.085016, 0.059571, -0.078866, -0.010734, 0.035725, -0.009542, 0.33016, 0.36446, 0.284128, -0.068902, -0.017572, 0.130862, 0.107183, 0.037368, 0.236482, -0.118609, -0.096205, 0.129718, -0.019706, 0.143321, 0.259, 0.006994, 0.124469, 0.137094, -0.015649, -0.08235, 0.286029, 0.015633, -0.096763, -0.044453, -0.10551, -0.203614, -0.12839, 0.200166, -0.290569, -0.13161, -0.127791, -0.037349, -0.035134, -0.053574, -0.169198, -0.053007, 0.13865, -0.14599, 0.046402, 0.077323, 0.018223, 0.308951, 0.236489, 0.26049, 0.327547, 0.28074, 0.127873, 0.166527, 0.049128, -0.100419, 0.051403, 0.142041, 0.085035, 0.074273, -0.012059, 0.07198, 0.167255, 0.037495, -0.080006, -0.053366, -0.007286, -0.130722, -0.08234, 0.285966, 0.173041, -0.00688, -0.028926, 0.047942, -0.021107, 0.12545, -0.264385, -0.111832, 0.065992, -0.129754, -0.126387, -0.226585, -0.214728, -0.176515, -0.120374, -0.31089, -0.401912, -0.148571, -0.188895, -0.460532, -0.124573, -0.206378, -0.132208, 0.193075, -0.241564, -0.208827, 0.129518, -0.021599, 0.11944, -0.083768, -0.065731, 0.047719, 0.184997, 0.02347, 0.0451, 0.308377, -0.143465, -0.070596, -0.072254, -0.058033, 0.011245, -0.119674, -0.042636, -0.194176, -0.021498, -0.034372, -0.123689, -0.069271, -0.098907, -0.154324, -0.164746, -0.222432, -0.166816, 0.135194, -0.325146, -0.274573, 0.124479, 0.119779, 0.125811, 0.015325, 0.204994, 0.062016, -0.014252, -0.011595, -0.030297, -0.183804, 0.043087, -0.013076, 0.064641, 0.04062, -0.13985, -0.10205, -0.126363, 0.008423, -0.201521, 0.116053, -0.459217, 0.119534, -0.25553, 0.018056, -0.140741, 0.197877, 0.304244, 0.02667, 0.086202, 0.017845, -0.044978, -0.205483, -0.095005, -0.098099, -0.371567, -0.309271, -0.089276, -0.149263, 0.114835, 0.018675, 0.079347, -0.20856, 0.067654, -0.131347, -0.322543, 0.045261, 0.143436, -0.125225, 0.148875, 0.154607, 0.041294, -0.159301, 0.15478, -0.021879, 0.001445, -0.024936, 0.024835, -0.111684, -0.137488, -0.123259, -0.228908, -0.242297, -0.082745, -0.056017, -0.073122, -0.068802, -0.361254, -0.591913, -0.072975, -0.123284, -0.126377, 0.220913, -0.024049, 0.11896, 0.070383, 0.102074, -0.191783, 0.235818, -0.157573, -0.035329, 0.073948, -0.02445, 0.005631, -0.055359, 0.072777, -0.098695, -0.104711, -0.08007, -0.082065, -0.21989, 0.079503, -0.15992, 0.191658, -0.174898, 0.150091, 0.118338, 0.13148, -0.025532, -0.290954, 0.165726, 0.158797, -0.147451, -0.004139, -0.006361, 0.128437, 0.099875, 0.320708, 0.18692, 0.001871, -0.219874, 0.074318, -0.264861, 0.126044, 0.229627, 0.086541, 0.117619, 0.004881, 0.222625, -0.016144, -0.265002, -0.121014, -0.414874, -0.022332, 0.052456, -0.023624, -0.136203, 0.144748, -0.050535, 0.172226, -0.123515, 0.344802, 0.170646, 0.468805, 0.223122, -0.132796, 0.234997, 0.023472, 0.038146, 0.054928, -0.053107, -0.014341, -0.170805, 0.074801, -0.054269, -0.07046, -0.019534, -0.141565, -0.263675, 0.016207, 0.002589, -0.022821, -0.154554, -0.032517, -0.011118, -0.10713, -0.255534, 0.025022, 0.055699, -0.010757, -0.056232, -0.036809, 0.028378, 0.064984, 0.206157, 0.083499, 0.035852, -0.021287, 0.048041, 0.011066, 0.041466, -0.123854, -0.070195, -0.092577, 0.155968, -0.186315, 0.062755, 0.237367, 0.06081, -0.083821, 0.039739, 0.207868, 0.103782, 0.019628, 0.000873, 0.154388, 0.061421, 0.102653, 0.038993, 0.050427, 0.239128, 0.235831, -0.022519, 0.193663, 0.331, 0.285433, 0.085774, 0.175118, 0.206656, -0.141362, -0.111341, 0.039201, -0.249405, 0.082767, 0.318832, -0.122428, -0.059205, -0.016198, -0.040216, 0.010609, -0.080415, -0.17035, 0.029216, -0.092026, -0.098898, -0.002919, 0.063221, -0.382515, -0.065757, -0.03037, -0.18054, 0.00014, 0.11978, -0.284666, 0.037879, 0.182525, -0.012393, -0.066577, -0.036828, -0.132621, 0.136575, 0.08779, -0.011004, 0.05344, -0.022078, 0.296235, 0.046414, -0.090147, -0.041142, -0.055171, -0.085787, 0.003914, 0.084137, 0.069639, 0.163859, -0.065875, -0.149937, 0.226646, 0.033612, -0.138259, 0.08197, -0.00922, -0.07651, 0.001534, -0.080338, -0.036985, -0.027883, 0.144983, -0.117893, -0.034806, -0.163823, 0.001931, 0.212411, 0.222167, 0.201184, 0.078625, 0.096305, 0.169773, 0.081663, 0.069269, -0.056899, 0.083391, -0.113871, 0.118757, -0.597099, 0.067325, 0.239533, -0.21571, -0.04534, 0.028172, 0.245576, -0.082665, -0.309395, 0.211668, -0.034465, -0.001681, 0.122197, 0.047708, 0.001739, 0.166081, 0.148415, 0.161693, 0.248167, 0.16864, 0.125238, 0.10259, 0.184127, -0.122687, 0.048278, 0.074956, 0.115034, -0.121243, -0.00492, -0.00846, 0.019091, -0.003886, -0.011153, 0.12126, 0.008835, -0.197215, 0.140594, -0.123899, 0.058993, 0.098494, 0.109394, 0.054633, -0.185149, -0.139814, 0.096268, -0.158288, -0.089016, -0.029404, -0.065802, 0.100774, 0.097394, -0.099063, -0.203314, -0.138806, -0.058673, -0.158047, -0.132666, -0.03409, -0.09305, -0.0463, 0.017907, -0.049485, -0.181623, 0.035343, -0.171695, -0.051789, 0.029091, 0.117973, -0.011924, -0.217224, -0.130091, 0.017698, -0.123809, -0.24792, -0.068101, -0.051986, -0.126288, -0.177207, 0.230761, 0.24929, 0.335231, 0.099094, 0.543184, 0.415038, 0.049433, 0.404011, 0.216387, -0.369587, -0.10483, 0.025639, 0.098187, 0.026878, -0.191146, 0.163232, 0.265111, -0.084305, -0.244201, 0.063595, 0.163759, 0.213321, -0.192475, 0.127749, 0.096436, 0.080374, -0.242532, 0.186753, -0.017216, 0.056123, -0.061176, 0.075656, 0.145006, -0.023601, -0.009694, 0.103449, -0.030846, -0.030666, -0.169723, 0.025587, 0.050858, 0.029632, 0.035645, -0.051178, 0.099271, -0.024645, -0.161801, -0.053669, 0.004502, 0.082073, -0.02775, 0.123682, 0.110405, 0.195281, 0.032263, 0.10456, -0.185891, -0.081224, -0.112815, 0.362162, -0.013548, -0.229608, -0.031722, -0.070713, 0.232101, -0.094753, 0.081727, -0.269564, 0.099016, 0.010349, -0.124298, -0.272268, 0.004925, 0.00952, -0.15463, -0.202837, -0.029056, 0.141895, -0.089574, -0.258355, 0.027024, -0.059614, 0.008493, -0.053311, -0.082285, 0.12235, 0.069904, 0.021751, 0.009059, 0.147236, 0.081302, 0.079394, 0.028156, 0.111789, 0.102224, -0.085197, -0.194247, 0.005932, -0.212593, -0.11525, -0.036864, -0.137661, 0.044999, -0.538294, -0.089953, 0.067336, -0.613044, 0.133853, 0.250153, 0.228146, 0.269518, -0.078317, 0.136667, -0.116116, 0.177785, 0.037425, -0.137365, -0.154096, 0.114893, -0.109111, -0.038967, 0.039234, -0.107934, 0.34818, 0.208173, 0.080969, 0.03121, 0.151945, -0.039897, -0.104298, -0.229313, -0.000166, -0.119612, 0.174422, 0.179736, 0.018183, -0.015694, 0.062093, -0.023883, -0.091878, 0.070137, 0.076219, 0.107724, 0.088686, -0.024288, -0.061602, 0.021004, 0.142179, -0.345734, -0.050938, 0.507503, 0.016624, 0.107412, -0.027187, -0.170889, 0.045133, 0.003764, 0.040215, -0.032532, 0.015449, -0.132652, -0.150032, -0.030076, -0.080577, 0.010053, -0.159769, -0.173146, -0.3457, -0.174502, -0.194342, -0.257234, -0.014146, 0.093359, 0.022665, 0.070659, -0.024565, 0.103852, 0.123028, 0.078279, 0.091399, -0.195075, -0.338066, -0.211741, -0.189166, -0.147642, -0.172863, 0.040316, 0.032039, 0.127343, 0.04455, -0.13817, -0.148847, -0.087494, -0.051208, 0.056068, -0.071199, 0.285214, 0.080264, -0.001981, 0.007073, -0.055992, 0.181496, -0.220778, 0.043495, -0.183001, -0.150797, 0.10934, -0.131325, -0.04484, 0.079265, -0.056801, 0.051442, -0.036139, -0.05713, -0.098865, -0.029878, -0.003804, -0.186327, 0.016418, 0.071806, -0.020097, 0.134327, -0.013984, 0.089495, 0.216177, 0.199692, 0.163476, 0.250584, 0.086335, 0.017228, 0.10405, -0.214067, -0.29573, -0.218977, 0.020936, -0.110701, 0.021233, 0.112759, -0.093477, 0.060878, 0.078461, 0.098037, 0.088908, -0.044673, 0.023213, -0.067131, 0.079026, -0.141961, -0.09021, -0.283623, -0.574214, -0.296576, -0.053257, 0.128667, 0.159285, 0.142954, -0.019879, 0.122894, 0.0624, -0.216069, -0.197616, 0.012153, -0.127639, 0.066542, -0.090741, -0.053808, -0.164684, -0.117685, 0.120367, -0.076719, 0.328289, -0.005682, -0.127002, 0.035303, -0.068374, -0.078905, -0.17381, -0.083531, -0.092798, 0.151601, 0.002493, 0.041615, -0.046925, -0.031027, -0.111433, -0.136646, -0.137539, -0.034832, -0.143588, -0.083234, 0.160187, -0.070291, 0.048108, 0.270247, -0.06834, -0.136484, -0.105123, 0.085486, 0.045495, -0.043074, -0.039284, -0.180518, 0.027989, -0.127555, -0.022083, 0.086162, -0.02625, 0.010949, 0.135444, -0.027936, 0.176057, 0.356756, -0.322377, -0.269519, -0.165914, 0.228408, -0.146549, -0.11103, -0.052168, 0.062773, -0.119491, 0.094562, 0.381284, 0.202239, 0.103713, -0.052784, -0.050904, 0.261912, -0.03997, -0.083577, 0.159138, 0.186511, -0.013679, -0.48496, -0.401923, -0.275307, -0.113003, -0.199101, -0.10488, 0.247144, 0.106138, 0.171573, 0.004043, -0.117487, 0.014948, 0.056794, 0.106771, 0.158282, 0.024432, 0.080685, 0.172833, -0.003588, -0.062047, 0.212863, 0.120744, 0.20098, -0.004821, -0.292531, -0.200524, 0.040886, 0.074105, -0.061014, -0.145022, -0.018048, -0.041439, -0.060643, -0.050082, 0.078669, 0.029371, -0.013921, 0.018695, 0.012952, 0.072316, -0.003829, 0.130811, -0.038587, 0.209842, 0.084618, 0.054459, 0.176351, 0.083612, -0.036067, -0.020876, -0.022089, 0.001026, 0.051314, -0.099442, -0.205903, -0.084624, 0.106021, -0.224065, 0.08035, 0.174408, -0.399836, -0.15599, 0.203805, -0.147823, -0.043902, 0.160507, -0.139615, -0.070922, 0.106708, -0.01919, -0.045787, 0.086144, -0.020244, -0.021549, 0.051665, -0.093204, -0.400865, -0.242419, -0.014733, -0.325622, -0.208926, -0.066416, -0.048999, -1e-06, -0.130165, 0.104376, 0.080699, -0.27169, -0.025017, 0.153957, -0.062872, -0.094385, -0.102144, -0.033619, 0.008035, -0.041719, -0.039798, -0.01578, -0.045759, -0.005669, 0.090254, 0.056628, -0.119113, -0.212779, -0.10983, 0.104181, -0.114576, 0.087661, -0.073542, -0.013622, 0.241945, -0.030468, -0.052488, 0.113397, -0.224544, -0.171518, 0.214882, -0.133406, -0.108774, -0.093156, -0.010755, 0.068922, 0.061637, 0.041415, 0.056289, 0.044357, 0.105638, 0.080438, 0.031183, 0.117766, 0.004256, -0.14981, 0.062923, -0.093538, -0.141443, 0.007593, 0.089547, 0.055983, 0.208194, 0.141112, -0.102864, 0.195914, 0.034108, -0.081418, 0.081115, 0.067421, -0.109024, 0.092546, 0.099126, -0.097462, -0.006372, 0.023238, -0.158707, -0.113507, 0.05102, 0.002004, -0.148041, -0.033339, -0.038022, -0.143193, -0.027691, -0.076584, -0.058936, 0.032982, 0.14872, -0.198035, 0.044481, -0.046172, -0.155537, -0.019433, 0.064305, -0.02947, -0.027826, 0.032227, 0.260364, 0.059431, 0.048343, 0.280543, 0.084924, 0.182018, 0.115251, 0.09491, 0.016646, 0.268335, 0.125856, 0.216182, 0.202762, 0.295157, -0.090424, 0.180003, 0.231042, 0.038895, 0.050285, 0.114842, 0.104179, -0.093855, -0.181984, -0.218693, -0.036269, 0.114156, 0.089103, -0.026657, -0.038957, 0.051174, -0.051228, -0.005795, -0.006976, -0.042054, 0.194473, 0.248957, 0.106763, -0.386772, -0.012655, -0.039383, -0.048245, 0.066295, 0.169748, 0.148762, 0.184622, 0.151747, -0.014285, 0.011443, 0.01532, 0.059561, -0.215546, 0.038754, -0.103732, 0.132208, -0.043088, 0.044446, 0.148122, -0.004605, 0.284384, 0.134138, -0.00084, 0.026973, 0.051362, 0.06802, -0.026694, -0.102277, 0.023112, 0.015127, 0.105921, -0.479901, -0.122427, -0.213801, -0.302762, -0.365261, -0.219581, -0.214602, -0.072103, 0.054173, 0.110279, -0.219916, -0.214995, -0.008147, -0.145199, -0.144731, -0.052079, -0.120496, 0.411755, 0.04158, -0.078635, -0.085057, 0.043473, 0.022386, 0.01628, -0.037618, -0.052458, 0.105371, 0.129713, 0.036928, 0.010526, -0.014292, 0.169714, -0.0709, -0.118589, 0.14311, 0.085432, -0.036034, -0.010956, -0.102586, 0.109285, 0.069364, 0.02192, 0.09724, 0.240599, -0.072611, 0.044726, -0.222544, 0.026467, -0.142918, -0.169722, 0.166345, -0.037556, -0.006213, -0.081229, -0.03045, -0.249204, 0.01041, -0.423552, -0.256798, -0.334993, -0.229767, -0.330334, -0.088824, 0.001106, 0.026516, -0.002575, 0.061302, 0.043386, 0.065129, 0.184091, 0.126544, 0.028062, 0.114991, 0.105306, 0.021351, -0.002171, 0.115206, -0.117849, 0.04362, -0.082464, -0.130717, 0.156018, 0.012717, 0.047613, 0.231498, 0.162644, 0.288945, 0.146137, 0.126282, 0.088992, -0.110844, -0.272851, 0.173633, 0.141277, -0.049414, 0.123268, -0.113062, -0.06905, -0.308702, -0.065364, -0.024455, -0.015019, -0.031396, -0.257641, -0.32798, -0.304815, -0.506494, 0.009616, -0.103637, -0.066456, -0.002998, 0.068705, 0.054754, -0.023127, -0.039825, -0.128442, -0.088767, -0.257477, -0.417026, -0.382372, -0.130149, -0.013853, -0.032588, -0.078521, -0.031738, -0.138647, 0.013943, -0.087536, 0.103879, -0.065936, -0.286432, -0.158932, -0.057692, 0.041238, 0.161917, -0.184728, -0.115439, 0.028344, 0.012969, 0.049366, -0.046409, -0.01608, -0.111054, -0.096875, 0.135169, 0.204782, 0.214107, 0.110707, -0.083505, -0.010068, -0.046786, -0.05088, 0.099264, -0.015121, 0.057594, -0.003944, 0.086594, -0.029589, -0.01047, 0.112563, -0.077354, 0.012057, -0.077628, -0.207655, -0.255465, -0.0967, 0.068392, 0.112321, -0.174597, -0.146057, -0.063798, -0.302873, -0.274403, -0.201168, -0.006158, -0.219178, 0.162378, 0.002723, -0.021332, -0.001438, -0.064524, -0.175473, -0.030069, -0.004844, -0.036119, 0.056186, 0.123323, 0.167877, 0.261996, -0.018618, -0.094188, 0.054907, -0.035244, 0.007367, 0.200991, 0.133254, -0.041837, 0.096807, 0.047854, 0.116764, 0.289193, 0.083612, -0.104036, 0.030969, -0.131979, -0.254406, -0.171454, -0.12121, -0.411272, -0.153371, 0.004688, 0.027392, 0.0716, 0.081278, 0.114495, 0.027549, 0.055809, 0.093529, 0.086261, 0.133315, 0.184321, 0.042971, 0.103411, 0.173454, 0.13412, 0.281642, -0.000694, -0.054011, 0.430402, -0.093408, -0.066509, -0.042873, 0.00646, -0.221058, 0.113797, -0.061063, -0.026252, -0.032528, -0.052796, -0.130989, -0.137993, -0.003399, -0.077644, -0.298866, 0.011138, 0.230933, -0.039096, 0.14587, -0.098542, 0.113305, -0.022042, 0.154932, -0.045209, -0.082251, -0.057849, -0.04017, -0.316996, -0.153451, -0.331041, -0.309174, -0.014921, -0.001893, -0.277214, -0.184691, 0.210891, -0.397622, -0.072766, 0.098634, 0.190282, -0.043508, 0.167038, 0.158603, 0.027705, 0.306296, 0.174763, -0.173386, 0.128319, 0.225844, -0.115919, 0.018278, 0.177775, -0.033431, 0.331508, -0.051957, -0.173168, -0.157932, -0.287203, -0.250216, -0.093688, -0.00114, 0.097699, -0.040861, -0.180416, 0.214097, 0.225617, -0.054694, 0.105178, -0.076476, 0.050037, 0.066658, -0.026699, 0.077488, 0.069543, 0.032177, -0.159131, -0.078009, -0.256074, 0.130487, 0.193033, 0.034096, 0.080208, 0.020207, 0.006033, -0.108386, 0.056095, 0.300817, -0.030763, -0.208664, 0.356817, -0.168265, -0.164365, -0.133578, 0.191979, 0.140154, 0.157526, 0.084775, -0.004695, 0.480442, 0.043363, -0.065068, -0.060516, 0.019521, 0.19831, 0.084279, 0.004195, 0.021984, -0.000554, -0.035029, -0.052788, -0.077563, 0.003234, -0.004854, -0.100303, 0.016368, 0.120336, -0.331208, -0.079203, -0.015887, 0.1409, 0.069182, 0.167021, -0.081785, 0.098938, 0.242517, 0.00333, -0.084792, 0.074692, 0.022909, -0.031655, -0.06569, 0.141178, -0.066962, -0.124428, -0.003229, -0.327556, -0.212024, -0.269361, -0.137044, -0.137726, 0.078711, 0.13123, 0.078485, -0.095973, -0.209175, -0.346102, -0.065538, 0.029764, 0.009959, 0.126131, 0.170934, 0.225842, -0.706075, -0.855964, -0.205915, 0.209577, 0.13868, -0.116922, -0.196434, -0.334991, -0.109848, 0.26866, -0.034128, -0.049847, 0.243463, 0.237511, 0.267121, 0.038367, 0.061296, -0.053597, -0.058932, 0.07678, 0.110163, -0.12787, -0.130459, 0.01459, -0.140246, -0.232752, -0.071713, 0.009024, 0.152338, 0.053572, -0.236442, -0.07725, -0.076146, 0.106813, 0.19767, 0.157631, -0.236699, -0.161859, -0.01835, -0.102763, -0.1966, -0.317978, 0.062363, 0.219439, 0.122895, -0.220587, -0.044131, 0.103867, -0.060673, -0.376257, -0.321563, 0.115682, 0.092272, -0.051902, 0.101303, 0.161936, -0.006749, 0.074155, -0.199182, 0.010073, 0.030346, 0.040448, 0.115744, 0.049713, 0.095135, 0.014937, 0.040832, 0.024516, 0.147297, -0.009536, -0.37385, -0.031246, 0.112572, 0.118712, 0.004351, 0.278264, 0.120539, 0.041694, -0.057776, 0.050768, 0.269522, -0.179496, -0.203757, -0.222188, 0.2622, -0.04144, 0.014933, 0.135391, 0.055092, 0.059556, -0.040408, -0.070775, -0.002975, 0.414138, 0.020103, 0.127856, 0.262602, 0.336409, 0.22155, -0.107333, -0.217058, -0.15332, -0.262787, -0.613213, -0.481174, -0.014043, -0.152889, 0.093531, 0.118173, -0.346657, -0.086129, -0.105021, -0.018556, -0.037764, 0.002037, -0.142527, -0.132142, 0.029303, -0.159471, 0.113273, 0.137475, 0.018223, -0.126624, 0.210068, 0.098711, 0.144164, -0.114558, -0.157009, -0.260817, 0.260549, -0.158311, -0.020513, -0.116857, -0.363946, -0.327568, 0.165783, -0.119738, -0.24724, 0.034568, -0.188094, -0.065281, 0.039497, -0.079419, -0.101167, 0.093651, -0.012673, -0.054951, -0.000751, -0.022848, -0.188804, -0.166423, 0.023363, 0.13588, 0.137742, 0.055104, 0.068826, 0.175183, -0.176566, 0.030478, 0.111612, -0.000649, -0.091615, 0.107629, 0.120554, -0.23497, 0.071827, 0.19196, 0.2057, -0.314119, -0.380547, 0.007788, 0.163702, 0.060423, -0.062242, 0.240381, 0.015353, -0.001182, 0.322514, 0.180575, -0.148924, 0.353652, 0.010878, -0.452089, 0.070751, -0.219537, -0.189204, 0.088841, -0.19379, -0.283026, 0.075163, -0.110103, -0.323449, 0.080453, 0.026785, -0.143525, -0.045741, -0.030481, -0.05838, 0.068078, 0.056079, 0.138398, 0.011622, 0.034301, 0.013427, 0.304866, 0.183993, -0.245199, 0.254021, 0.09006, -0.199859, 0.119079, -0.035623, -0.097794, -0.149172, -0.211901, 0.249262, -0.04368, -0.042427, 0.085734, -0.115768, -0.104056, 0.123042, -0.265909, -0.3559, -0.187809, 0.017939, 0.059783, -0.104398, 0.105023, 0.122811, -0.039751, -0.226288, -0.142322, 0.299777, -0.556715, -0.335317, 0.367809, -0.203954, 0.0321, 0.268552, 0.203192, 0.074909, 0.10916, -0.051553, -0.020457, 0.093846, 0.152966, 0.121826, 0.144696, 0.156665, 0.058884, -0.085738, 0.249956, 0.07851, -0.11491, 0.021966, 0.130342, -0.006171, -0.063102, -0.12289, -0.202641, 0.152133, 0.092757, -0.089625, 0.114216, 0.007715, 0.035681, -0.109839, -0.030471, 0.219207, -0.183075, -0.059904, 0.200488, -0.157437, 0.136254, 0.247261, 0.082515, 0.077714, 0.075123, 0.071751, -0.149164, -0.045056, -0.014973, -0.019014, 0.033108, -0.1582, 0.13344, 0.034388, -0.185685, -0.042218, 0.240083, -0.146249, -0.066971, 0.110867, -0.197409, -0.174267, -0.051616, 0.158934, -0.141901, -0.213914, 0.030792, -0.011124, 0.014196, -0.01368, 0.131441, -0.06854, 0.221444, 0.195294, 0.029841, 0.259682, 0.381263, 0.187447, 0.107733, 0.06201, -0.105026, 0.071578, -0.036124, -0.148281, -0.168928, -0.047982, -0.105323, 0.03836, 0.034918, 0.097757, -0.089347, 0.251074, 0.194943, 0.03939, -0.071292, -0.135708, 0.279582, -0.137195, 0.023731, -0.077465, -0.100212, 0.017922, -0.003248, 0.071724, 0.124078, -0.111092, 0.010367, -0.106655, -0.025005, -0.033039, 0.058111, 0.028634, -0.080134, -0.28204, -0.15089, 0.028794, -0.006484, -0.168729, -0.001215, -0.061081, 0.207177, 0.169998, -0.10692, -0.028698, 0.163551, -0.143256, 0.064382, 0.012957, -0.025365, 0.067996, 0.149114, -0.027385, 0.266017, -0.017593, 0.079344, 0.294785, 0.07668, 0.048314, -0.078643, 0.036733, -0.019067, -0.097249, -0.157723, -0.11576, -0.174556, -0.155964, -0.097504, -0.035102, -0.046929, 0.192589, -0.169, -0.205453, -0.306682, -0.255607, -0.463596, -0.030474, -0.16509, -0.235697, 0.190915, 0.0015, 0.163375, 0.004667, -0.117228, 0.224051, 0.358526, 0.287169, 0.029836, 0.015108, 0.106771, 0.1046, 0.002093, 0.016217, -0.036614, -0.199267, 0.035594, -0.042307, -0.088184, -0.016043, -0.222185, -0.039937, -0.084489, -0.241956, 0.090566, -0.121181, -0.089222, 0.375332, -0.219014, -0.25861, 0.017036, -0.041148, 0.007888, 0.113753, -0.081432, 0.111576, 0.054672, -0.108501, -0.090696, -0.008282, 0.009889, -0.156167, 0.000315, 0.03427, 0.265218, 0.047644, -0.053933, 0.051179, 0.176473, -0.129845, 0.111641, 0.079494, 0.274398, 0.166407, 0.175566, -0.100378, -0.11178, -0.077422, 0.104417, -0.015782, 0.074301, 0.224441, 0.101662, -0.019322, -0.05893, 0.043801, -0.052416, 0.238135, -0.148572, -0.073245, -0.004112, -0.021773, -0.158469, -0.153102, 0.001749, -0.057666, -0.165064, 0.144739, 0.321367, -0.029291, 0.203609, -0.122789, -0.074092, -0.262881, -0.009761, -0.143344, -0.058293, 0.24141, -0.035443, -0.156527, 0.00171, -0.089792, -0.092344, -0.167101, -0.138472, -0.213377, -0.165677, -0.138207, -0.25053, 0.196558, 0.191733, 0.040805, 0.156752, -0.219833, -0.091603, -0.006988, 0.199945, -0.008288, -0.237415, 0.066896, -0.066291, 0.004182, 0.001912, 0.067648, 0.046327, 0.167933, 0.095325, 0.189908, 0.140143, 0.212941, -0.036674, 0.115778, 0.028758, -0.144237, -0.107059, 0.152301, -0.062627, 0.200475, 0.052721, 0.154081, 0.216964, 0.160113, 0.040262, 0.1444, 0.029415, -0.166225, -0.085698, -0.125691, -0.055583, -0.049486, -0.216819, -0.352548, -0.260111, -0.239139, -0.051154, 0.062907, 0.181174, -0.028439, -0.328757, -0.711527, -0.360893, 0.089928, -0.424379, -0.143169, 0.372818, -0.148161, 0.176971, -0.051537, 0.143286, 0.103247, 0.076395, -0.084444, 0.14798, 0.058167, -0.025032, -0.026628, 0.017824, -0.027864, -0.078371, -0.091437, -0.152865, -0.122009, 0.075302, -0.155644, -0.103519, 0.142853, -0.04245, -0.001818, 0.041149, -0.019282, -0.079614, -0.029529, -0.182036, -0.190712, -0.1052, -0.025156, -0.010043, 0.016, -0.070931, -0.074084, 0.175753, 0.021921, 0.122716, -0.007911, -0.11032, 0.240842, 0.240515, -0.052081, -0.199713, -0.263768, -0.17909, 0.362488, -0.302864, -0.034662, 0.38437, -0.299187, -0.029037, 0.466151, -0.214242, 0.220432, 0.245422, -0.147085, -0.027946, 0.219708, -0.251193, -0.043477, 0.37111, 0.014074, -0.058262, -0.071302, -0.149897, -0.035845, 0.123618, 0.055437, 0.163116, 0.103387, 0.020141, -0.243034, -0.186113, 0.091699, -0.171972, -0.40271, 0.057817, -0.115952, -0.272663, -0.118758, 0.14071, 0.103793, -0.165952, -0.046814, 0.262378, -0.161947, 0.074925, 0.128554, -0.268508, -0.08518, 0.141573, -0.140327, 0.059091, 0.135977, -0.114547, -0.066508, 0.034445, 0.260743, -0.072523, -0.167316, 0.220839, -0.136339, -0.189211, 0.172684, 0.010345, -0.182004, -0.242847, -0.02529, 0.216911, -0.212188, -0.080568, 0.146161, -0.377778, -0.136642, 0.311377, -0.0712, -0.086377, -0.01184, 0.049613, -0.159103, -0.007869, 0.159267, -0.075152, 0.023127, 0.253409, 0.219646, 0.057045, 0.315805, 0.008571, 0.037494, 0.082904, 0.115631, 0.173577, -0.00191, -0.379449, -0.108606, 0.213159, -0.070673, -0.309595, 0.000244, 0.099018, -0.164997, 0.249268, 0.132463, 0.071369, 0.33169, -0.007813, -0.21339, -0.022911, 0.060109, 0.188454, -0.196855, -0.186358, 0.075424, 0.069003, -0.181271, -0.160317, -0.00041, -0.226467, -0.084111, 0.055638, 0.041809, 0.037711, 0.219358, 0.04554, -0.162457, 0.030976, 0.106799, 0.076753, 0.050467, 0.073128, 0.211174, -0.129971, -0.067739, 0.115275, 0.109235, 0.14162, 0.168241, -0.003249, 0.203831, 0.032532, -0.130813, -0.096764, -0.015983, -0.022302, -0.272559, -0.158227, -0.061345, -0.251911, -0.394208, 0.20338, -0.232469, -0.409576, 0.203732, -0.121337, -0.095602, -0.081751, -0.139134, 0.012805, 0.041344, 0.006786, -0.428187, -0.170573, -0.074062, -0.11087, 0.09023, 0.16968, 0.059879, 0.034903, 0.055432, -0.148905, 0.195857, 0.112528, 0.253873, -0.114093, 0.083503, 0.239906, -0.125078, 0.027316, 0.145551, -0.195277, -0.068623, 0.306043, 0.219218, 0.087874, 0.028336, 0.222005, -0.043764, -0.081518, 0.069073, 0.076794, -0.066431, 0.036098, 0.007324, -0.235115, 0.003942, -0.19868, -0.20484, 0.141609, -0.158597, -0.308262, 0.10707, 0.097593, 0.208761, 0.068643, 0.095887, 0.100074, 0.092979, 0.057237, 0.204608, -0.112985, -0.028146, -0.210388, -0.183585, -0.193295, -0.357566, 0.128645, 0.211037, -0.116627, 0.016893, -0.035393, -0.146524, 0.014955, 0.009576, -0.052329, 0.077074, -0.034603, -0.224631, -0.236118, -0.045272, -0.001363, -0.11009, -0.245809, -0.18757, -0.103253, -0.090619, -0.20856, 0.128778, -0.002351, -0.202766, 0.122579, -0.028992, -0.032873, 0.132475, -0.069234, 0.058539, -0.393492, 0.065853, 0.365585, -0.365595, 0.017624, 0.048874, -0.101985, 0.195766, 0.25969, -0.073675, -0.08615, -0.199253, -0.090052, 0.018833, -0.133438, 0.00835, 0.078582, -0.09647, 0.195677, -0.075414, 0.003435, 0.064662, 0.036935, -0.04481, 0.048523, 0.07533, 0.056399, 0.005842, 0.223533, 0.23732, 0.082737, 0.014444, -0.01189, -0.050883, -0.161596, -0.126746, -0.034121, -0.374637, -0.037945, -0.403319, 0.004878, -0.045993, 0.131939, 0.38678, 0.154095, 0.066689, -0.070965, -0.152533, -0.247494, -0.008095, -0.023599, -0.164323, 0.008312, -0.096017, -0.26476, 0.000619, -0.033751, -0.149302, 0.022317, 0.019618, 0.170226, 0.033555, -0.068116, 0.118051, -0.145522, -0.207225, 0.010214, 0.180536, -0.059693, 0.100511, 0.236453, 0.163394, -0.326696, -0.168962, -0.203861, -0.173782, -0.060229, -0.120362, 0.152785, 0.223569, 0.283784, -0.128198, -0.025383, -0.027773, -0.080954, 0.137295, 0.180639, 0.101442, 0.136982, 0.116136, 0.018526, 0.026871, 0.013716, 0.038187, -0.041887, 0.048517, 0.248988, 0.276845, 0.144913, 0.070957, -0.138407, -0.50084, -0.654105, 0.173055, 0.128836, 0.032122, 0.251601, 0.138087, 0.111856, 0.04104, 0.04358, 0.02604, 0.03158, -0.162944, 0.026386, -0.103009, -0.050313, -0.007156, 0.054604, 0.052958, -0.030378, 0.099458, -0.002937, 0.027663, 0.159091, 0.106144, 0.138607, -0.103322, 0.031691, 0.170891, -0.103031, 0.160701, 0.030973, -0.009944, 0.065664, -0.139015, -0.241683, -0.264435, -0.009007, -0.514859, -0.440672, 0.110692, -0.108302, -0.087866, 0.087329, -0.229502, -0.3326, -0.471563, -0.583299, -0.528956, -0.205736, 0.016889, -0.018545, -0.017397, -0.005755, -0.005268, -0.012642, -0.119049, -0.068117, -0.018626, -0.054983, -0.064364, -0.129006, 0.032116, -0.027038, -0.191652, -0.331403, -0.028155, -0.259549, -0.171724, -0.274698, -0.146719, -0.014746, -0.065771, -0.400975, -0.5316, -0.447949, -0.183128, -0.178629, -0.29637, 0.043194, 0.03982, 0.208513, 0.102969, 0.055736, 0.066102, 0.071905, -0.113097, 0.114134, 0.017426, 0.02217, 0.060209, 0.074596, -0.001796, 0.092647, 0.247583, 0.076357, 0.106791, 0.193348, 0.018773, 0.272028, 0.061951, 0.133365, 0.143851, 0.015667, -0.231063, -0.165951, 0.093791, -0.109123, -0.111247, 0.068225, -0.06944, 0.093152, -0.152389, -0.088991, -0.12392, -0.001958, -0.077444, -0.06968, -0.196089, -0.275209, -0.065073, -0.217326, -0.279438, -0.247315, 0.050284, -0.027897, 0.126975, 0.227738, 0.190649, 0.143828, 0.093558, 0.203678, 0.256436, -0.097193, -0.16881, -0.167227, 0.14696, -0.021668, 0.008962, -0.014159, 0.020274, 0.153136, 0.145415, 0.202319, 0.176672, 0.085981, -0.15906, -0.084058, 0.073588, -0.006912, -0.031546, 0.004222, 0.154093, 0.177214, 0.045913, 0.024807, 0.099511, 0.106284, 0.022981, 0.047275, 0.110213, -0.172217, -0.218166, -0.000731, -0.155611, -0.209043, -0.071121, 0.088, 0.081963, -0.197622, -0.240651, -0.265438, -0.279835, -0.280551, -0.352464, 0.001444, 0.221445, 0.154166, -0.08723, 0.025918, -0.137142, -0.171955, 0.071634, 0.11677, 0.028075, 0.0846, 0.214074, 0.195986, 0.187772, 0.244094, -0.02226, -0.048886, 0.133575, 0.205481, 0.01333, -0.194555, 0.050735, -0.050142, -0.069721, -0.047174, -0.048248, 0.00805, -0.080131, 0.046263, 0.244385, -0.249498, -0.153459, 0.106682, -0.077915, -0.294821, -0.022105, 0.196082, -0.018099, 0.077728, -0.187475, -0.194296, -0.017377, 0.075548, -0.043063, 0.208495, 0.12732, 0.060546, 0.235802, 0.08317, -0.061739, 0.129826, -0.123017, 0.097572, 0.063188, 0.013523, 0.136342, -0.021037, -0.287699, -0.122881, 0.069646, -0.270518, -0.2723, 0.031294, 0.013613, 0.132163, -0.069736, -0.149998, -0.17823, 0.277178, -0.004873, 0.201228, 0.132675, 0.263384, -0.036942, -0.077195, -0.096134, 0.064765, 0.097497, 0.001954, 0.117449, 0.278734, 0.093111, 0.278415, 0.148176, -0.218364, -0.074932, 0.082603, -0.217153, -0.293931, 0.031465, 0.20057, 0.080803, 0.241228, -0.098773, -0.126843, 0.233842, -0.108683, -0.067528, 0.082349, 0.174115, 0.061412, -0.030722, 0.058741, -0.16634, -0.028389, -0.359296, -0.101911, 0.000309, 0.066184, 0.435389, 0.162367, 0.142343, -0.124089, 0.146304, -0.000174, -0.296039, -0.034413, 0.067589, -0.063075, -0.064142, -0.122652, 0.059278, 0.083119, -0.091725, 0.192158, -0.127171, 0.13143, 0.069963, -0.061256, 0.005993, 0.029436, -0.045727, -0.040076, -0.010538, -0.121745, -0.106772, 0.071577, -0.227737, -0.016602, 0.180201, 0.089683, 0.056476, 0.055563, -0.04169, 0.116909, 0.005216, -0.139979, 0.008109, -0.054657, 0.071319, 0.158457, -0.079966, 0.28379, 0.012089, -0.120305, 0.02594, -0.041387, 0.115417, -0.078629, 0.026957, -0.074797, -0.000146, 0.119104, 0.049698, 0.167716, -0.020681, 0.094333, -0.013067, -0.152106, -0.106491, -0.144108, -0.189203, -0.067123, -0.177456, -0.111407, -0.03218, -0.004842, 0.030832, -0.093685, -0.047392, -0.106831, -0.081159, -0.150988, 0.250476, 0.102016, 0.089629, 0.009157, 0.000472, 0.07409, 0.052722, -0.072723, 0.127805, 0.12779, 0.181492, 0.165787, 0.038722, 0.049867, 0.142639, 0.124434, 0.091798, -0.216173, -0.133597, -0.231785, -0.256612, -0.101964, -0.262943, -0.23296, -0.203559, -0.298566, -0.203064, -0.002144, 0.072553, 0.238372, -0.194334, -0.16436, 0.243751, -0.186176, -0.269507, -0.036047, -0.09907, -0.069399, 0.088714, -0.142514, -0.211987, 0.141427, -0.14983, -0.220444, -0.142999, 0.008556, -0.14159, 0.014259, -0.014974, 0.042902, -0.03821, -0.18181, -0.172885, -0.029646, 0.22149, 0.153105, 0.05549, 0.127406, -0.168901, -0.128123, -0.016565, -0.214347, -0.055088, -0.050079, -0.061685, -0.111962, -0.069468, -0.31079, -0.307813, 0.197606, -0.180314, -0.253109, 0.008893, -0.113808, 0.038938, 0.027036, -0.125487, 0.049828, 0.291567, -0.022979, -0.051729, -0.111208, 0.019874, 0.014174, -0.046801, -0.134163, 0.009765, -0.114703, -0.269103, -0.228761, 0.126881, 0.210789, 0.201899, 0.136288, -0.009231, 0.126329, 0.040203, 0.11872, 0.150382, 0.06426, 0.234022, 0.072396, -0.150434, 0.180229, -0.040351, -0.117121, 0.102081, 0.173114, 0.159736, 0.019342, 0.108136, -0.031564, -0.013143, -0.02271, -0.050266, 0.215248, -0.253665, -0.005658, 0.058173, 0.051214, -0.15612, -0.144459, 0.100746, -0.08139, -0.079986, -0.113535, 0.14801, 0.153449, -0.106501, 0.121783, 0.138123, -0.144428, 0.094429, 0.047931, -0.081094, -0.158804, -0.276535, -0.065732, -0.483388, -0.277119, -0.133938, 0.020432, -0.035829, 0.103496, -0.110631, -0.138179, 0.225133, -0.160376, -0.381766, 0.154268, -0.064104, 0.113129, 0.257731, 0.188846, -0.134677, -0.057069, 0.115879, 0.0438, -0.00734, 0.353188, 0.226396, 0.041476, -0.26832, -0.312345, 0.047012, -0.358552, -0.347811, 0.013779, 0.049083, 0.026164, 0.086072, -0.185877, -0.056398, 0.002673, -0.294513, -0.387272, -0.095694, 0.053398, 0.085241, 0.182406, 0.074345, -0.079284, 0.076055, -0.042626, -0.041483, 0.107296, -0.26701, 0.15366, 0.274084, 0.020575, -0.144613, -0.082962, -0.121874, -0.246432, -0.079717, -0.400203, -0.103492, 0.214275, 0.172244, 0.021705, -0.11488, 0.042156, -0.181195, -0.414677, 0.331462, 0.00466, -0.145296, 0.05057, 0.057994, 0.107116, 0.022434, 0.063951, 0.123831, 0.176761, 0.120056, -0.096592, 0.121357, 0.04819, -0.085181, 0.027004, -0.106558, -0.099076, 0.170937, -0.122602, -0.061543, -0.121669, -0.137293, 0.125211, -0.069092, -0.317198, 0.024438, -0.017497, -0.022878, 0.336515, 0.077185, -0.090322, -0.179312, -0.065604, -0.159095, 0.01898, 0.01918, 0.141581, 0.354584, -0.078772, -0.157938, 0.068282, 0.007293, 0.0071, 0.094604, 0.188387, -0.149159, 0.074031, 0.252129, 0.155452, 0.140325, 0.339377, 0.120164, 0.145634, -0.053456, -0.011907, -0.203925, -0.000431, 0.037252, -0.06799, 0.034763, -0.185449, -0.190925, -0.045115, -0.355102, 0.040088, 0.132819, -0.224529, 0.070152, 0.031782, -0.212655, 0.054606, 0.021156, 0.017107, 0.218201, -0.149881, -0.155866, -0.055934, -0.040361, -0.093624, -0.077914, 0.253556, 0.1013, 0.023892, -0.419162, -0.21406, 0.107482, -0.153184, -0.173498, -0.280699, 0.314025, 0.239112, 0.049612, -0.203257, -0.064947, -0.136447, 0.332272, -0.030242, -0.180041, -0.023653, 0.009041, -0.030125, -0.210818, 0.077857, -0.006441, 0.005986, 0.200885, -0.165866, 0.097051, 0.190084, 0.022137, 0.050388, 0.060898, -0.242715, 0.163524, 0.032821, 0.022041, 0.122277, 0.121845, -0.040172, -0.08962, -0.089744, -0.166577, 0.006995, 0.027033, 0.08319, 0.26845, -0.113933, -0.01254, -0.214592, -0.041343, -0.064295, -0.336697, -0.183029, -0.111583, 0.14363, 0.075227, -0.139686, -0.09218, 0.010947, 0.05257, 0.000951, 0.050832, -0.117407, -0.007767, 0.115708, 0.169143, 0.035865, 0.14253, 0.032905, 0.056106, 0.07765, -0.14461, -0.124374, -0.199966, 0.047801, -0.130212, 0.075757, 0.075953, 0.000684, 0.014774, 0.110048, 0.14991, 0.119287, 0.211947, -0.068647, -0.147672, -0.022481, -0.082166, 0.038691, -0.081208, 0.071621, 0.355843, 0.139833, 0.037274, -0.057209, -0.002197, 0.07305, 0.161974, 0.191238, 0.136331, 0.138402, 0.023299, -0.20209, -0.206215, 0.169437, -0.390757, -0.108354, 0.075425, -0.01787, 0.085404, -0.120226, -0.038329, 0.125396, 0.110099, -0.022487, -0.094772, -0.03424, -0.164181, -0.420191, -0.005072, 0.096662, 0.180869, 0.083242, -0.137278, 0.11344, 0.012316, 0.171726, 0.248296, -0.033225, -0.215736, -0.072402, -0.024465, -0.214163, -0.148703, -0.106864, 0.043212, 0.084386, -0.086603]}, {"name": "conv3.bias", "description": "Bias for third conv layer", "shape": [32], "dtype": "float32", "min": -0.393281, "max": 0.471538, "mean": 0.055612, "std": 0.218932, "weights": [-0.393281, 0.28066, -0.095315, 0.366908, 0.091483, 0.062808, 0.034216, 0.151176, -0.022044, -0.361335, 0.177701, 0.175639, -0.207585, -0.132239, -0.154637, 0.053304, 0.420517, -0.149666, 0.341022, 0.009693, -0.061487, -0.242122, 0.392544, 0.262063, 0.15285, -0.027162, -0.112827, 0.471538, -0.09265, 0.243404, 0.061414, 0.083]}, {"name": "fc1.weight", "description": "Dense layer \u2014 combines spatial features into abstract object representations", "shape": [16, 512], "dtype": "float32", "min": -0.491865, "max": 0.603864, "mean": 0.004523, "std": 0.124801, "weights": [-0.027609, -0.096661, 0.011011, 0.146631, 0.154141, 0.048007, -0.072045, 0.105299, -0.200518, 0.072704, 0.214336, 0.106429, -0.046377, -0.099464, -0.102087, -0.055008, 0.27117, -0.054209, 0.063105, 0.065326, -0.214207, -0.111515, -0.065861, 0.174382, 0.005713, -0.302889, -0.228275, 0.056174, 0.141144, -0.215657, -0.458059, -0.09288, 0.155927, -0.028214, 0.040479, 0.108761, -0.06863, 0.047547, -0.096619, 0.13333, 0.021852, 0.013719, -0.056639, 0.008962, -0.049184, -0.092859, -0.047725, -0.000959, 0.041123, -0.057785, -0.066196, 0.053794, 0.021625, 0.095486, -0.168422, -0.13314, 0.017099, 0.172141, 0.21201, 0.067134, 0.047553, 0.199534, 0.08225, -0.001267, -0.017194, -0.119425, -0.106312, -0.074456, 0.097917, -0.16254, -0.053599, -0.051844, 0.02921, 0.152669, -0.022395, -0.149053, 0.017394, -0.081846, 0.137747, -0.054845, 0.123904, -0.077333, -0.067479, 0.158986, -0.110966, -0.162167, -0.148665, -0.008191, -0.243666, 0.042312, 0.226016, -0.257067, 0.031908, 0.149224, 0.289388, 0.001806, -0.049157, 0.187994, 0.022419, -0.113802, 0.13997, 0.263368, -0.085236, -0.037376, 0.142991, 0.275704, -0.100213, 0.097331, -0.014101, -0.022396, -0.196639, -0.270617, -0.176625, -0.165673, -0.021633, -0.062249, -0.08466, -0.097168, -0.033962, 0.012658, 0.15216, 0.056405, 0.043698, 0.022355, 0.037047, 0.134467, -0.070875, 0.041405, 0.075445, -0.013527, -0.17354, -0.14053, 0.057356, -0.069698, 0.001925, -0.052716, 0.114064, 0.18559, 0.127354, -0.044389, -0.085089, -0.00665, 0.078722, 0.010817, 0.216503, -0.119243, 0.027619, -0.032059, -0.150177, -0.193297, -0.225129, -0.276315, -0.045843, 0.026477, 0.051402, -0.080901, 0.034952, -0.000619, -0.01918, -0.100907, -0.054889, 0.107174, -0.165799, -0.054107, 0.112083, 0.159249, 0.256228, 0.034927, -0.077374, -0.305607, -0.196906, 0.20346, -0.139333, -0.230296, -0.164154, -0.121557, -0.14106, -0.072807, 0.03195, -0.110978, -0.070675, -0.091069, 0.264472, 0.246467, -0.074103, -0.05512, 0.15959, -0.048964, -0.178666, -0.133696, -0.097268, -0.065912, 0.09612, -0.348542, -0.267788, -0.454448, -0.148065, -0.143176, -0.112641, -0.22331, -0.001093, 0.203235, 0.08085, 0.21282, -0.263002, -0.448745, -0.116132, -0.128319, -0.034357, 0.079569, -0.05673, 0.069005, 0.1367, 0.134978, 0.211212, 0.27191, 0.194929, 0.25135, -0.019865, 0.071221, -0.093067, -0.067138, -0.043415, -0.014068, 0.077452, -0.015524, -0.174606, -0.212135, -0.18212, 0.095298, 0.122293, -0.017795, -0.079487, 0.169748, 0.209026, 0.091569, 0.051587, 0.029627, 0.017529, 0.10901, 0.118329, 0.200605, -0.117788, 0.311495, 0.1282, 0.164647, -0.109897, -0.136511, 0.090364, 0.082637, 0.310422, -0.049633, -0.026303, -0.067396, -0.051931, 0.105883, 0.160405, -0.003907, -0.044294, -0.004841, 0.189261, 0.108888, -0.305637, 0.051562, 0.072056, 0.120621, -0.057852, 0.266077, 0.159977, -0.030312, 0.123169, 0.102843, 0.17747, -0.16846, 0.041569, -0.079033, 0.022889, -0.012325, 0.198574, 0.152107, 0.004467, 0.046916, 0.073944, 0.018272, 0.026486, -0.136489, -0.028151, 0.042659, 0.035851, 0.009868, -0.085019, 0.013485, -0.067479, -0.058029, -0.007473, -0.0002, 0.044876, 0.175094, 0.097179, 0.105878, 0.06237, 0.0438, -0.11233, 0.058834, 0.198044, 0.028543, -0.263869, -0.025773, 0.048822, 0.055886, -0.100168, -0.01988, -0.225233, 0.012497, -0.193104, 0.066238, -0.014159, -0.165993, -0.179044, 0.004098, -0.341855, -0.032157, -0.213423, -0.024063, -0.301042, 0.023472, 0.044431, -0.149744, -0.10629, 0.018564, 0.021752, -0.160929, -0.043524, -0.11548, -0.188301, 0.014465, 0.140997, -0.146237, -0.276755, -0.153689, -0.117268, -0.104778, 0.225738, -0.015292, -0.054785, -0.186219, -0.169644, 0.037736, -0.11086, 0.059519, -0.315612, -0.0374, -0.069625, -0.077035, -0.181729, -0.175393, 0.009594, 0.178045, -0.003829, -0.153669, 0.030694, 0.374207, 0.423023, 0.325642, 0.124029, 0.150933, 0.222378, 0.103441, 0.240097, -0.084473, -0.024741, 0.031662, 0.032641, 0.141173, 0.077296, -0.295408, 0.079217, 0.075907, 0.057556, 0.119716, 0.1555, -0.205855, -0.241432, -0.103803, -0.129774, -0.187308, 0.010729, -0.484412, -0.199608, -0.015774, 0.024433, 0.105075, -0.056701, -0.099004, 0.024734, 0.157204, -0.136434, 0.029142, -0.315276, -0.286488, -0.302329, -0.098864, -0.178311, -0.05426, -0.143976, -0.042154, -0.06084, -0.182627, 0.103416, 0.07831, 0.111218, -0.092493, 0.170285, -0.345818, -0.226593, -0.091179, 0.037815, 0.222501, 0.144163, -0.000993, 0.029131, 0.161653, 0.098936, 0.054568, -0.10985, -0.204968, -0.144904, 0.031042, 0.048832, -0.257877, -0.142545, -0.204539, 0.087565, 0.237537, 0.128407, 0.139414, 0.100104, -0.1826, -0.1984, 0.093803, -0.08757, 0.000842, -0.072289, 0.14486, -0.086978, -0.074551, -0.031149, -0.073562, -0.097009, -0.128311, -0.155688, -0.119735, -0.058907, 0.186332, 0.198396, 0.238622, -0.079569, -0.227588, -0.361761, -0.223437, -0.108019, -0.172395, -0.026898, -0.353695, -0.015417, -0.162503, 0.096595, 0.101426, 0.08836, -0.060212, 0.029676, 0.063638, 0.057474, 0.017039, -0.023574, 0.038838, 0.14643, 0.021857, 0.041802, 0.166192, -0.00588, -0.028474, -0.18593, 0.252434, 0.368381, 0.347688, -0.048766, 0.003892, 0.012628, 0.100932, 0.159664, 0.066361, -0.03277, -0.033157, 0.018212, 0.113576, -0.00118, -0.09104, -0.072107, -0.063212, 0.174082, -0.063078, -0.016614, -0.096797, 0.051926, 0.293986, -0.052191, 0.040722, 0.119694, 0.153765, 0.255883, 0.45895, -0.017998, -0.013562, 0.000307, -0.008378, -0.025621, -0.006913, 0.014266, 0.007669, -0.030572, -0.013068, -0.041998, -0.051315, 0.028557, 0.010802, -0.042433, -0.050604, 0.003023, 0.029209, -0.033048, -0.003325, 0.030636, -0.009027, -0.051245, -0.028277, -0.005017, 0.022467, -0.034253, -0.023847, -0.050961, -0.040993, -0.031439, -0.03218, -0.054365, -0.045989, -0.030298, -0.001697, 0.015344, 0.005428, -0.073311, 0.000601, 0.018836, -0.007963, 0.000805, 0.000292, 0.002998, 0.022599, -0.036416, 0.003657, -0.041976, -0.040006, -0.036255, -0.076031, -0.07226, -0.001115, -0.060101, -0.051746, -0.011493, -0.029226, -0.005586, -0.03923, 0.01845, -0.014001, -0.039499, -0.050024, -0.025633, -0.029729, 0.017372, -0.013704, 0.007972, -0.056457, -0.035007, 0.009815, -0.013618, -0.057573, 0.004018, 0.014321, -0.061368, 0.012492, -0.02865, -0.035599, 0.033343, -0.01136, 0.031887, -0.041202, 0.008243, -0.033496, 0.000687, -0.040133, -0.011556, -0.011096, -0.055063, -0.001461, -0.01878, -0.044977, 0.018275, -0.034055, -0.052227, -9.5e-05, -0.04032, -0.054757, 0.009747, -0.043148, 0.029541, -0.033039, 0.007221, -0.002105, 0.015226, -0.068845, -0.019205, -0.032652, -0.020355, -0.064292, 0.01597, -0.035481, 0.01017, 0.041301, -0.041357, -0.017358, -0.001544, -0.046539, -0.022167, -0.042009, -0.058901, -0.011108, -0.002468, -0.049853, 0.012181, 0.010546, -0.009312, -0.017708, 0.004886, 0.007861, -0.025556, -0.014427, -0.067067, -0.052494, -0.028515, -0.072855, -0.044459, 0.010167, -0.027739, -0.071207, -0.054554, 0.01144, 0.041792, 0.028248, -0.027575, -0.00862, -0.0331, 0.000416, -0.005695, -0.041345, 0.030291, -0.029895, -0.009267, -0.057914, 0.020976, -0.005748, -0.054142, -0.017461, 0.027015, -0.063514, -0.01004, -0.065683, -0.022887, -0.030761, -0.046979, 0.022721, -0.046965, -0.044839, 0.002924, -0.029883, 0.002437, -0.048767, 0.015719, 0.013627, 0.034219, 0.0258, 0.009493, 0.049415, 0.012999, -0.023317, 0.031372, -0.039359, -0.055074, -0.006377, -0.02944, -0.002385, -0.034796, 0.010302, -0.005912, -0.008158, -0.04143, -0.005974, -0.020836, 0.027185, -0.050054, -0.072491, -0.00681, -0.008106, -0.020989, -0.040392, 0.005709, 0.009132, -0.068511, -0.036357, -0.002227, 0.007113, 0.015262, 0.035548, -0.026349, -0.008117, -0.041745, -0.030897, -0.035765, 0.014194, 0.015781, 0.004181, -0.022255, -0.004709, -0.02294, -0.018348, 0.026208, -0.013933, 0.027048, -0.012306, -0.037073, -0.023919, -0.067863, -0.021737, 0.00144, -0.050443, -0.013625, -0.049972, 0.003388, -0.012432, -0.011952, -0.018774, -0.009612, -0.051381, 0.027634, -0.03624, -0.009082, 0.027521, -0.012611, 0.026967, -0.037937, -0.04194, 0.022189, -0.061254, -0.06465, -0.051352, -0.042405, -0.05323, -0.074761, -0.014269, -0.028606, 0.031831, -0.048898, -0.028493, -0.020656, 0.019648, -0.046059, -0.056803, -0.025785, -0.060935, -0.012223, -0.048739, 0.014604, -0.017969, -0.007891, -0.017841, 0.012309, -0.010369, -0.03804, -0.022777, -0.046689, 0.009033, -0.05852, -0.041759, -0.062926, -0.044998, -0.011433, -0.053814, -0.031897, -0.071601, -0.052571, -0.021447, -0.007158, -0.021412, -0.035599, -0.035469, -0.026656, -0.022268, -0.029784, -0.035975, 0.016268, -0.025672, 0.004798, 0.008908, -0.052058, -0.041344, 0.006698, 0.001235, -0.027463, -0.003854, 0.037102, -0.009847, -0.039262, 0.021105, -0.000716, -0.057772, -0.034402, -0.013852, -0.065429, -0.002736, -0.065758, -0.054378, -0.052374, -0.064064, -0.02927, 0.018513, 0.019486, -0.019286, -0.01994, 0.011855, -0.033748, -0.012037, -0.026436, 0.021437, -0.044856, -0.025449, -0.031269, -0.033326, 0.030538, 0.005371, -0.005537, -0.028501, 0.014529, -0.039621, -0.02504, -0.058475, -0.020671, -0.037434, 0.017812, -0.042418, -0.000945, -0.005206, -0.043139, 0.008853, 0.012904, -0.017051, -0.05932, -0.007602, -0.057621, -0.044934, -0.049711, -0.013767, -0.027931, -0.026278, -0.037647, -0.037053, -0.025715, -0.027325, 0.001686, -0.043601, -0.018285, -0.011331, -0.04909, 0.004728, 0.000638, -0.038864, 0.021661, 0.003935, -0.007313, 0.016666, -0.044152, -0.017964, 0.011793, -0.001978, -0.026911, -0.049494, -0.025637, 0.012532, 0.020112, 0.007273, -0.017201, -0.022731, -0.003013, -0.007703, 0.001048, -0.046381, 0.007994, -0.006013, 0.008183, -0.021933, -0.04741, 0.01431, -0.05116, -0.016557, -0.034774, 0.031971, 0.041934, -0.0418, -0.019007, 0.015446, -0.032607, -0.007671, -0.057192, -0.034003, -0.023562, 0.020987, -0.054087, 0.002377, -0.024755, -0.009906, 0.021053, -0.034272, -0.026036, -0.019147, -0.039439, 0.024608, -0.010297, 0.00038, 0.034484, 0.005242, -0.016129, 0.014451, -0.013044, -0.044055, -0.01327, 0.003774, -0.014268, -0.060293, -0.026652, -0.016303, 0.023097, 0.001908, -0.04411, -0.045889, -0.006631, 0.005397, -0.018005, 0.012835, 0.030181, 0.004749, -0.020305, 0.025505, 0.003519, 0.023521, 0.005583, -0.049719, 0.010601, 0.00682, 0.013274, -0.026073, -0.056802, -0.021525, -0.023883, 0.039666, -0.057688, 0.006607, -0.024868, -0.068751, -0.02567, -0.002131, -0.026339, -0.005322, 0.018383, -0.008703, -0.007828, -0.037547, 0.01043, 0.009677, -0.027348, 0.01548, 0.0037, -0.023676, 0.014178, -0.032095, -0.007463, 0.018891, 0.015381, -0.012734, -0.011679, -0.014536, -0.032145, -0.049565, -0.034554, -0.048578, -0.021537, 0.021247, -0.043135, 0.048513, 0.013407, -0.042689, -0.018226, -0.068115, -0.009788, -0.022806, 0.017597, 0.014167, 0.019742, 0.001779, -0.025175, 0.03496, 0.028854, -0.045605, -0.031096, -0.035273, -0.020262, -0.02751, -0.025629, -0.057673, -0.183429, 0.03032, 0.045167, 0.117652, -0.06441, -0.008424, -0.013622, 0.242948, 0.150247, 0.143989, 0.003541, 0.256583, 0.227011, 0.07173, -0.072984, -0.079613, -0.08926, 0.121672, 0.118758, -0.099203, 0.074839, 0.24892, 0.182619, 0.168524, -0.270559, 0.084126, 0.507891, 0.440901, 0.295753, -0.056475, 0.134045, 0.116988, 0.118376, 0.039396, 0.145156, 0.322528, 0.050209, 0.197598, 0.04135, -0.013898, -0.213359, -0.08215, -0.052836, -0.116765, -0.022448, -0.097283, -0.027939, -0.034852, -0.086811, -0.060233, 0.166969, 0.179512, 0.017971, 0.088582, 0.088082, 0.115656, 0.326535, 0.052645, -0.089271, 0.087589, 0.009113, -0.189295, 0.065875, -0.013265, -0.061972, -0.064682, 0.064821, -0.019479, -0.009531, -0.051136, 0.051674, -0.128324, -0.215275, -0.073492, -0.047992, 0.10096, -0.144137, -0.120731, 0.108405, -0.101334, 0.079759, -0.014909, -0.072335, 0.237696, 0.216359, -0.057408, 0.011788, 0.057653, -0.005953, -0.041741, -0.072569, 0.072799, 0.078267, -0.04804, -0.062593, 0.289571, 0.194701, 0.010665, 0.03344, -0.053589, 0.080088, -0.141184, -0.057688, -0.030079, 0.105353, -0.117251, -0.06064, 0.02979, -0.179714, -0.261175, 0.215754, 0.068295, 0.240138, 0.108185, -0.110148, 0.081841, 0.141909, -0.02973, 0.009841, -0.036789, 0.045474, -0.03174, -0.064361, -0.138123, -0.167248, 0.036722, -0.008324, -0.033932, -0.056705, 0.083677, -0.006457, 0.176504, 0.273006, 0.281443, -0.150493, 0.046055, 0.004333, -0.010179, 0.016118, 0.000688, 0.059056, -0.024933, -0.183434, -0.110237, 0.042769, -0.136619, -0.101232, -0.194325, 0.014259, -0.055995, 0.142689, 0.087794, 0.116135, 0.183614, 0.011985, 0.206941, -0.012938, 0.20011, 0.212583, 0.075051, -0.038378, 0.236222, 0.012873, 0.154901, 0.245333, 0.110389, -0.085666, 0.042565, 0.197628, 0.006854, 0.139324, 0.10826, 0.068101, -0.007666, 0.069781, 0.109069, 0.037139, 0.020853, 0.001688, -0.08057, -0.114894, 0.257291, 0.09893, 0.099898, 0.00169, 0.000985, -0.124596, 0.102402, 0.002065, -0.019437, -0.011024, -0.171717, 0.130019, -0.228113, 0.112719, -0.224313, -0.111035, -0.032406, 0.095424, 0.039562, 0.116938, -0.01496, -0.021564, -0.05024, -0.0863, -0.075642, 0.103228, -0.14246, -0.086965, -0.094218, 0.330941, -0.069317, -0.161255, -0.054492, 0.296981, 0.053684, 0.098677, 0.003048, 0.094264, 0.011703, 0.056948, -0.070614, -0.081115, -0.23234, -0.190659, -0.122895, -0.068566, 0.125613, 0.03813, -0.019006, 0.053655, 0.395851, 0.184752, 0.243385, -0.224878, 0.209546, 0.258576, 0.138335, -0.082765, -0.05257, 0.060631, 0.137269, -0.206235, -0.011281, 0.140895, 0.041518, 0.074692, -0.010431, 0.257307, 0.121382, -0.096271, 0.107964, 0.098982, 0.037916, 0.093357, -0.039957, 0.063803, 0.011456, 0.220232, 0.042784, -0.233685, 0.023321, 0.12993, -0.087052, -0.097331, -0.04932, 0.038865, -0.039699, 0.053584, -0.00454, 0.021979, 0.089764, 0.180459, 0.052145, 0.028967, -0.00309, 0.172326, 0.223268, 0.099254, 0.293807, 0.19094, 0.250033, -0.014885, 0.020821, 0.074068, -0.089665, -0.031296, 0.047127, -0.079403, 0.029228, 0.127984, 0.036143, 0.148076, -0.00192, -0.104858, 0.256485, 0.184137, 0.307947, -0.133768, 0.067642, -0.157134, 0.100677, -0.107993, -0.052184, -0.263326, -0.134174, -0.082559, -0.366383, -0.319496, 0.178423, -0.066603, -0.183912, -0.013506, 0.144182, 0.036643, 0.012308, 0.040196, 0.131036, -0.081142, 0.083338, 0.216315, 0.069182, -0.048644, 0.318367, 0.330123, -0.09251, 0.156815, 0.146302, 0.17998, 0.077224, 0.232656, 0.198997, 0.166058, 0.148569, 0.161534, 0.118238, -0.017476, 0.163954, -0.0675, -0.011776, -0.188535, -0.006369, -0.281103, 0.025423, 0.059153, -0.135688, -0.378485, -0.175828, 0.001397, -0.061186, -0.020365, -0.028167, 0.030392, 0.008629, -0.086355, 0.298718, 0.431079, 0.09307, -0.218882, 0.221745, 0.180218, 0.096396, -0.18405, -0.066132, -0.2214, -0.066059, 0.109133, 0.108812, -0.019471, 0.044099, -0.075064, 0.131243, 0.071033, 0.251379, -0.230163, 0.145847, -0.087258, 0.211189, -0.243229, 0.019378, 0.025169, 0.041443, 0.145832, -0.060956, -0.079045, -0.075556, 0.090425, -0.04625, -0.134921, 0.120321, -0.098184, -0.019517, -0.028387, -0.285174, 0.01817, -0.020138, -0.182805, -0.335705, 0.146912, 0.061215, 0.08616, 0.19231, 0.153942, -0.059896, -0.117865, 0.143779, 0.044861, 0.042899, -0.010277, 0.19045, -0.07611, -0.146069, -0.172687, -0.060315, -0.004201, 0.087027, 0.014729, 0.024978, 0.075383, -0.080395, -0.136097, -0.131048, -0.073709, -0.083589, 0.138227, -0.029357, -0.147523, -0.057594, 0.089692, -0.123218, -0.026682, 0.207415, 0.148121, 0.048883, -0.016772, 0.071438, 0.146093, -0.362964, 0.070028, -0.264129, 0.04939, 0.10127, 0.11099, -0.043061, 0.103606, 0.128836, -0.035668, -0.114326, 0.080142, 0.022347, 0.0078, -0.15385, -0.169661, -0.214205, -0.06602, 0.065386, -0.062439, -0.266566, -0.084462, 0.03279, -0.080768, -0.101634, 0.090775, 0.015055, -0.018547, 0.057908, -0.11956, -0.046292, -0.053771, -0.123364, 0.055953, -0.096419, 0.022452, 0.069131, -0.012584, -0.088989, 0.104439, 0.116568, 0.0344, 0.018897, -0.239396, 0.33762, 0.222191, -0.163965, -0.119066, -0.057074, -0.450096, -0.170678, -0.094998, -0.17024, -0.094701, -0.330328, -0.243072, -0.030988, 0.047067, 0.072016, -0.004348, -0.0268, -0.168807, -0.112471, 0.081453, -0.045379, -0.292556, -0.027784, 0.097703, 0.023723, -0.047482, -0.140334, -0.116893, 0.1262, -0.164825, 0.073508, 0.038861, 0.036547, -0.157628, -0.26512, -0.21747, -0.069539, 0.097908, -0.056442, 0.125616, 0.106845, -0.051528, 0.049924, -0.028544, 0.06339, 0.052545, 0.014165, -0.076455, -0.020498, 0.12135, 0.009491, 0.097129, -0.001651, 0.066137, -0.024417, 0.182111, 0.168266, -0.010672, 0.113642, 0.291245, 0.22045, -0.001317, 0.009194, 0.134989, 0.004913, -0.096256, -0.195869, -0.17189, 0.013647, 0.152698, -0.219028, 0.037487, 0.146885, 0.264505, 0.171198, 0.015092, 0.281313, -0.183022, -0.019247, 0.0124, -0.054462, -0.084213, 0.219195, 0.035303, 0.034186, -0.103828, 0.014301, -0.036578, -0.067146, -0.25952, -0.039569, -0.170067, -0.121617, 0.007287, 0.006993, 0.003972, 0.023861, 0.004611, -0.055298, -0.335014, -0.036366, 0.091443, 0.030944, 0.006206, 0.123771, 0.092584, 0.027967, 0.014092, 0.118005, -0.061123, 0.082941, -0.027682, -0.086027, 0.077751, -0.047925, 0.047174, 0.026214, 0.102209, 0.0522, 0.096434, 0.076266, -0.010235, -0.180174, -0.058033, 0.023693, 0.025521, -0.099673, 0.045378, 0.316279, -0.138639, 0.206733, 0.357317, 0.136086, -0.096358, -0.164349, -0.243163, 0.084849, -0.049215, -0.203342, -0.154627, -0.037586, 0.085836, 0.049361, 0.030359, 0.012029, 0.139848, 0.377565, 0.188494, -0.048536, 0.138514, -0.103158, 0.079486, -0.191965, -0.092078, -0.024199, -0.034444, 0.018434, 0.132148, 0.120167, 0.019832, 0.193339, 0.161827, -0.034855, -0.244402, 0.025168, -0.054345, -0.340755, -0.169081, -0.023869, 0.037802, -0.02741, -0.035333, -0.205892, 0.021931, -0.097207, -0.043403, -0.033417, 0.10198, 0.069146, 0.00615, 0.125721, 0.101174, 0.049311, -0.014934, 0.013319, 0.024264, 0.046637, -0.12938, -0.042462, 0.082137, -0.006369, 0.045243, 0.071311, -0.040843, -0.319015, -0.012188, 0.033245, -0.069164, -0.049839, 0.059598, -0.047448, -0.183806, 0.070955, -0.048681, -0.039719, 0.155582, 0.006126, -0.151299, -0.030052, 0.017833, 0.035931, -0.282593, 0.002751, 0.080194, -0.158583, -0.002558, -0.004717, -0.204259, -0.072859, 0.055121, -0.038635, 0.080384, -0.211224, -0.049988, 0.026433, 0.085901, 0.072449, 0.252723, 0.032353, -0.003705, 0.158709, -0.164175, 0.096289, 0.062571, 0.125201, 0.178257, -0.030655, -0.119007, 0.044158, -0.038501, -0.021679, -0.160356, 0.01198, -0.088106, -0.050305, -0.059046, -0.08118, -0.04435, -0.068099, 0.20967, 0.090463, 0.277298, -0.015274, 0.050131, -0.072691, -0.03989, 0.034741, 0.153684, -0.211368, 0.042305, -0.040627, 0.06953, -0.061227, 0.23245, 0.077422, 0.060208, 0.070768, 0.220004, 0.151084, 0.151483, 0.138151, 0.212499, 0.151588, -0.012536, 0.079509, -0.196107, -0.225602, -0.094893, -0.174032, -0.184936, -0.016434, 0.095394, 0.031147, 0.090448, 0.000936, 0.030181, 0.128087, 0.086792, 0.101166, 0.148425, 0.174792, 0.189722, 0.155012, 0.241251, 0.185015, 0.085637, 0.071456, 0.029287, 0.235088, 0.047148, 0.211134, -0.032951, -0.053215, -0.109166, -0.240498, -0.161991, -0.242975, -0.014387, -0.091941, -0.209744, 0.119229, 0.239178, -0.071581, 0.006616, 0.141708, 0.130033, 0.114424, 0.18056, -0.033079, 0.220439, 0.046325, 0.127961, -0.116062, -0.043207, 0.124902, 0.172473, 0.195002, 0.102664, 0.16424, -0.056267, -0.098897, 0.331052, 0.11303, 0.125067, -0.008816, -0.101534, 0.019415, 0.20463, -0.191992, 0.02179, -0.237988, 0.090338, -0.144923, -0.016013, -0.261832, 0.14433, -0.16721, -0.002208, -0.08533, -0.060249, 0.053117, -0.15104, -0.084468, 0.163244, -0.262628, -0.387494, -0.065136, -0.035408, -0.01877, -0.095477, 0.075609, -0.061049, -0.210719, -0.075942, -0.07966, 0.057339, -0.110568, 0.019859, 0.141249, 0.251632, -0.066302, 0.060657, -0.113312, -0.024102, 0.223286, 0.248251, 0.058447, -0.160399, -0.125525, -0.302048, -0.13337, 0.061564, -0.001788, -0.04272, 0.022513, 0.228564, 0.106679, -0.103628, 0.034806, 0.149989, -0.064461, -0.057005, -0.004598, -0.035303, -0.204238, -0.053847, -0.069427, 0.079493, 0.030193, 0.103638, -0.022865, -0.016618, -0.114557, -0.159591, -0.121118, 0.006611, 0.043738, -0.304966, -0.070312, -0.034786, 0.216127, 0.016677, 0.154147, -0.156191, -0.051931, 0.020571, 0.039654, -0.015554, 0.022967, 0.2851, -0.116871, 0.009243, 0.045354, -0.019667, 0.409533, 0.138224, 0.266268, 0.267291, 0.19783, 0.139189, 0.032031, 0.155237, 0.048108, 0.169708, 0.107716, 0.074821, -0.206378, 0.09977, 0.131672, 0.243822, 0.041884, -0.0706, 0.045074, -0.020153, 0.117553, 0.023884, -0.04292, -0.104105, -0.087986, 0.306616, 0.132102, 0.05299, 0.150822, 0.292577, 0.132437, -0.098799, 0.150702, 0.145014, 0.186306, -0.109377, -0.041324, -0.03487, -0.111347, -0.170441, 0.244594, -0.080437, 0.078286, 0.143355, 0.083817, -0.047872, 0.172778, 0.19884, -0.033268, 0.090193, 0.094778, 0.150496, -0.002223, 0.14868, -0.020675, 0.015156, -0.028795, 0.114039, -0.112236, -0.028631, -0.077928, 0.023858, -0.173011, -0.002799, -0.072654, -0.192902, -0.221175, -0.176749, -0.011743, -0.110681, -0.1783, 0.020904, -0.179424, -0.098691, 0.075624, 0.24054, -0.246861, -0.262026, 0.148186, 0.181965, 0.174116, -0.024981, 0.152752, -0.020204, 0.015173, -0.042268, 0.16779, -0.153099, 0.095466, -0.161946, -0.314016, -0.131457, -0.042027, -0.189897, -0.20812, -0.270248, 0.004837, -0.073814, -0.139953, -0.045886, -0.39121, 0.045532, 0.075128, 0.074272, 0.026523, -0.068595, -0.166831, -0.136113, 0.21602, 0.025139, -0.279165, -0.232868, -0.256072, -0.041678, -0.021503, -0.111498, -0.16025, -0.267048, 0.14397, 0.151597, -0.3061, -0.084481, -0.147904, 0.042053, 0.06632, -0.103332, -0.012453, -0.016753, 0.06048, 0.066045, 0.152981, 0.129788, 0.298815, -0.037967, 0.124743, 0.024471, -0.022507, -0.132611, 0.305575, 0.151847, -0.200438, 0.273734, 0.22169, 0.144186, -0.146831, 0.400875, 0.087073, 0.136254, 0.144387, 0.017326, 0.043887, 0.152314, 0.091337, 0.042719, -0.096665, -0.042033, 0.13918, -0.040799, -0.008974, -0.010986, 0.041604, -0.160513, -0.138186, 0.037189, -0.086696, -0.181067, 0.111898, 0.098038, -0.151142, 0.105411, -0.052188, -0.081467, 0.111474, 0.069804, 0.104702, -0.156718, 0.032963, 0.029885, 0.099532, 0.068317, 0.214959, 0.10921, 0.056801, 0.038301, -0.023529, 0.163695, 0.202264, 0.061737, 0.239958, -0.049961, 0.035337, 0.020346, 0.019856, 0.072257, 0.016272, -0.084643, -0.035209, 0.167503, 0.33051, 0.178419, 0.110594, 0.266866, -0.044529, -0.098061, 0.078838, 0.366372, -0.116266, 0.032696, 0.120094, 0.359144, 0.037367, -0.095943, 0.359098, 0.219174, 0.126944, 0.175755, 0.074633, 0.100644, 0.21281, 0.175116, 0.217679, -0.043617, 0.019951, 0.042117, -0.090253, 0.050866, -0.205117, -0.143523, -0.044664, -0.133078, 0.057803, -0.242415, -0.01747, 0.034044, -0.074372, -0.088795, 0.178017, -0.062015, 0.107506, 0.024892, 0.149415, 0.302135, 0.048336, 0.35957, 0.08433, -0.046293, 0.043858, 0.046851, 0.103124, 0.051955, -0.176109, -0.257354, -0.224693, 0.110443, -0.01167, -0.123685, -0.238662, 0.057226, 0.144409, 0.258847, -0.012538, -0.015983, -0.070685, -0.108739, -0.144255, 0.256998, 0.076048, 0.0203, -0.045649, 0.125212, 0.027989, -0.047295, -0.061162, 0.010058, 0.171778, 0.194367, 0.061708, 0.067161, 0.050065, 0.019652, -0.009848, -0.130832, 0.252627, -0.023893, -0.199003, 0.151421, -0.07543, -0.161345, -0.147994, -0.078418, -0.080904, -0.081656, 0.21059, -0.043917, -0.118577, 0.157303, 0.062224, -0.080964, 0.10895, 0.018294, -0.060228, 0.073592, 0.038051, -0.132224, -0.189499, 0.251622, -0.006638, -0.146327, -0.165514, 0.031642, 0.081949, 0.111533, 0.257461, 0.097942, 0.119717, 0.345258, 0.087062, 0.134324, 0.165999, -0.179385, -0.19036, 0.091981, -0.065179, -0.149369, -0.261029, 0.271385, 0.290538, -0.016256, -0.089252, 0.007451, -0.063263, 0.028775, 0.117617, -0.116914, -0.033619, 0.101918, -0.004319, -0.117038, -0.026533, 0.130137, 0.07759, -0.185913, -0.022915, 0.032049, -0.012888, 0.131357, -0.02709, 0.153204, 0.059605, 0.146364, -0.015393, -0.025169, -0.239575, 0.104627, 0.014533, 0.095999, -0.080116, 0.130537, 0.118259, 0.037723, -0.018179, 0.038529, -0.092791, -0.106371, 0.033552, 0.049233, -0.16807, -0.192673, -0.036705, 0.154226, -0.042264, -0.03197, 0.150861, 0.021006, -0.056032, 0.015477, 0.045297, -0.035051, 0.107589, 0.062743, -0.181233, -0.154493, 0.125873, 0.04784, -0.189669, -0.159871, -0.013882, -0.051416, -0.04497, 0.098659, -0.07015, 0.012614, 0.060703, 0.135184, 0.018065, -0.15018, 0.023514, 0.08332, 0.107162, 0.139067, -0.065243, -0.059248, -0.185024, -0.045895, -0.243891, 0.023764, -0.021348, 0.15501, -0.000799, -0.166887, -0.164001, -0.075786, 0.015952, -0.117819, 0.060023, 0.026485, -0.144216, -0.175055, -0.020167, -0.027773, -0.12864, 0.05975, 0.071555, 0.209317, 0.262548, -0.056061, 0.094804, 0.126694, -0.152625, 0.04, 0.049653, -0.064516, -0.08443, -0.12125, 0.11007, 0.06584, 0.038774, 0.0172, 0.085882, 0.075026, -0.022706, 0.165683, -0.275765, -0.157701, -0.008316, 0.251843, 0.059578, 0.115301, 0.153994, 0.286079, 0.237794, 0.20948, 0.293926, 0.18154, 0.091074, 0.127856, 0.055213, -0.099606, 0.103651, 0.196781, 0.015683, -0.077298, -0.018447, 0.210839, 0.124787, -0.29984, -0.086064, 0.24864, -0.035994, -0.015299, 0.100608, 0.075589, -0.028062, -0.206507, 0.058104, 0.125441, -0.049671, -0.257387, -0.002314, 0.175294, -0.125364, -0.224073, -0.213822, -0.129679, -0.090545, 0.015272, 0.00829, -0.007834, 0.144213, -0.310627, -0.078349, 0.152292, 0.154218, -0.176853, -0.08513, 0.080126, 0.115008, 0.303388, 0.03232, -0.20509, 0.133623, 0.35496, 0.154695, 0.106986, -0.020528, -0.048975, 0.365422, 0.37326, 0.049479, -0.090366, -0.278148, -0.121932, -0.005184, -0.158539, -0.43797, -0.114603, -0.101626, 0.060013, -0.028519, 0.044097, -0.014854, -0.070673, 0.153027, 0.184571, -0.017241, -0.129711, -0.089248, -0.089839, 0.152261, -0.047676, -0.377926, -0.135375, 0.015448, -0.14371, 0.043189, -0.108952, -0.026206, -0.157909, -0.104246, 0.173582, 0.063989, -0.149852, 0.222657, 0.033818, 0.12021, 0.135683, -0.01462, -0.018166, -0.051929, -0.132579, 0.040904, -0.130211, -0.142575, -0.231517, -0.185738, 0.028924, -0.068259, 0.024955, -0.159726, -0.204045, 0.241559, 0.079448, -0.094741, -0.067642, 0.110306, 0.190242, 0.02055, 0.064491, 0.027935, 0.049982, 0.230327, 0.172211, -0.03768, 0.086061, 0.048293, 0.045566, 0.130048, -0.045157, 0.138633, -0.106556, 0.081919, -0.27303, -0.248294, -0.161293, -0.089681, 0.038171, -0.055767, -0.170239, 0.060739, 0.223223, -0.027658, -0.239645, -0.004058, 0.1443, 0.106231, -0.02115, 0.120787, 0.145232, 0.421019, -0.058558, 0.101936, -0.044454, 0.016078, 0.276341, -0.048956, -0.042522, -0.079666, 0.023317, 0.066954, -0.022708, 0.172112, 0.089355, 0.32326, 0.046786, -0.045837, 0.065726, 0.187514, -0.044558, 0.042653, -0.030568, 0.181942, 0.157142, 0.061736, 0.018081, 0.110948, 0.0258, -0.034999, -0.127993, -0.020489, -0.001737, 0.199574, -0.101244, 0.074244, 0.05871, -0.032534, -0.171192, -0.050162, -0.137096, -0.094305, 0.124033, 0.069595, 0.071291, -0.180951, -0.186338, -0.124456, -0.054752, 0.097944, 0.03644, -0.054466, 0.020548, -0.449391, -0.050543, 0.060504, 0.3437, -0.294705, -0.254221, 0.146002, 0.270174, -0.146082, 0.124651, 0.396633, -0.176533, 0.133147, 0.000843, 0.007919, 0.114041, 0.067929, -0.249105, -0.084076, -0.140598, 0.098737, -0.073887, -0.10427, 0.294187, -0.096577, -0.015954, 0.046934, 0.111719, 0.039387, -0.077972, 0.069409, -0.158806, 0.06356, 0.139504, -0.203616, 0.076912, 0.284351, 0.247437, -0.00588, 0.319408, -0.047351, 0.096399, 0.257215, -0.185954, -0.123786, -0.032564, 0.020099, -0.09722, -0.158061, -0.15017, 0.08034, -0.031634, -0.251365, -0.088817, 0.040113, 0.098173, -0.063654, -0.003174, 0.038788, 0.079016, -0.034104, -0.157317, -0.123874, 0.097612, 0.116967, 0.01531, -0.232092, 0.102124, 0.049696, -0.253169, 0.029362, 0.071119, -0.186296, -0.29566, 0.098508, -0.313292, -0.039034, -0.163566, 0.072049, -0.156866, -0.030503, 0.036348, -0.057125, 0.279932, -0.047671, -0.227964, -0.338606, 0.04377, 0.067598, 0.158419, 0.153916, -0.05638, 0.033383, 0.116048, -0.110729, -0.030604, -0.129693, 0.14816, 0.04226, 0.176891, -0.070028, 0.015775, 0.18453, 0.23057, 0.060362, 0.124914, 0.084703, -0.087015, -0.001418, 0.002896, -0.010457, -0.071076, 0.15251, 0.305459, 0.168424, -0.070905, 0.371296, 0.252565, 0.183042, 0.049007, 0.121933, 0.030475, 0.207007, 0.000136, 0.18341, -0.083205, -0.177259, -0.111246, -0.303031, -0.158712, 0.146905, 0.161038, -0.091356, -0.00937, 0.160846, -0.005884, -0.10689, 0.007704, 0.059249, -0.063688, -0.066217, 0.043915, -0.096313, 0.054957, -0.093021, 0.02223, 0.012449, 0.212965, -0.082831, -0.122407, -0.003455, 0.178493, 0.103338, 0.116976, 0.134196, 0.077256, 0.098182, 0.180735, 0.023713, 0.021935, 0.250674, 0.111443, -0.20941, 0.129401, 0.130848, 0.159359, 0.095677, -0.026693, 0.011937, 0.035924, -0.130304, 0.040245, 0.112942, -0.161087, 0.100281, 0.020861, -0.023685, 0.28833, -0.010563, 0.05554, 0.077668, 0.228091, -0.132483, 0.034015, -0.225688, -0.171638, -0.342502, 0.077748, 0.017994, 0.031441, 0.039125, -0.022763, -0.104071, 0.224271, -0.013875, -0.027475, 0.116928, 0.235483, 0.024402, -0.0014, 0.074198, 0.097157, 0.158195, 0.145038, -0.058187, -0.105162, -0.005141, 0.077719, -0.029501, 0.028333, -0.16323, 0.009966, 0.096132, -0.115112, 0.063799, 0.135106, -0.110798, 0.00328, -0.076021, -0.138166, -0.203332, -0.141673, -0.063113, 0.062662, -0.200031, -0.200119, -0.096051, -0.031034, 0.027643, -0.027902, 0.006123, 0.18462, -0.011508, 0.01271, 0.178424, 0.085671, 0.064846, 0.013674, 0.102095, 0.106284, 0.299063, 0.196446, 0.03788, 0.071789, -0.010512, 0.083568, 0.037975, 0.157527, -0.041753, 0.002522, 0.056487, 0.14578, -0.142319, 0.096121, 0.112153, -0.035395, -0.037313, 0.056071, 0.253882, 0.025367, 0.167219, 0.237016, 0.055098, 0.127827, -0.193698, -0.085291, 0.028309, -0.043608, -0.009364, 0.111734, 0.058617, 0.01399, 0.112164, 0.314164, -0.06209, 0.024577, 0.194017, 0.377236, 0.059814, 0.234862, -0.034745, -0.092607, 0.093899, -0.140247, 0.117071, -0.034608, -0.155614, -0.011845, 0.149973, -0.003768, 0.13286, -0.092957, 0.12324, 0.192719, 0.054672, -0.012124, 0.130183, -0.012557, -0.049511, -0.140641, 0.113399, -0.123487, -0.073351, -0.368919, -0.276946, -0.12803, -0.305991, -0.083048, -0.383692, -0.114318, -0.160734, -0.486577, -0.264988, -0.33941, -0.230168, -0.262256, -0.050715, -0.107423, -0.090943, 0.082915, 0.274822, 0.34741, 0.093712, 0.112966, 0.426164, 0.422857, 0.070904, 0.099112, 0.123648, 0.282663, 0.097344, -0.01168, 0.001793, -0.009373, -0.13207, -0.001403, 0.057798, 0.10537, 0.003602, -0.062726, 0.207358, 0.022412, 0.016422, -0.080197, 0.053168, 0.096572, -0.033742, -0.027495, -0.065479, -0.084208, -0.113381, -0.243508, 0.166704, 0.077349, 0.064593, -0.140366, -0.021981, 0.17849, 0.166818, 0.051498, -0.229839, -0.009344, 0.118291, 0.347509, 0.248712, -0.00471, 0.072637, 0.197539, 0.065302, 0.292408, -0.053348, 0.058808, 0.070698, 0.137482, -0.012101, -0.040378, -0.260185, -0.013961, -0.065861, -0.138419, 0.09859, -0.129288, 0.07175, -0.029724, 0.021925, -0.123913, 0.025611, -0.111095, -0.151484, -0.059187, 0.040491, 0.144878, 0.066355, -0.080935, 0.216575, -0.19205, 0.021914, -0.152704, -0.156444, -0.336996, -0.014615, -0.072613, -0.489211, -0.456391, -0.43429, -0.221247, -0.206575, 0.140019, -0.057861, -0.159983, 0.162941, -0.067669, 0.133714, 0.181046, -0.199444, 0.016211, 0.035153, 0.246105, -0.011177, -0.029549, 0.149472, 0.026349, 0.137032, -0.421281, -0.128233, -0.069691, -0.232728, -0.006614, -0.146812, 0.026136, -0.098967, -0.043816, -0.032802, 0.011385, -0.027192, -0.066765, -0.072845, 0.187531, 0.037621, -0.132434, 0.070482, -0.052332, 0.101563, 0.255841, 0.145784, 0.208681, 0.139136, 0.077818, 0.192829, 0.175624, -0.074219, -0.06484, -0.018094, -0.034146, 0.034542, 0.145827, -0.051259, 0.052286, -0.118959, 0.176198, 0.212381, 0.01671, 0.040269, 0.137851, 0.073912, 0.085677, 0.092822, 0.354542, 0.267666, 0.291386, 0.212084, 0.01132, 0.046082, 0.090281, 0.082208, 0.02071, 0.026227, 0.131341, 0.015921, -0.092922, -0.136145, -0.004445, -0.339407, 0.053607, 0.101157, 0.215979, -0.18805, 0.036781, 0.318984, 0.009009, -0.005903, -0.004395, 0.087185, -0.219722, -0.102589, 0.041648, 0.204991, 0.131935, 0.009834, 0.180578, 0.197362, 0.053975, 0.061945, 0.135271, 0.108889, 0.164538, 0.191434, 0.078097, 0.06861, -0.016255, 0.022124, 0.127079, -0.02193, 0.182474, 0.194758, -0.08227, 0.142939, 0.195726, -0.093925, 0.002683, -0.058025, -0.013498, -0.104813, -0.085099, 0.245401, 0.190741, 0.048798, -0.132361, -0.098143, 0.285276, -0.009389, -0.160488, 0.231609, 0.252274, 0.070726, -0.242648, 0.108186, -0.029883, -0.148657, 0.044495, -0.05926, 0.082215, 0.123626, 0.068662, -0.31882, -0.076491, 0.196921, 0.050057, -0.004264, -0.325215, 0.134102, 0.039038, -0.03891, 0.020273, 0.010879, 0.011822, -0.024147, 0.002112, 0.028111, 0.009705, 0.140353, 0.195354, 0.052804, 0.174567, 0.17187, 0.143149, -0.003543, -0.087974, 0.121423, 0.086992, -0.185294, -0.072777, -0.262416, -0.062729, 0.019928, 0.037708, 0.012295, 0.076603, 0.085302, -0.053815, 0.223365, 0.062568, -0.122917, -0.137582, 0.125622, 0.180749, -0.020093, -0.169751, -0.226509, 0.024477, 0.001037, 0.156628, -0.194491, -0.016765, -0.098602, 0.110977, 0.192453, 0.064864, -0.022592, -0.034981, 0.121614, 0.125506, 0.021489, -0.007353, 0.03008, -0.015081, 0.125071, 0.120958, -0.007873, -0.053022, 0.159159, -0.276239, -0.100622, -0.148173, -0.105109, -0.154449, -0.046064, -0.079396, -0.174967, 0.087255, 0.150867, 0.236895, -0.05982, 0.017879, -0.031643, -0.151665, -0.047723, -0.089323, -0.023295, 0.036812, 0.123411, 0.100819, 0.069913, -0.054104, 0.242885, 0.167435, 0.043767, 0.092221, -0.071992, 0.190135, 0.473511, 0.373336, 0.09583, 0.039501, -0.014941, 0.005343, 0.02507, 0.166622, -0.002439, 0.246284, 0.062883, 0.106193, -0.05124, -0.006572, -0.079109, -0.18792, -0.003706, -0.016916, 0.216989, -0.094275, 0.30779, 0.134261, -0.250135, -0.246856, 0.304817, 0.029816, 0.040725, -0.02094, -0.141892, -0.02412, 0.215047, -0.050478, -0.164121, -0.103019, 0.03037, -0.221832, 0.077353, 0.1534, 0.284251, 0.064048, -0.016441, 0.07398, 0.219437, -0.010376, 0.371759, 0.466535, 0.418611, 0.081567, 0.269895, 0.05757, -0.081631, 0.028938, -0.142757, -0.033022, -0.321182, 0.05112, 0.074672, -0.021753, 0.129248, -0.042686, -0.21261, 0.174148, 0.170764, -0.160121, -0.141116, 0.048604, 0.054499, 0.17842, -0.018724, -0.127083, -0.013514, 0.257971, -0.009821, -0.286831, -0.271176, -0.095506, 0.007074, -0.061064, -0.090162, -0.15925, 0.161081, -0.014343, 0.015396, 0.008158, 0.204582, 0.088355, 0.183047, -0.000929, 0.387922, 0.149444, 0.170628, 0.001571, 0.180076, 0.265025, 0.020678, 0.149293, 0.111444, 0.072469, 0.079532, 0.033132, 0.127044, 0.186532, -0.071212, -0.334487, 0.02235, -0.196916, -0.290371, -0.128278, 0.058632, -0.014089, 0.066681, -0.047829, -0.044894, 0.103729, -0.156595, -0.111681, -0.11857, 0.004713, -0.038402, -0.186784, -0.109092, -0.021365, -0.045762, 0.108802, 0.264668, -0.179729, -0.10095, 0.059886, 0.186393, -0.082354, -0.22856, 0.249059, -0.035174, -0.029826, 0.054898, 0.13426, 0.012269, 0.099006, -0.032676, 0.161916, 0.067911, 0.034389, 0.206004, -0.256504, -0.322708, -0.318383, 0.109023, 0.039772, -0.254768, -0.037779, 0.082646, 0.060387, 0.042949, -0.039936, 0.239801, 0.280248, -0.170216, -0.457636, -0.200718, 0.017517, -0.140043, -0.262868, -0.149605, 0.106847, -0.190625, 0.087536, 0.23208, -0.15252, -0.17999, -0.079034, 0.152106, 0.32611, -0.217271, 0.089535, 0.094035, 0.092104, 0.245665, 0.210457, 0.08906, 0.238911, 