{"model": {"name": "MNIST-8", "title": "The Portrait", "description": "Recognizes handwritten digits (0-9) with ~99% accuracy", "source": "onnxmodelzoo/mnist-8", "source_url": "https://huggingface.co/onnxmodelzoo/mnist-8", "architecture": "CNN (conv\u2192pool\u2192conv\u2192pool\u2192reshape\u2192dense)", "year": 2019, "total_params": 5994}, "layers": [{"name": "Parameter193", "shape": [16, 4, 4, 10], "dtype": "float32", "min": -0.759514, "max": 1.186131, "mean": -0.001779, "std": 0.196583, "weights": [0.091633, 0.121436, 0.085351, 0.122607, -0.098754, -0.112124, -0.035733, -0.096262, -0.147887, 0.034859, -0.048447, 0.136893, 0.146055, -0.119769, 0.208041, -0.227133, 0.423336, 0.058677, -0.167316, -0.370828, -0.192239, 0.09432, 0.093692, -0.010436, 0.230592, -0.452457, 0.002501, -0.012435, 0.031778, -0.304293, 0.018026, 0.024281, 0.287353, 0.17099, -0.074395, 0.017668, -0.105358, -0.081811, 0.059879, 0.000473, -0.153508, 0.120629, 0.10766, 0.094459, -0.06985, -0.025683, 0.109131, -0.083177, 0.082579, -0.175708, -0.168168, 0.10514, -0.174314, -0.082282, 0.464749, 0.030261, -0.159339, 0.199583, -0.101043, -0.494541, 0.329589, 0.17751, 0.411383, 0.123261, -0.275757, -0.466294, -0.371276, -0.020995, -0.128001, 0.04856, 0.381666, -0.231979, 0.407884, 0.022658, 0.077862, -0.670184, -0.061176, 0.046767, -0.032938, 0.142248, -0.128555, 0.025974, -0.008958, 0.179392, -0.03346, -0.027158, 0.130296, -0.045492, 0.053679, 0.02185, -0.005966, -0.049667, -0.158914, 0.108843, -0.170066, 0.349573, -0.174302, 0.165479, -0.14037, -0.173734, -0.036602, 0.040104, 0.191957, 0.042517, -0.163825, 0.441913, 0.076966, -0.437643, 0.049478, -0.23577, -0.098256, -0.405472, -0.373022, 0.243689, -0.521596, 0.566889, 0.555222, -0.10443, 0.180028, -0.113761, -0.03965, -0.112143, -0.00237, -0.003144, -0.102768, 0.019041, -0.072142, -0.062952, 0.086914, 0.059526, 0.180386, 0.107879, -0.196016, 0.008016, 0.0633, 0.014802, -0.071893, 0.106877, -0.245047, 0.015252, -0.335182, -0.032788, -0.159072, 0.584229, -0.073509, 0.515739, 0.161143, -0.200411, 0.086111, -0.266738, -0.482521, 0.04046, -0.025884, 0.29951, -0.217645, 0.081164, 0.26656, -0.290179, 0.266598, -0.203052, -0.124298, 0.005965, 0.224363, 0.136541, -0.028027, -0.280919, 0.022815, 0.065109, -0.146042, 0.102124, -0.13725, 0.056103, -0.081117, 0.007112, -0.206688, 0.113201, -0.180135, 0.359819, -0.229814, 0.007775, -0.212654, -0.102508, 0.091096, 0.271352, -0.145044, 0.087233, -0.070213, 0.135835, 0.117574, -0.006082, -0.038575, 0.085977, 0.047412, -0.03664, 0.081663, 0.084217, 0.134744, -0.06303, 0.005546, 0.077292, -0.024022, -0.073858, 0.242662, 0.200283, -0.127524, -0.375825, -0.257335, 0.170245, -0.072719, -0.000427, -0.035064, 0.252288, 0.296309, 0.176915, -0.407115, -0.179247, -0.486877, 0.746155, -0.043487, -0.040731, 0.056606, -0.283467, 0.067539, -0.274777, -0.29532, 0.319454, -0.099772, 0.3589, -0.137107, -0.060716, 0.089189, -0.1239, -0.481408, -0.120986, -0.07548, 0.50706, 0.161705, 0.033461, -0.012951, 0.109995, -0.181182, -0.209072, 0.170701, 0.208456, 0.103942, 0.164942, -0.051941, 0.297821, -0.119818, -0.177289, -0.142603, -0.002903, -0.156933, -0.061181, 0.183681, 0.27372, -0.090102, -0.118381, 0.027255, 0.334325, -0.144305, -0.288839, -0.255013, -0.097277, 0.577771, -0.29129, 0.185728, -0.233186, 0.181666, -0.010372, -0.038153, -0.089156, 0.646584, 0.167406, 0.126802, -0.097927, 0.214165, 0.264532, 0.053868, -0.759514, -0.202906, 0.348342, -0.137469, 0.28686, 0.21478, 0.098531, -0.24042, 0.159542, -0.226771, 0.017161, 0.011399, 0.17519, 0.049925, 0.077433, -0.045792, 0.024459, -0.051444, -0.488747, -0.065805, 0.100736, 0.268343, -0.039823, 0.097931, -0.039592, -0.076084, -0.000104, 0.032687, -0.311941, 0.089076, -0.28973, -0.078995, 0.248337, 0.655972, -0.289599, 0.34634, -0.427605, -0.062537, 0.041399, -0.094824, -0.142662, 0.036459, -0.131769, 0.011298, -0.041947, -0.025356, -0.177284, 0.048712, 0.00712, -0.035151, -0.120653, 0.038311, -0.196702, 0.152216, 0.066545, 0.026643, -0.182234, -0.200744, 0.247635, 0.142725, -0.012629, 0.126019, -0.018153, -0.011578, 0.113744, -0.333383, -0.131095, -0.144652, 0.218757, 0.289406, 0.250084, 0.173968, 0.101971, -0.256145, -0.112037, -0.059131, 0.035207, -0.040824, -0.088401, -0.017499, 0.035033, -0.103433, 0.069424, 0.28201, 0.066552, -0.166502, 0.066178, -0.164539, 0.408509, 0.062597, -0.063615, -0.283892, 0.183133, 0.494469, 0.296748, -0.271682, -0.007658, -0.496661, 0.343238, 0.095085, -0.277071, 0.193093, -0.243123, 0.222898, 0.180623, -0.340442, 0.024597, -0.120146, 0.333556, -0.237997, 0.030691, 0.020852, -0.057641, -0.012411, -0.25374, -0.337107, 0.497321, 0.40418, 0.022526, -0.223723, 0.001989, -0.318995, 0.02987, 0.17537, 0.214424, 0.267106, 0.10952, -0.283083, 0.327676, 0.275531, -0.377098, -0.674205, -0.424233, -0.175664, 0.222078, 0.525863, 0.498521, -0.734214, -0.072463, -0.03177, 0.61411, 0.275304, -0.181571, 0.010792, 0.277835, 0.048653, 0.191944, -0.142253, 0.094153, -0.142212, -0.047759, 0.138187, 0.113774, -0.002222, 0.012143, -0.128018, 0.210845, 0.098576, -0.007353, -0.091377, -0.186092, 0.093677, 0.219869, 0.013782, 0.018539, 0.100219, 0.057505, 0.087401, -0.259195, 0.051177, 0.03162, 0.075614, -0.215515, -0.184999, 0.269176, -0.232291, 0.240111, 0.213743, -0.533235, -0.078756, 0.211776, 0.170553, 0.536265, -0.199514, -0.005656, -0.195226, -0.124024, 0.067578, -0.121892, 0.054548, -0.301037, -0.000549, 0.171504, 0.770248, -0.270902, 0.058912, -0.143505, -0.023597, -0.02225, -0.234052, -0.275764, 0.100745, -0.13298, -0.135685, 0.150512, 0.1359, -0.083648, 0.143349, 0.108986, -0.109577, 0.004638, 0.082125, -0.056979, -0.0326, 0.166974, -0.116606, 0.130341, 0.115911, 0.084029, -0.139845, -0.004339, -0.075538, 0.075294, 0.146202, -0.073161, -0.164933, -0.048174, 0.114243, -0.165612, -0.099321, -0.173141, 0.098063, 0.052351, 0.035869, 0.000258, -0.110364, 0.079445, -0.014253, 0.04475, -0.096029, -0.065155, 0.018661, 0.105787, 0.112246, 0.173224, -0.065566, 0.032208, 0.066157, -0.102996, -0.045623, -0.09078, 0.085492, -0.068819, 0.329749, -0.138027, -0.062971, 0.172027, -0.05756, -0.139367, -0.278389, -0.003641, -0.168499, 0.400884, 0.105273, -0.030057, -0.314054, -0.006559, -0.018897, -0.023098, -0.207947, 0.116399, -0.045965, 0.121453, 0.118012, 0.357218, -0.188513, -0.13271, 0.216019, -0.071184, -0.060279, -0.014309, 0.098096, -0.108073, 0.030968, -0.097609, 0.024996, -0.241019, 0.02735, 0.002107, 0.119292, 0.096937, 0.319008, -0.1662, 0.163915, -0.249009, 0.032387, 0.095036, 0.063718, 0.393201, -0.399252, -0.189668, -0.243474, 0.372649, -0.353354, 0.005322, -0.044946, 0.058481, -0.262205, -0.059139, -0.355988, 0.206966, 0.270226, 0.215487, -0.357422, -0.008916, -0.399029, 0.013715, 0.026476, 0.142182, -0.20252, 0.278638, -0.000418, -0.192497, 0.158933, -0.023108, 0.028147, 0.116531, -0.017896, -0.056496, -0.080031, -0.073783, -0.103592, 0.042671, 0.345543, -0.355487, 0.064547, -0.092807, 0.116241, 0.214428, 0.28783, -0.360014, -0.314294, 0.087995, -0.403667, 0.049286, 0.260438, -0.045605, -0.085109, 0.38491, 0.251786, 0.030066, -0.19148, 0.01046, -0.164272, 0.101341, 0.074303, 0.071573, -0.134038, -0.191745, 0.004586, 0.012936, -0.016513, 0.002726, -0.009124, 0.115111, 0.068505, -0.103431, 0.116193, 0.015174, 0.027512, -0.029467, 0.087821, 0.170255, -0.106537, -0.115978, -0.138295, -0.012641, 0.104214, -0.072207, 0.042694, 0.082863, 0.016975, 0.25776, -0.110461, -0.142681, 0.088145, 0.230499, -0.040311, -0.075071, -0.315773, -0.022311, -0.144335, -0.072524, -0.158365, -0.157572, -0.066364, 0.354096, 0.006869, 0.037796, -0.28033, 0.018679, 0.020666, 0.068742, 0.20166, 0.096274, -0.118003, 0.120347, -0.017264, 0.050676, 0.109201, -0.042566, -0.028189, 0.22206, 0.130201, -0.052752, 0.124635, 0.086309, 0.049559, 0.194073, -0.327035, -0.205312, -0.238267, -0.276909, 0.060951, 0.195078, 0.079651, -0.147883, -0.201779, -0.078612, -0.021125, 0.622373, -0.127969, -0.090952, -0.105528, 0.290632, -0.05614, 0.057905, -0.082869, 0.01939, 0.339653, -0.041523, -0.1749, 0.13207, -0.014569, -0.117743, 0.068584, -0.042672, 0.141761, 0.063681, -0.192491, -0.113412, -0.012102, 0.107206, 0.301873, -0.12482, -0.0368, 0.293041, -0.262276, -0.053627, -0.084979, 0.121521, -0.007846, -0.295975, 0.081625, 0.384331, 0.087794, 0.0656, 0.147281, 0.125339, -0.05561, 0.251642, -0.001534, -0.180293, -0.164643, -0.117555, -0.115835, -0.107092, 0.166185, 0.088795, 0.114616, -0.1936, -0.151425, 0.055989, 0.135939, -0.030918, -0.012382, 0.082379, 0.065155, -0.059718, -0.149127, 0.128918, 0.244186, -0.167597, 0.089276, 0.035737, -0.089319, -0.002873, -0.13407, -0.230936, 0.039059, -0.167248, 0.178623, -0.094337, -0.018777, 0.137038, -0.322263, 0.217611, 0.331986, -0.475622, 0.447546, -0.307872, -0.152694, 0.182179, -0.088861, 0.165065, 0.041542, 0.182645, 0.002866, -0.304663, 0.150937, -0.067663, -0.166773, -0.137675, 0.087008, -0.040442, -0.036985, -0.180925, 0.041051, 0.124303, -0.042396, -0.063714, -0.135633, 0.090076, 0.143954, 0.196906, -0.030341, 0.045684, 0.065773, -0.047241, 0.08912, 0.040352, -0.052274, -0.155778, 0.192289, 0.135431, -0.01175, 0.063122, -0.027514, 0.019691, -0.076313, 0.040844, -0.033645, -0.07005, -0.049872, -0.147423, 0.050484, -0.01513, 0.108181, 0.099206, -0.136594, -0.040514, -0.090934, 0.235692, -0.259679, -0.044389, 0.028831, 0.051761, 0.003889, 0.156903, 0.101291, -0.207418, -0.094032, 0.254923, -0.151594, -0.378087, 0.149543, 0.102861, -0.218113, -0.000877, -0.116239, 0.09086, 0.531831, 0.184823, 0.154653, -0.077, 0.075713, 0.239943, -0.451642, 0.002048, -0.398114, -0.130661, -0.02499, 0.068978, -0.041593, 0.065665, -0.063462, 0.046806, -0.012554, -0.11577, -0.233195, -0.276802, -0.013631, -0.292409, -0.402077, -0.366943, 0.336439, -0.050368, -0.041783, -0.259968, 0.299792, 0.438018, 0.059687, -0.007905, -0.381473, -0.219063, 0.251765, 0.173696, -0.174495, -0.154688, 0.180832, 0.357749, -0.0438, 0.371457, -0.452538, 0.187283, -0.013137, -0.142993, -0.575445, -0.129227, 0.173299, 0.382661, 0.153349, -0.159473, 0.037097, -0.017344, -0.034519, -0.174834, 0.109003, 0.074997, 0.152214, -0.041262, 0.067776, -0.155024, 0.163546, 0.227854, 0.046849, -0.029828, 0.103998, -0.189683, 0.135707, -0.090226, 0.263276, -0.284641, 0.648095, -0.13615, 0.064601, 0.030096, 0.277058, -0.222012, 0.161042, -0.239828, -0.224408, -0.014263, 0.455224, -0.014288, -0.197048, -0.27395, 0.177227, 0.072222, -0.119476, -0.071905, 0.109041, -0.175172, -0.089038, 0.1717, -0.059559, 0.114024, 0.165221, -0.351605, -0.034481, -0.117401, -0.13414, -0.160116, 0.264115, 0.108979, -0.089426, -0.173262, -0.054332, 0.04579, 0.08168, 0.085113, 0.080213, -0.241751, 0.372253, -0.100945, -0.156682, 0.050913, 0.199778, -0.244892, 0.134822, 0.002194, -0.031168, 0.121358, -0.126888, -0.189581, 0.166674, 0.030472, 0.155045, -0.052737, 0.026271, -0.227457, -0.134373, 0.305702, -0.092978, -0.184758, 0.399563, -0.221199, 0.172163, -0.029635, 0.10997, -0.090304, -0.003445, 0.148451, 0.051591, 0.171005, 0.020391, -0.273742, -0.225818, -0.144993, -0.050254, 0.257335, 0.178922, -0.416384, 0.023735, -0.172615, -0.510241, 0.123437, -0.305919, 0.037345, 0.192637, 0.472672, -0.108742, 0.006102, -0.046458, -0.487041, 0.040323, 0.08468, 0.513751, -0.065563, 0.150308, -0.040174, -0.21602, 0.244901, -0.135021, 0.104656, 0.719252, -0.127151, -0.264004, 0.122732, 0.003512, -0.622161, 0.063863, 0.029397, 0.336045, -0.029485, 0.109024, 0.11318, -0.202344, 0.242994, 0.109088, -0.323201, -0.141925, -0.064452, 0.199935, 0.03344, -0.01184, 0.02317, 0.032494, 0.099181, 0.008782, -0.424652, 0.127948, 0.346369, -0.286243, 0.268463, 0.209644, -0.191322, 0.330554, -0.3035, -0.002594, -0.12514, 0.237632, 0.245814, 0.200308, -0.112343, -0.2525, -0.113383, -0.32862, -0.21314, -0.075293, 0.385391, -0.23673, 0.413897, -0.118504, 0.040506, 0.058681, 0.428402, -0.332509, -0.018638, -0.299636, -0.08991, -0.103889, 0.003192, -0.125707, -0.038308, -0.409147, 0.023243, -0.178908, 0.321488, -0.255264, 0.110983, 0.100227, 0.128406, 0.003089, 0.128381, -0.103032, 0.229763, -0.312355, 0.146397, 0.051805, 0.181075, -0.076247, 0.016001, -0.243319, 0.303687, -0.426126, 0.272492, 0.038119, 0.015781, 0.315275, -0.021302, 0.049029, -0.01311, 0.069025, 0.006003, -0.182535, 0.089752, 0.028872, -0.037357, 0.12274, 0.062205, 0.10933, -0.091018, 0.169651, -0.323017, -0.141454, 0.257461, 0.124832, -0.053707, 0.006776, 0.029081, -0.008327, 0.183395, 0.012635, -0.059542, 0.007076, 0.1614, 0.051673, -0.03312, -0.146788, -0.041794, 0.024336, -0.040318, -0.071985, -0.062112, -0.099069, -0.077606, 0.124999, 0.056963, 0.087717, 0.129304, -0.002995, -0.101944, 0.002679, -0.070134, 0.095565, 0.156701, 0.103964, 0.143708, -0.198551, 0.200646, -0.248684, 0.017768, 0.107132, 0.492928, -0.268571, -0.121224, -0.126998, 0.052572, -0.269399, -0.107555, 0.197605, 0.208467, 0.188446, -0.11504, -0.305291, -0.116828, -0.347813, 0.520727, -0.471264, -0.232849, 0.154628, 0.256025, 0.180897, -0.349157, -0.083259, -0.082077, 0.202581, 0.171142, -0.176448, -0.173752, 0.270336, -0.080974, 0.071272, -0.451048, 0.068338, -0.061999, 0.267667, -0.034746, 0.045133, 0.028333, -0.053918, 0.272164, 0.120159, -0.052361, 0.05582, 0.001128, -0.09788, 0.089425, 0.240421, -0.166656, -0.163509, 0.179952, -0.008891, -0.0283, -0.128644, 0.038299, -0.007998, 0.416053, -0.206395, -0.128603, 0.13438, -0.002045, -0.278767, -0.289559, -0.122677, -0.143306, 0.120254, -0.02011, 0.029676, -0.032738, 0.085387, -0.005822, 0.276995, -0.092916, 0.040738, -0.064868, 0.067353, -0.407321, 0.176788, -0.050113, -0.443518, 0.133014, -0.003133, -0.569022, 0.353232, -0.153208, 0.072061, 0.341083, -0.01567, 0.019037, -0.110051, -0.140405, 0.082163, 0.315339, 0.318229, -0.002259, 0.032969, -0.07362, -0.231913, 0.082881, 0.330503, -0.11705, -0.138655, 0.117418, -0.118592, 0.244, 0.010464, -0.163043, -0.099389, -0.102057, -0.03557, -0.199051, 0.184923, 0.000655, -0.011042, -0.046467, 0.180755, -0.208112, -0.010685, 0.110086, -0.322029, -0.055058, 0.290915, 0.200482, -0.296369, -0.072244, 0.191803, -0.483878, 0.28765, 0.140552, 0.279582, -0.036533, 0.080839, -0.170955, -0.124412, -0.270373, 0.388943, -0.350348, -0.099319, 0.408555, 0.163947, 0.234872, -0.08233, -0.233469, 0.240825, 0.051765, 0.267326, -0.099583, -0.148121, -0.159102, 0.045941, 0.118712, -0.243284, -0.140353, 0.207648, -0.184555, 0.158596, 0.124593, -0.026589, 0.050126, 0.020599, 0.057901, -0.064374, -0.015592, 0.148607, -0.104683, -0.126434, -0.161236, 0.02802, -0.170077, 0.157819, 0.120431, -0.164918, 0.362788, -0.266602, -0.141669, 0.095348, 0.063313, -0.425641, -0.093228, 0.067736, 0.103831, 0.354219, 0.010336, -0.080886, -0.050608, -0.201088, 0.021329, 0.184009, -0.169329, 0.022277, -0.109802, -0.074432, -0.575048, 0.353765, 0.120637, 0.205477, -0.03215, 0.132418, -0.236482, -0.092828, -0.129458, 0.108445, -0.473647, -0.047015, -0.245308, -0.115699, -0.183562, 1.186131, -0.210269, -0.137194, -0.084515, 0.406608, 0.168705, 0.114005, 0.123497, -0.355294, 0.191799, -0.185023, 0.065582, 0.200257, -0.081793, -0.191737, -0.084483, -0.085311, -0.005564, -0.209168, 0.085576, 0.003215, 0.036852, 0.037803, -0.121562, 0.104489, 0.023454, -0.110038, 0.058687, -0.055489, -0.003145, -0.098149, 0.056438, -0.083164, -0.071261, -0.330113, 0.211892, -0.034644, 0.191384, 0.129927, 0.106237, -0.236835, 0.108481, -0.311367, 0.169693, -0.077528, 0.510507, 0.117747, 0.183046, -0.171514, 0.210255, -0.298647, 0.38012, -0.012969, 0.072469, -0.267932, 0.20185, -0.047207, 0.124086, -0.066401, 0.067746, -0.065604, 0.056146, -0.033378, -0.046186, -0.111726, -0.005839, 0.011889, -0.020987, 0.250511, -0.109633, -0.008054, -0.237165, -0.00418, 0.210669, -0.103009, -0.085161, -0.054498, 0.17424, 0.26346, -0.157054, -0.013422, -0.134246, 0.01721, 0.109917, 0.121876, -0.153961, 0.1192, 0.040044, 0.213841, -0.178369, 0.086986, -0.249951, -0.057437, 0.048114, -0.028345, 0.035968, -0.054027, 0.039885, 0.19367, -0.08633, 0.095354, -0.080779, 0.126326, -0.109083, -0.293514, -0.070664, -0.110343, 0.325034, 0.10949, -0.042041, 0.184639, -0.087885, -0.05126, 0.091635, -0.073134, -0.107626, 0.212734, 0.217358, 0.08537, -0.241664, 0.015557, 0.145948, 0.252815, -0.090937, 0.151023, -0.044496, 0.134435, -0.127739, -0.195958, 0.32715, -0.370974, -0.360663, 0.163902, -0.197979, -0.214794, 0.206409, -0.129359, -0.048108, 0.118729, -0.008913, 0.067277, -0.234039, 0.004118, -0.34854, -0.307677, -0.12646, -0.017402, -0.041845, 0.40266, -0.17708, 0.264575, 0.177533, 0.037758, -0.042819, -0.231779, 0.059191, -0.156047, 0.012211, 0.089574, -0.176552, 0.05512, -0.162761, 0.086645, 0.407304, -0.296268, -0.249788, 0.145623, 0.12931, -0.419715, 0.054579, -0.153736, 0.225123, 0.083173, -0.162404, -0.090454, 0.047388, 0.124468, -0.021908, -0.090757, -0.146789, -0.099022, 0.183666, 0.074997, -0.248586, 0.271024, -0.032213, 0.133256, -0.060472, 0.076047, -0.173619, 0.180748, -0.305239, 0.107796, 0.007794, 0.087065, -0.280307, -0.142896, -0.51286, 0.225436, 0.12629, 0.27168, -0.042783, -0.747541, 0.048418, 0.17133, -0.258591, 0.772688, -0.398736, -0.382349, 0.579676, -0.255402, 0.710736, -0.251272, -0.081352, 0.127136, -0.060933, 0.233305, 0.028568, -0.094372, -0.114926, 0.033605, 0.191101, -0.069292, -0.049172, -0.068511, -0.051826, -0.176286, -0.185644, -0.088431, 0.159079, 0.036971, 0.082533, 0.044573, -0.026303, -0.070674, 0.108156, 0.008186, -0.171953, 0.160804, -0.079489, 0.052306, 0.228208, -0.305517, 0.107815, 0.054908, 0.410605, 0.012804, -0.184952, 0.100832, 0.029781, -0.223109, -0.106744, -0.286482, 0.002728, -0.01876, 0.027878, -0.02821, 0.177014, -0.001138, -0.169333, 0.045642, -0.126226, -0.097073, -0.106898, 0.063705, -0.049211, -0.133535, -0.127579, 0.023958, 0.02176, 0.077891, -0.166377, 0.223963, 0.187837, -0.121222, 0.059837, -0.125999, -0.233385, -0.073224, 0.000994, -0.015201, -0.198498, -0.189185, 0.13619, 0.211574, -0.022062, -0.016799, 0.13569, 0.100372, 0.454717, -0.163718, -0.228859, 0.0175, -0.213396, -0.097509, 0.201977, 0.261004, 0.215278, 0.144483, 0.005367, 0.12227, -0.124295, 0.015986, -0.127772, 0.085076, -0.223918, 0.085098, -0.04478, -0.041204, -0.008553, -0.107703, -0.114226, -0.158966, 0.222849, -0.115561, -0.172808, -0.018718, -0.015932, 0.012573, 0.024435, 0.148413, 0.166721, -0.211417, 0.014692, -0.193793, -0.1527, 0.170626, 0.074718, -0.119018, -0.099219, 0.036503, 0.311059, -0.095946, -0.102067, 0.44936, -0.193713, 0.238772, -0.129083, 0.026861, 0.256614, -0.19875, -0.128592, -0.031513, -0.106289, -0.038086, 0.032054, -0.062358, -0.080609, 0.133183, 0.082745, 0.082193, 0.031109, 0.010711, 0.03021, -0.461904, 0.183661, 0.021655, -0.08007, 0.016973, -0.044259, 0.075829, 0.138426, 0.234127, -0.019942, 0.067327, -0.069743, 0.05041, 0.038052, -0.122168, -0.087186, -0.063723, 0.169742, -0.110442, 0.059044, 0.458985, -0.143965, 0.152118, 0.144694, -0.076339, -0.301067, -0.052855, 0.230536, -0.2242, -0.108529, -0.04728, 0.137984, -0.252337, 0.153898, -0.081592, 0.178505, 0.235938, -0.180193, 0.056356, 0.182241, -0.06072, 0.035344, -0.083841, -0.009766, -0.105822, -0.10066, 0.073828, 0.162495, 0.162544, 0.072659, -0.267459, 0.067001, 0.195639, 0.173963, -0.33209, -0.212387, 0.02149, -0.04045, 0.082852, -0.049669, -0.042289, -0.053611, 0.234679, 0.27542, 0.037423, 0.237937, 0.014686, -0.101862, 0.08472, -0.051155, 0.025491, -0.399948, 0.343912, -0.074297, 0.098247, 0.153966, -0.229743, 0.185363, 0.055325, -0.027598, -0.094067, -0.110523, -0.083261, 0.165595, 0.192819, -0.162051, -0.284609, -0.003471, -0.109368, 0.265442, -0.033144, -0.093318, -0.138839, 0.070878, 0.259863, 0.172309, -0.255025, -0.056697, 0.073147, -0.059905, -0.092049, -0.225433, -0.154452, -0.001168, 0.266908, 0.126066, 0.322237, -0.129376, 0.041059, -0.152878, 0.467581, -0.250576, -0.080776, -0.14849, 0.07388, -0.325736, -0.067549, 0.007706, -0.015723, 0.236431, 0.463103, -0.278856, -0.149263, -0.076764, 0.235663, -0.051554, 0.502246, -0.520684, 0.009284, -0.010786, 0.383942, -0.157891, 0.02677, -0.250806, 0.133718, 0.01412, -0.228112, 0.380835, 0.08239, -0.050353, -0.279581, 0.14998, -0.129011, 0.101947, -0.089204, -0.080021, 0.006871, -0.14489, -0.11828, 0.086427, -0.123361, 0.390457, 0.003075, -0.049738, -0.218805, 0.153113, 0.133887, 0.11547, -0.032118, -0.105032, 0.209686, -0.028828, -0.226203, 0.096773, -0.220464, 0.122976, -0.139099, 0.042976, -0.098956, 0.065278, 0.0293, 0.085864, -0.197324, 0.09793, -0.027094, -0.148867, -0.025338, 0.239114, -0.013518, -0.09969, -0.091161, 0.016077, 0.277248, -0.105126, -0.095911, 0.042365, -0.050582, -0.21266, 0.117735, 0.05307, -0.147926, -0.02677, 0.093371, -0.101494, -0.024235, 0.05025, -0.009657, 0.105959, 0.080391, -0.149537, 0.072101, 0.082218, -0.093068, 0.093252, -0.27938, -0.009776, 0.16258, 0.045434, -0.001984, -0.06888, -0.185977, 0.004597, -0.207019, 0.056811, 0.162988, -0.157626, -0.100107, 0.068362, -0.083826, 0.062018, -0.260819, -0.182827, -0.154643, 0.221412, 0.297693, 0.142057, 0.026996, -0.188534, -0.104169, 0.111879, 0.19259, 0.121033, 0.003882, -0.041807, -0.128121, 0.00634, -0.124271, -0.053765, -0.059503, 0.033872, 0.273691, -0.00676, -0.098148, -0.03064, 0.101294, 0.069086, -0.021286, -0.206841, 0.160312, 0.504882, 0.124907, -0.11521, -0.225554, -0.0144, 0.091138, -0.155247, -0.209169, -0.095356, -0.315761, 0.157823, -0.137574, 0.110366, 0.000767, 0.175257, 0.287418, 0.161373, -0.187021, -0.085095, -0.255016, 0.10049, -0.088788, 0.016564, -0.065123, 0.137146, -0.252404, 0.242027, 0.207542, -0.043716, 0.258571, 0.177421, 0.134659, -0.319411, -0.024934, -0.247372, -0.228425, 0.293557, -0.158364, -0.004523, 0.072024, 0.32168, 0.071317, -0.002297, -0.107019, 0.168705, -0.000938, 0.270454, -0.106941, -0.269487, -0.0934, -0.353905, -0.300958, 0.352215, -0.066326, -0.317542, -0.227737, -0.055217, 0.476323, 0.31502, 0.007316, -0.385886, -0.100697, 0.149465, 0.031102, 0.085396, 0.089827, -0.025328, -0.097988, 0.261069, 0.197094, -0.007667, 0.494104, -0.183133, 0.111326, -0.090277, 0.167638, -0.233262, -0.218773, -0.197912, 0.121645, 0.067881, 0.144658, -0.220073, -0.04648, -0.020698, 0.001279, 0.14213, -0.250895, 0.015443, 0.34519, -0.346364, 0.020897, 0.308485, 0.058643, 0.046585, 0.221391, -0.124066, -0.077705, -0.074771, -0.107375, -0.074471, -0.037753, 0.063983, 0.113403, -0.137522, 0.166459, 0.032555, 0.107633, -0.040839, -0.002473, 0.306853, -0.168347, -0.284033, 0.357345, 0.155445, 0.18261, 0.146182, -0.180313, -0.244023, -0.067379, 0.146415, -0.03127, -0.378905, 0.364719, 0.088216, -0.072553, -0.070198, 0.007762, -0.428865, -0.092013, 0.391702, -0.311578, -0.114962, 0.239376, 0.081604, 0.092243, -0.080258, -0.067852, -0.32148, 0.211479, -0.133415, -0.235069, -0.179227, 0.060876, -0.042892, 0.217142, -0.206267, 0.201058, 0.080754, 0.224117, -0.57865, -0.048096, -0.23671, 0.337244, 0.142641, 0.296956, -0.269521, 0.050778, -0.014964, -0.135627, 0.015674, 0.01406, 0.54027, -0.425335, -0.259256, 0.05793, 0.263658, 0.080373, -0.242817, 0.120612, 0.089897, 0.489312, 0.179151, -0.060462, -0.682411, -0.26327, -0.13821, 0.280101, 0.136035, 0.278605, -0.142756, -0.364484, 0.01067, -0.046446, -0.112173, 0.230609, -0.070241, 0.251222, 0.118657, 0.289482, -0.313789, 0.112463, -0.51644, 0.357461, -0.193195, -0.176599, -0.047911, 0.155262, 0.366644, -0.098455, -0.04676, 0.19596, -0.133494, -0.054514, -0.008564, -0.20476, -0.204977, -0.173329, 0.033306, -0.058766, -0.004855, -0.189742, 0.118756, -0.090862, 0.094267, 0.141457, 0.220835, 0.027624, -0.056197, 0.158629, -0.144399, 0.164445, -0.152979, -0.167053, 0.041901, -0.091983, 0.0957, -0.026341, -0.044159, -0.174366, 0.284194, -0.485364, -0.294183, 0.262537, -0.088154, -0.213336, 0.442914, -0.100606, 0.394402, -0.551122, 0.059576, -0.153307, 0.133451, 0.47302, 0.045675, -0.189659, 0.546421, -0.349218, 0.502905, -0.265862, -0.079322, -0.385094, 0.30633, 0.16693, 0.098874, -0.009196, 0.055863, 0.225436, 0.03526, -0.05457, -0.004949, -0.132374, -0.101997, 0.031115, -0.0303, -0.084513, -0.037936, -0.103917, -0.096811, -0.101365, 0.323725, -0.268625, 0.049758, 0.106259, 0.005191, -0.161983, 0.100683, -0.054052, -0.210353, 0.119511, 0.261773, -0.135792, 0.007992, 0.364522, -0.290552, 0.151219, 0.030906, 0.090956, -0.46284, -0.217738, -0.005103, 0.145619, 0.214417, 0.206031, -0.141231, 0.158154, -0.008716, -0.098106, 0.079472, -0.139662, 0.061732, 0.067102, -0.016884, 0.098831, -0.055881, 0.015355, 0.13565, -0.125096, -0.032415, 0.068144, 0.051541, -0.089573, -0.19344, 0.040137, 0.126126, -0.020913, 0.0383, -0.268387, -0.1677, 0.133194, 0.195253, -0.027079, -0.013698, 0.149091, -0.110248, -0.267602, 0.17055, -0.310339, -0.130312, 0.0493, -0.159109, -0.015622, 0.051221, 0.139784, -0.105353, -0.147799, -0.16875, -0.076697, 0.250506, -0.003003, -0.177992, 0.012229, -0.0575, -0.110405, -0.025703, 0.072058, 0.128817, -0.107602, -0.037773, -0.14218, -0.01434, -0.112333, 0.37256, -0.208975, 0.139311, -0.108833, 0.206458, -0.13647, -0.020106, 0.053796, 0.114864, -0.059335, -0.286628, -0.197307, 0.259232, -0.044976, 0.128981, -0.03302, 0.104028, -0.104945, -0.361431, -0.407872, 0.532872, -0.44163, 0.473094, 0.231181, -0.336389, 0.404448, -0.158133, -0.097233, -0.056586, -0.084353, -0.071442, 0.156186, 0.181531, -0.167158, -0.094564, -0.120796, 0.018837, 0.162639, -0.06784, 0.058576, -0.043043, 0.1425, -0.162114, -0.18564, 0.059751, 0.267823, -0.027795, -0.131535, 0.175131, -0.150709, 0.130532, -0.170588, 0.077931, -0.285223, 0.122201, -0.092628, 0.137213, -0.202987, 0.003513, 0.188021, 0.02849, -0.009427, 0.022699, -0.098279, -0.180572, 0.467725, -0.162421, 0.100679, -0.019546, -0.070918, -0.042117, 0.007391, -0.052871, -0.115829, -0.126232, 0.05993, -0.14322, -0.104461, 0.041273, 0.117148, -0.120072, 0.176027, -0.175307, 0.257737, 0.168128, -0.019192, -0.19236, -0.147759, 0.147492, -0.236724, 0.108198, 0.052802, -0.253824, 0.394276, -0.00743, -0.120735, -0.138688, -0.097631, 0.048588, -0.17217, 0.053676, 0.066971, 0.022168, -0.000305, -0.032047, -0.059576, 0.066655, 0.037878, -0.072029, -0.014508, -0.09897, -0.058219, -0.06957, -0.062475, -0.109505, 0.136519, 0.106402, -0.169966, -0.192174, -0.311122, -0.066703, 0.268145, -0.186114, 0.397664, 0.023324, 0.057678, 0.217276, 0.260921, 0.06659, 0.005073, -0.511642, -0.036236, 0.130161, 0.278057, 0.03228, -0.37316, 0.012584, -0.289373, 0.264321, -0.191367, 0.064079, 0.437169, -0.37601, -0.117949, 0.271406, 0.0784, -0.106185, 0.057271, -0.025094, -0.032553, -0.098454, -0.042883, 0.066927, 0.01928, 0.129457, -0.131462, 0.101576, 0.394813, -0.219814, -0.330592, -0.259465, -0.025742, -0.187681, 0.040186, 0.517649, -0.032291, 0.033102, -0.066315, 0.369556, 0.086394, -0.217396, -0.327571, 0.203378, 0.041641, -0.037312, 0.256402, -0.261051, 0.297531, -0.132562, 0.348702, -0.400066, -0.023855, 0.152882, -0.350608, 0.401497, -0.005653, -0.255826, -0.030757, -0.121346, -0.141437, 0.059102, -0.087207, 0.090605, 0.009084, 0.006502, 0.005937, -0.008353, -0.177867, 0.450001, -0.155265, -0.210731, 0.06659, 0.162351, -0.065069, 0.001395, -0.184841, -0.112787, -0.100569, 0.098153, -0.200323, 0.005558, 0.363878, 0.112518, -0.463598, 0.061428, -0.373697, 0.518852, 0.128788, -0.118203, -0.139008, 0.207819, -0.272075, 0.269886, -0.22185, 0.235102, -0.036563, 0.122024]}, {"name": "Parameter87", "shape": [16, 8, 5, 5], "dtype": "float32", "min": -0.508858, "max": 0.564721, "mean": -0.030285, "std": 0.146355, "weights": [-0.048556, -0.091014, -0.006568, -0.128403, 0.1089, 0.084242, -0.168389, -0.271328, -0.019025, 0.069263, 0.039751, -0.011776, -0.063189, -0.15086, -0.112444, 0.069872, 0.000769, 0.083358, -0.181047, -0.118506, 0.003381, 0.251301, 0.193615, -0.054523, -0.12814, -0.424048, -0.270624, -0.259449, 0.081038, 0.087971, 0.009705, -0.229428, -0.064017, 0.021818, -0.049629, 0.169467, 0.235611, -0.019435, -0.135033, -0.042809, -0.066044, 0.186138, 0.181485, -0.144886, 0.030104, -0.139848, 0.113604, 0.105048, 0.051293, 0.057787, -0.155065, -0.133979, 0.078863, 0.116496, -0.135305, -0.124521, -0.207142, -0.142397, -0.061457, -0.084815, -0.189436, -0.220628, -0.216567, -0.086683, 0.064906, -0.259298, -0.103934, -0.33297, -0.13465, -0.031646, 0.028283, 0.089561, -0.108717, -0.187439, -0.223808, 0.103183, -0.047606, -0.026499, -0.021494, 0.0287, 0.047859, -0.001551, 0.103861, -0.088036, -0.054929, 0.076713, 0.026416, -0.257774, -0.284515, -0.208622, 0.017891, 0.067805, -0.034355, -0.304603, -0.126636, -0.010425, 0.117421, 0.169888, -0.067061, 0.055052, 0.174839, -0.065514, -0.138982, -0.308615, -0.104504, 0.092516, 0.299958, 0.061133, -0.223891, -0.217742, -0.086714, 0.034539, 0.121831, -0.143421, -0.141337, -0.423259, -0.035404, 0.053172, 0.024189, -0.016071, -0.120409, -0.162603, -0.096746, 0.035651, 0.013524, 0.143855, 0.019713, -0.337177, -0.223156, -0.16203, 0.167479, 0.452033, 0.267822, -0.124843, -0.218254, -0.149162, -0.076042, 0.257502, 0.102876, 0.065093, -0.420918, -0.311435, -0.036015, 0.046794, 0.114512, -0.053237, -0.136159, -0.266342, -0.213067, -0.030975, 0.054347, -0.170528, -0.289758, -0.04142, -0.24664, 0.099302, 0.195245, -0.09817, -0.270489, -0.149769, -0.085575, 0.001977, 0.054085, 0.046748, -0.161078, 0.02328, 0.065219, 0.245928, 0.060639, 0.012831, -0.094714, -0.105812, 0.229343, 0.204303, -0.089897, -0.24754, 0.14427, 0.051958, -0.023956, 0.100001, -0.057122, -0.075853, -0.057446, 0.051163, 0.086584, 0.062276, -0.154499, -0.140517, 0.020217, 0.027638, -0.10163, 0.028732, -0.128009, -0.227, -0.268779, 0.133241, 0.07807, -0.123453, -0.145398, -0.172905, 0.074909, 0.214723, -0.018659, -0.011618, -0.157766, -0.039294, -0.014341, -0.034944, 0.137512, 0.251747, 0.043739, -0.392666, -0.077907, 0.149976, 0.206182, -0.140932, -0.193144, -0.04336, 0.090226, 0.217073, -0.084002, -0.202228, -0.131567, -0.099874, -0.001719, -0.367492, -0.310116, -0.412471, -0.032394, -0.144286, -0.083221, -0.064908, -0.26589, -0.059059, -0.102317, 0.036359, 0.137126, -0.037483, -0.093327, 0.0069, 0.020246, 0.229914, -0.009018, -0.171176, -0.180405, 0.023169, -0.154038, -0.013067, -0.033201, -0.085214, -0.221923, -0.252132, -0.184726, -0.056225, 0.095508, -0.103685, -0.169781, -0.157362, 0.001822, 0.006112, -0.005999, 0.209041, 0.063899, 0.16539, 0.276629, -0.057493, 0.087018, 0.14773, 0.136453, -0.009539, 0.127818, -0.017677, -0.077896, -0.032709, -0.151629, 0.136412, 0.030063, -0.071477, -0.157362, -0.079863, 0.024309, 0.00658, -0.138672, 0.113434, 0.237442, -0.067065, -0.127261, -0.024228, 0.217669, 0.240519, -0.228206, -0.008573, -0.196179, -0.089304, -0.178433, -0.199129, -0.309467, -0.110694, -0.119344, 0.041691, 0.011481, -0.090591, -0.161486, -0.161615, -0.093631, 0.101206, 0.230564, 0.334107, -0.158728, -0.027988, 0.152278, 0.033162, 0.204067, 0.107593, 0.127169, 0.026433, -0.185521, -0.215196, -0.151438, -0.194367, -0.101677, -0.066822, -0.181594, -0.225463, -0.062224, -0.210348, -0.08713, -0.131685, -0.119112, -0.14958, 0.099941, 0.119547, 0.228441, -0.028587, 0.044225, 0.157517, 0.091884, 0.227444, -0.021808, 0.191688, 0.073691, 0.048926, -0.039209, -0.047053, -0.228916, -0.036141, 0.041426, -0.077624, -0.261123, -0.091201, -0.172927, -0.238343, 0.104337, -0.031184, -0.003995, -0.049886, 0.136456, 0.217239, -0.050168, -0.041978, -0.063437, -0.068912, 0.008541, 0.243607, 0.137917, -0.011154, -0.142929, 0.111513, 0.073135, -0.087788, 0.049116, -0.046765, -0.187538, -0.166397, -0.050797, -0.084757, 0.026826, -0.086493, -0.18648, 0.007361, -0.136381, -0.241127, -0.275541, -0.106011, -0.000821, -0.077418, 0.112605, 0.098098, -0.039618, 0.128056, 0.087522, 0.270421, 0.202684, 0.207521, 0.0398, -0.14928, -0.093582, -0.107852, -0.194711, -0.270801, -0.156678, -0.026622, 0.097031, -0.008689, -0.015095, -0.179637, -0.058608, -0.079108, -0.220678, 0.107593, -0.508858, -0.309909, -0.14242, 0.013918, -0.033272, -0.061173, -0.227978, -0.168904, -0.117381, -0.090992, 0.064955, -0.235621, -0.01675, 0.029221, 0.209676, -0.171338, 0.313874, 0.222079, -0.237403, -0.170769, -0.217997, 0.198493, 0.168926, 0.061567, -0.042811, -0.268385, 0.066308, 0.291913, 0.037549, 0.167334, -0.323848, -0.258868, -0.072615, -0.195387, 0.070853, 0.019214, -0.072978, -0.055036, -0.026403, -0.187989, 0.092896, -0.011831, -0.184253, -0.030384, -0.081063, 0.118309, 0.033954, -0.151596, -0.124621, 0.359871, 0.303853, 0.159778, 0.117419, 0.173842, 0.21724, -0.024623, -0.051878, -0.020101, 0.106444, -0.115461, 0.102509, -0.063519, -0.116507, -0.13353, -0.072714, 0.078179, 0.019656, 0.106194, 0.082681, 0.15437, -0.295056, -0.192118, -0.073086, 0.047795, 0.201832, -0.221505, -0.285807, -0.394114, -0.129095, -0.068529, 0.254258, 0.097442, -0.058493, -0.137329, -0.25296, 0.265342, 0.045385, 0.062249, 0.179555, 0.175259, 0.088528, 0.023114, -0.077022, 0.078093, -0.046564, -0.084251, -0.06462, -0.12552, -0.084051, 0.014204, 0.035414, -0.164642, -0.244632, -0.369409, -0.180503, 0.139389, 0.102908, -0.099974, -0.155363, -0.40148, 0.080118, 0.116364, 0.048825, 0.206917, 0.104734, -0.004641, 0.003771, -0.18882, 0.091536, -0.088691, -0.046446, -0.161734, -0.038405, -0.048633, -0.051888, 0.065911, 0.021948, -0.127577, -0.193639, -0.270086, 0.094384, 0.227309, 0.095361, -0.040723, -0.237927, -0.140058, 0.040095, 0.21479, 0.069427, 0.304658, -0.067589, -0.060337, -0.01388, 0.223296, 0.12044, -0.062507, -0.077732, 0.004389, -0.066045, -0.300842, -0.138733, -0.22091, -0.161325, -0.272167, -0.283972, -0.215632, -0.07375, -0.195949, -0.273232, -0.262514, -0.186296, 0.225448, 0.021181, 0.000812, 0.011186, 0.065824, -0.033685, -0.206505, -0.205609, -0.207462, -0.019832, 0.050507, 0.004716, -0.050313, 0.236217, -0.06443, 0.05347, 0.269031, 0.345634, 0.204487, -0.415508, -0.246144, -0.10449, -0.044807, 0.026932, 0.087068, -0.224413, -0.228996, 0.006508, -0.018077, 0.336372, 0.05157, -0.102363, -0.057822, -0.160255, -0.009699, -0.209227, 0.087366, -0.098762, -0.136533, -0.050852, -0.159481, 0.08125, 0.058581, -0.056563, -0.011578, -0.125717, 0.153675, -0.035382, -0.020447, -0.165686, -0.330961, -0.224215, 0.018195, -0.227919, 0.069339, 0.12478, 0.124197, -0.0502, 0.00145, 0.097535, 0.261488, 0.042471, -0.091761, 0.266039, 0.012044, 0.06349, 0.291733, -0.20981, -0.080984, -0.151462, 0.016935, 0.026249, -0.287721, -0.155632, -0.115881, -0.16594, -0.048605, -0.091462, -0.342422, -0.082486, -0.1464, 0.061706, -0.064245, 0.105319, 0.032597, -0.040152, -0.04185, -0.146415, 0.046501, -0.191592, -0.097203, -0.026763, -0.008711, -0.183443, 0.032487, 0.054896, 0.056508, 0.090491, -0.072835, 0.040771, 0.017704, 0.023166, 0.085411, 0.073273, 0.073882, 0.196807, 0.132881, -0.081109, -0.092048, -0.021185, 0.064958, 0.016647, -0.199922, -0.392018, 0.053379, 0.148321, -0.015931, -0.046821, -0.187672, -0.03878, -0.096077, -0.241411, -0.110347, -0.124823, -0.19418, -0.211135, -0.089359, -0.112169, -0.197769, -0.114116, -0.059595, 0.09872, -0.003047, 0.094848, -0.276174, -0.276249, 0.107394, 0.166907, -0.155304, -0.10048, -0.056417, -0.169394, 0.110605, -0.128677, -0.227654, -0.096307, -0.101924, -0.102518, -0.091032, -0.098787, -0.12662, -0.070145, -0.033577, -0.203959, -0.139304, -0.224771, -0.083559, 0.023859, 0.160868, -0.157871, -0.236403, -0.186597, 0.082944, 0.007717, -0.189907, -0.036832, -0.142159, -0.045879, 0.03693, -0.282957, -0.165517, -0.185511, -0.230047, -0.04457, -0.207191, -0.062285, -0.026583, -0.090802, -0.017691, -0.21378, -0.169951, -0.050516, 0.160601, -0.104726, -0.184313, -0.081753, 0.024124, 0.316237, -0.02062, -0.037059, -0.015898, 0.069757, 0.408031, 0.192205, -0.15208, -0.080552, 0.189934, 0.255582, 0.005666, -0.063586, -0.023514, 0.028533, -0.107984, -0.078388, 0.006925, -0.029964, 0.203614, 0.103029, 0.061371, -0.105917, 0.0767, 0.001045, 0.192208, 0.058428, -0.209158, -0.110736, 0.151666, -0.037136, -0.054176, -0.056278, 0.169171, 0.172884, -0.071865, -0.154831, 0.0973, -0.086269, 0.037754, -0.121441, -0.176405, -0.037444, -0.121177, -0.065088, -0.011593, -0.185985, 0.175558, 0.22806, 0.112513, 0.083502, -0.120515, 0.171829, 0.213516, 0.054748, 0.256514, -0.045141, -0.076722, -0.029421, 0.380922, 0.117307, 0.015837, -0.179276, -0.017594, 0.105008, 0.007059, -0.059886, -0.004474, -0.140424, -0.066795, -0.194518, -0.047927, 0.014082, -0.053112, 0.09745, 0.182352, 0.272383, 0.148274, -0.108978, -0.006138, 0.014541, 0.029185, -0.0424, -0.145705, -0.265111, -0.202587, -0.231833, 0.19146, 0.133518, -0.152051, -0.220324, -0.293601, -0.072192, -0.052352, 0.070466, 0.167093, 0.163022, -0.04534, -0.16537, -0.15743, -0.086234, -0.008764, -0.06531, -0.11711, -0.289089, -0.142346, -0.069938, -0.073392, 0.047022, 0.070687, 0.011643, 0.00153, 0.267942, 0.414761, 0.331884, 0.053091, -0.091267, -0.09106, -0.080527, -0.077548, -0.152182, -0.069443, -0.159721, 0.017591, 0.016775, -0.104255, -0.150798, -0.135426, -0.013738, -0.027242, 0.121566, -0.198238, -0.026045, 0.025637, -0.059034, 0.003525, -0.094389, -0.130697, -0.235979, -0.10785, -0.267683, -0.06996, 0.027143, 0.293198, 0.242312, 0.113478, 0.095105, -0.004526, 0.069093, 0.02957, -0.032949, -0.083667, -0.039084, 0.036164, -0.060119, 0.085932, -0.069088, 0.037781, 0.113119, -0.004552, -0.051908, -0.06595, -0.038536, -0.017827, -0.216605, -0.264727, -0.23419, -0.034517, 0.097887, 0.182913, 0.160251, 0.245313, 0.043765, 0.197357, 0.073656, 0.224202, -0.060025, -0.017072, -0.096801, -0.095512, 0.006014, -0.1256, 0.09679, 0.160556, -0.094975, -0.264954, -0.203992, 0.013761, 0.038153, -0.093695, -0.157254, -0.071382, -0.107055, -0.033424, 0.037139, -0.090267, -0.08426, -0.125849, -0.151149, 0.006971, 0.052099, 0.020854, 0.112423, -0.103674, 0.037396, 0.066068, 0.027191, 0.013806, -0.110924, -0.231437, 0.045839, 0.082292, -0.225445, -0.102541, -0.108955, -0.097851, -0.030702, 0.189108, 0.044401, -0.018865, -0.135286, -0.171143, 0.180681, 0.108075, -0.015967, -0.136108, -0.217886, -0.118581, -0.089904, -0.128007, -0.060014, -0.093087, -0.164874, -0.069091, 0.056394, 0.082276, -0.126861, 0.077143, 0.326619, 0.159214, -0.040446, -0.125865, 0.262159, 0.320227, 0.116919, 0.296372, 0.411778, -0.06388, 0.09631, -0.101933, -0.072297, 0.017784, -0.122061, 0.068828, -0.322233, -0.447399, -0.212171, -0.043825, -0.205571, -0.20136, -0.22634, -0.32503, -0.046348, -0.153298, -0.177613, -0.089012, -0.326164, 0.105924, 0.293174, 0.092201, -0.107426, -0.116801, 0.111871, 0.160634, 0.191083, -0.016946, -0.090856, 0.008669, -0.088025, 0.221108, 0.318053, -0.138626, 0.06047, 0.010047, 0.056254, 0.223648, 0.040924, -0.004037, 0.00077, 0.280228, 0.02984, -0.034009, -0.205504, -0.21601, -0.411732, -0.197504, -0.216394, -0.130901, -0.222611, -0.252795, -0.067054, -0.128845, 0.02805, 0.066926, -0.020717, -0.08569, 0.166143, 0.135743, 0.052031, -0.151119, -0.175593, 0.204228, -0.05561, -0.155169, -0.252577, 0.044608, 0.165347, 0.311695, 0.011384, 0.060121, -0.151812, 0.027345, -0.046187, -0.099347, 0.09043, -0.122416, -0.056363, -0.098767, -0.028134, -0.09707, -0.007189, -0.179894, -0.06402, -0.027164, -0.270915, -0.180154, -0.371274, 0.015378, -0.21974, -0.018036, -0.153707, -0.166509, -0.12866, -0.270614, -0.04103, 0.158586, 0.112007, 0.080544, -0.196786, -0.355466, 0.136481, 0.218133, 0.030192, -0.011388, -0.227483, -0.015775, 0.169198, 0.153694, 0.062938, -0.156449, 0.012701, 0.035062, -0.025815, -0.024137, -0.011329, 0.040517, 0.007802, 0.106362, -0.166881, -0.343484, -0.079478, -0.066479, -0.005903, -0.166149, -0.372806, -0.21828, 0.122084, 0.071615, -0.116699, -0.260563, -0.111462, 0.335713, 0.095225, 0.092882, -0.001361, 0.046091, 0.108617, -0.068754, 0.071323, 0.039005, -0.01605, -0.039236, -0.154877, 0.124825, 0.209575, -0.008378, 0.016263, 0.132768, 0.066954, -0.14268, 0.048112, 0.159046, 0.167327, -0.117737, -0.141071, -0.06907, 0.123296, -0.100331, -0.033035, -0.071343, -0.051095, -0.215207, -0.157705, 0.117081, 0.000162, 0.147322, -0.014442, 0.07704, -0.008179, -0.095133, -0.020987, 0.123527, 0.130234, 0.077313, 0.088981, 0.053873, 0.049466, -0.05157, 0.040203, 0.060204, 0.080136, 0.199949, 0.184557, -0.063299, -0.015164, 0.098984, 0.202257, -0.095174, -0.160161, -0.230639, -0.068105, -0.076093, 0.076098, 0.043694, -0.060168, -0.215979, -0.153422, 0.049612, 0.013782, -0.13849, 0.125415, 0.091492, -0.084703, -0.074927, 0.023262, 0.286896, 0.290024, -0.098552, -0.099182, 0.19267, -0.015411, 0.068801, -0.177978, 0.013997, -0.009338, -0.404013, -0.363498, 0.024537, -0.117016, -0.196841, -0.242792, -0.294934, -0.095469, -0.298809, -0.209164, -0.064546, -0.093524, -0.130631, -0.077195, -0.01551, -0.133187, 0.100566, -0.184218, 0.116811, 0.138886, -0.131016, 0.02081, 0.011935, 0.016695, -0.123285, -0.173368, 0.10685, -0.20629, -0.002552, -0.080226, -0.015918, 0.218019, -0.19791, -0.167359, -0.064033, -0.127155, 0.132188, -0.149623, -0.10591, -0.065563, 0.09608, 0.439964, -0.115453, -0.191348, -0.165511, -0.130052, -0.059268, -0.205212, -0.300431, -0.140504, 0.012871, 0.161724, 0.056493, -0.216129, -0.142697, -0.048416, 0.064981, -0.024837, -0.209562, -0.132785, 0.208227, 0.298171, -0.39584, 0.001232, 0.16063, 0.149216, -0.171945, -0.224176, -0.122407, 0.030757, -0.08544, -0.240145, -0.207205, -0.112909, -0.077784, -0.491243, -0.2607, 0.093977, -0.060372, -0.171948, -0.094841, 0.235667, 0.0299, -0.13375, -0.116786, 0.063696, 0.193898, 0.018222, -0.112508, -0.090057, -0.003735, -0.041516, 0.027678, -0.067048, -0.108074, 0.072796, 0.000375, 0.137447, -0.079716, 0.050222, -0.074564, 0.036286, 0.067271, 0.019621, -0.00704, -0.002458, 0.146579, -0.090131, -0.017205, -0.002973, 0.04067, 0.133265, -0.192627, 0.038514, 0.075978, -0.03894, 0.203658, -0.054587, -0.132797, -0.170763, 0.083082, 0.035948, 0.131952, 0.056625, -0.147934, -0.05143, 0.024911, 0.094973, 0.087715, -0.184507, -0.327458, -0.172331, 0.249727, 0.111319, -0.122258, -0.266618, -0.055616, 0.338431, -0.010742, -0.135537, -0.023338, -0.158588, 0.132914, -0.166594, 0.036642, 0.363294, -0.005289, -0.089353, -0.16783, 0.415466, 0.084015, -0.00549, -0.172762, -0.177699, -0.25431, -0.191842, -0.214915, 0.030371, -0.306942, -0.147482, -0.16317, -0.022662, -0.158912, -0.344991, 0.016576, 0.255465, 0.419566, -0.176767, -0.162953, 0.149469, 0.050473, 0.042422, -0.326342, -0.019804, 0.08633, 0.011281, -0.043401, 0.026078, 0.092235, -0.008472, -0.022898, -0.109388, 0.047744, 0.086326, -0.086978, -0.103494, -0.237133, 0.015207, 0.304371, 0.033186, -0.16774, 0.107886, 0.142896, 0.158329, -0.1016, 0.225703, 0.076337, 0.035477, -0.008996, 0.244898, 0.043585, 0.132702, -0.116421, 0.046962, -0.125628, -0.130455, 0.258987, 0.14625, 0.013969, -0.180839, -0.12267, 0.216692, 0.130433, -0.24795, -0.077552, 0.105803, 0.345349, 0.152303, -0.180384, 0.076284, -0.040477, 0.315589, -0.235635, -0.098767, -0.020774, 0.128663, 0.007795, -0.055679, -0.040692, 0.0181, 0.076027, -0.037095, -0.193766, -0.273931, 0.058647, 0.004963, -0.097194, -0.196674, -0.076983, 0.055396, -0.03639, -0.256361, 0.142717, 0.068272, -0.034363, -0.215791, -0.200463, 0.174299, -0.009858, -0.173095, 0.015865, -0.034803, 0.07329, 0.148241, 0.225613, 0.093832, 0.024869, 0.026194, 0.046981, 0.011033, -0.113488, 0.130106, 0.029542, 0.081722, -0.176261, -0.255582, 0.100133, -0.112866, -0.227743, -0.256539, 0.197281, 0.297104, -0.135237, -0.170272, -0.18492, 0.059242, 0.082742, -0.122281, 0.11721, 0.244197, 0.339537, -0.010054, -0.205734, -0.109888, -0.015992, -0.0863, -0.218842, -0.001197, -0.096902, -0.286057, -0.252494, -0.295063, -0.198787, -0.247176, -0.259626, -0.105964, -0.151802, -0.132663, -0.347637, -0.353213, -0.02694, -0.045172, 0.134747, 0.065519, 0.117326, 0.184162, 0.204524, -0.155597, -0.138078, -0.046304, 0.063743, 0.049375, -0.180821, -0.060561, -0.229066, -0.1111, -0.270365, -0.08327, -0.178546, -0.275113, -0.17375, -0.057544, -0.255633, -0.344458, -0.332092, -0.132414, -0.150731, -0.04586, -0.180267, -0.01955, 0.0928, 0.019342, -0.210841, 0.02286, -0.033521, -0.139881, -0.069569, -0.175306, 0.128991, 0.095175, -0.002644, -0.139214, -0.097327, 0.149189, 0.078009, -0.063664, -0.031443, -0.200428, 0.062252, -0.153794, 0.139976, 0.035781, -0.283386, 0.078536, 0.032811, 0.018782, -0.123332, -0.074295, 0.16665, 0.177383, 0.150465, -0.17904, 0.073335, 0.142043, -0.009978, -0.213585, -0.048974, 0.189121, -0.000502, -0.242847, -0.145637, -0.033291, 0.105802, -0.315469, -0.151015, 0.00322, 0.148093, -0.224132, -0.063257, -0.212622, 0.042552, 0.091256, -0.168221, -0.007077, -0.300596, -0.236686, -0.188825, -0.061786, 0.065181, -0.311389, -0.167189, -0.224069, -0.094012, -0.094443, 0.207017, 0.532658, 0.102932, -0.008675, 0.222537, 0.385448, 0.063231, 0.046865, -0.239561, 0.14906, 0.06471, 0.185076, 0.087715, -0.017213, -0.10632, 0.145808, 0.288982, 0.109362, -0.027177, -0.021016, -0.066624, 0.233316, 0.151353, -0.18837, -0.017401, 0.105918, -0.27005, -0.080666, 0.105569, -0.044583, -0.260755, -0.182427, 0.109256, -0.16167, 0.044285, 0.101295, 0.095766, -0.012399, -0.110833, -0.061109, 0.018989, -0.095957, -0.371981, 0.120653, 0.15759, 0.186129, -0.206875, -0.199811, 0.20262, 0.106989, -0.145399, -0.269983, -0.183218, -0.076023, -0.103288, -0.300337, -0.243783, -0.153837, -0.215523, 0.009679, 0.047778, -0.009571, -0.1484, -0.174429, -0.051215, 0.028682, -0.009464, -0.175766, -0.089973, -0.099461, -0.020092, -0.064045, -0.003384, -0.190493, 0.007355, 0.052006, 0.187945, 0.376248, 0.131035, 0.230605, 0.274547, 0.191469, -0.076633, -0.020629, 0.102984, -0.006698, -0.027159, 0.287207, -0.036636, 0.224623, 0.182381, -0.159885, 0.065478, -0.10462, -0.186051, -0.07302, -0.042811, 0.083802, -0.323593, 0.096441, -0.130412, 0.042709, -0.141406, -0.054851, -0.066867, -0.043612, -0.011483, -0.109735, -0.020458, -0.001198, -0.024666, -0.074711, 0.313818, -0.025729, 0.172956, 0.169081, 0.054492, 0.233683, 0.051396, -0.08166, -0.00493, -0.104392, -0.091032, -0.130387, 0.024683, 0.09281, -0.089656, -0.217329, -0.118511, 0.083605, -0.14455, -0.299637, -0.058945, 0.207138, -0.007877, 0.154611, 0.008366, 0.070368, -0.107154, -0.048733, -0.016281, 0.11484, 0.047109, -0.087257, -0.247153, -0.314498, -0.212805, -0.016702, -0.417511, -0.332049, -0.472755, -0.439457, -0.290256, -0.344062, -0.367658, -0.323042, -0.102717, 0.117697, -0.198444, -0.090535, -0.014229, -0.081331, -0.035496, -0.095287, -0.05626, 0.086506, -0.140656, -0.103579, 0.151733, 0.162202, -0.103133, -0.086036, -0.198265, -0.024695, -0.065893, 0.0501, 0.103051, 0.155486, -0.190657, -0.103428, 0.147102, 0.099111, 0.02604, -0.238526, -0.022027, -0.278198, -0.150725, 0.163511, 0.090341, 0.054955, -0.2125, 0.043896, 0.218188, 0.1405, 0.002931, -0.105639, 0.129195, 0.011017, 0.240155, -0.332315, -0.090033, -0.146184, -0.217957, 0.018378, -0.099874, -0.366383, -0.417304, -0.116372, -0.020906, 0.118802, 0.175495, 0.039126, -0.180774, 0.006065, -0.063096, 0.118432, 0.412985, -0.109101, 0.102957, -0.158138, 0.142005, 0.29805, 0.022546, -0.152403, -0.004912, 0.130141, 0.450926, 0.07225, -0.13037, -0.134282, 0.00347, 0.207289, 0.009153, 0.1016, -0.017771, -0.102794, -0.066078, -0.086587, 0.122058, 0.192943, -0.02589, -0.01841, -0.17648, -0.084037, -0.029459, -0.194565, -0.1236, -0.362856, -0.114654, -0.102226, -0.092791, 0.14958, -0.152565, -0.226891, -0.146629, -0.149528, 0.099843, 0.018248, 0.234959, 0.108015, -0.034293, -0.052113, -0.069127, 0.135731, 0.164717, -0.193811, 0.117987, -0.087825, 0.046752, -0.154731, -0.120903, 0.019765, -0.164661, 0.032013, -0.286214, -0.255933, 0.020363, -0.114775, -0.051714, -0.208287, -0.050007, -0.067001, -0.26217, 0.04018, -0.17877, -0.09571, -0.097125, -0.064839, 0.050782, 0.080865, -0.141242, -0.147699, 0.106073, -0.116171, -0.0951, -0.270558, -0.029274, 0.172022, -0.089331, -0.116676, -0.146919, -0.015447, 0.372763, -0.106101, -0.073117, -0.013538, 0.023838, 0.139219, 0.089053, -0.003288, -0.309768, -0.201871, -0.126308, 0.114453, 0.029608, -0.053274, -0.277438, -0.048933, -0.087963, -0.105284, -0.073181, -0.209616, -0.150035, 0.011707, -0.132029, -0.140364, -0.140575, 0.115833, -0.030358, -0.180366, -0.102111, 0.064278, 0.18574, -0.203404, -0.222645, -0.353222, -0.1769, 0.244209, -0.097123, -0.013423, -0.052234, -0.063242, 0.291513, -0.038077, 0.15928, 0.010391, 0.070364, 0.320672, 0.102052, 0.290726, 0.14605, 0.159281, 0.367086, 0.18808, 0.0704, 0.097521, -0.084199, 0.017799, 0.095016, -0.055676, 0.091051, 0.033384, 0.043804, -0.047681, 0.216841, -0.01535, -0.143819, 0.018701, 0.121356, 0.043534, -0.004041, -0.00392, -0.187476, 0.076437, -0.218075, -0.124554, 0.175238, -0.17979, -0.032594, -0.323659, -0.212195, -0.166207, 0.00409, 0.060685, 0.078202, -0.036873, -0.014137, -0.107953, 0.107613, 0.150357, -0.15893, -0.095802, -0.070066, -0.048833, -0.127067, 0.024679, 0.027194, -0.030212, -0.210601, 0.026452, 0.134564, 0.115609, -0.048605, 0.037307, 0.267867, 0.101687, 0.154407, 0.333089, 0.019061, -0.069132, -0.089268, -0.138292, -0.049725, 0.067745, -0.150708, -0.005107, 0.015856, -0.044023, 0.103707, -0.23136, -0.097632, -0.074275, 0.059257, 0.179907, -0.020425, 0.052123, 0.076669, -0.075696, 0.122686, 0.045986, 0.112187, 0.164694, -0.00315, -0.085609, -0.171441, -0.181543, -0.199958, -0.027545, -0.104543, -0.157408, -0.078358, -0.053711, 0.017605, -0.045023, -0.025479, -0.061385, 0.021292, 0.065671, -0.128057, 0.077239, 0.16546, 0.036365, -0.230161, 0.141918, 0.228197, 0.318708, -0.187073, -0.391127, -0.000291, -0.050065, -0.114825, -0.121566, 0.123972, 0.004819, -0.039557, -0.042698, 0.070424, -0.010954, 0.058408, -0.024163, 0.087461, 0.029075, 0.093643, -0.081533, 0.024204, -0.053636, -0.070817, -0.059372, -0.241746, -0.137876, -0.253705, -0.103798, 0.09052, -0.006841, -0.187492, -0.220895, -0.091794, -0.003645, -0.200247, -0.129081, -0.094658, 0.002559, 0.009589, 0.049077, 0.259995, 0.03137, -0.06769, -0.057414, 0.189916, 0.012778, -0.133994, -0.201126, -0.110148, -0.159511, -0.050068, -0.247565, -0.163284, 0.059142, -0.047906, -0.019437, -0.169384, 0.00566, -0.075649, -0.168111, -0.088136, -0.166046, -0.110299, -0.037881, 0.168221, 0.211911, 0.057891, -0.034765, -0.102858, 0.106856, 0.046871, -0.047859, -0.191134, -0.117366, -0.191357, -0.130081, -0.161392, -0.274235, -0.113995, -0.0023, -0.033639, -0.010529, -0.161488, -0.033667, 0.012306, 0.031861, 0.113085, -0.074397, -0.035192, -0.027683, 0.136737, -0.003987, -0.119964, 0.003156, 0.049583, -0.034237, -0.064196, -0.099602, -0.079219, -0.099849, -0.022778, 0.03285, -0.076816, 0.063283, -0.092615, -0.233642, -0.175849, -0.121312, 0.118194, 9.8e-05, -0.16914, -0.143192, -0.088994, -0.093429, -0.090519, -0.075074, -0.080368, -0.024038, -0.028259, 0.019431, 0.190845, 0.204279, 0.001147, -0.116927, 0.235541, 0.221032, 0.087591, -0.253544, -0.079715, -0.239619, 0.139639, 0.228881, -0.177199, -0.064131, -0.172264, -0.048525, -0.125706, -0.076717, -0.067373, -0.121681, -0.060463, 0.07492, -0.083668, -0.160195, 0.096795, 0.026154, -0.02895, 0.112572, 0.021143, 0.235788, 0.138213, -0.172121, 0.25645, 0.150306, -0.154019, -0.00513, -0.104905, 0.031677, -0.128254, 0.016066, -0.100085, 0.040839, 0.085403, -0.252744, 0.018852, -0.003664, -0.020703, -0.037621, 0.089715, -0.120174, -0.068345, -0.075956, 0.006654, 0.124685, -0.031572, -0.278483, 0.088352, 0.093263, 0.051655, 0.204856, 0.286885, 0.041154, -0.169584, 0.022188, -0.03461, 0.077814, 0.030052, -0.117652, -0.129991, 0.035146, 0.062157, 0.125925, -0.10369, -0.237872, 0.00824, 0.059711, 0.196524, 0.014912, -0.051455, 0.008299, 0.024007, -0.153444, -0.227367, -0.174659, -0.087059, -0.08195, 0.025122, -0.199021, -0.31067, -0.262442, -0.208223, -0.126553, -0.023557, -0.155833, -0.147201, -0.102403, 0.101804, 0.03984, 0.165038, -0.055313, -0.039395, 0.111076, 0.058447, 0.394874, 0.036394, 0.025453, 0.131176, 0.409717, 0.470492, -0.007506, 0.027232, 0.024213, -0.026749, -0.12744, 0.006768, 0.095526, 0.060782, -0.08732, 0.027963, -0.108935, 0.080749, 0.013427, 0.037754, 0.246101, -2.3e-05, -0.084429, -0.053215, -0.062116, 0.090928, 0.009333, 0.042374, -0.160559, -0.010525, -0.052299, 0.173519, 0.050165, -0.100623, -0.012458, 0.049122, -0.155171, 0.055516, 0.098366, -0.131958, 0.02614, 0.020532, 0.073724, 0.123143, -0.040755, 0.12313, 0.017657, -0.093888, 0.042984, 0.037698, -0.106579, -0.014692, 0.028644, -0.00121, -0.1363, -0.370339, 0.139979, -0.071499, 0.19163, 0.21129, -0.007435, 0.087481, 0.03512, 0.0171, 0.014196, 0.041091, -0.059243, -0.013525, -0.099613, -0.134624, -0.053524, 0.052685, -0.137107, -0.121863, -0.127083, -0.126921, 0.108826, 0.090678, -0.058617, -0.075007, -0.104148, 0.211936, 0.211723, 0.068685, -0.254098, -0.161059, 0.01724, 0.042966, 0.108261, -0.162899, -0.249447, 0.001255, -0.091758, -0.070985, -0.101321, -0.212631, 0.057444, 0.013899, -0.000824, -0.131678, -0.216433, 0.026651, -0.039899, -0.209413, -0.122823, 0.025394, 0.037916, 0.117526, -0.119971, -0.170064, -0.097406, 0.204093, 0.189378, -0.041568, 0.046828, -0.054785, -0.075221, -0.079608, -0.108606, -0.130484, -0.019074, -0.208478, -0.126018, -0.051821, -0.134023, -0.255983, -0.04736, 0.038705, -0.161749, -0.189383, -0.237694, 0.093775, 0.03162, 0.172384, 0.15129, 0.066761, 0.017357, -0.248475, 0.06912, 0.082935, 0.146252, 0.14844, -0.171606, -0.094419, 0.00314, 0.047085, 0.03722, -0.089103, 0.032736, -0.173326, -0.124986, 0.12007, -0.008998, 0.005789, -0.206697, 0.070634, -0.004588, -0.084222, 0.047886, 0.013271, 0.041245, -0.07767, 0.044377, 0.077092, -0.003953, 0.011193, 0.230843, 0.035247, -0.142621, -0.006153, 0.11058, 0.159798, -0.087508, -0.198253, -0.049623, -0.001506, -0.038446, -0.039284, 0.017626, 0.003255, -0.186586, 0.259382, 0.007519, -0.237673, -0.206772, 0.049227, 0.113931, -0.149445, -0.287122, -0.18484, -0.026313, -0.224922, -0.138925, -0.206217, -0.139041, -0.079782, -0.189709, -0.134642, -0.145553, -0.056497, -0.147106, 0.047944, 0.058226, -0.021078, 0.016068, 0.186014, 0.053766, 0.016876, -0.10761, 0.002377, -0.166289, -0.027713, -0.071969, -0.146254, -0.198922, 0.009861, -0.031163, -0.084389, -0.056948, 0.030412, -0.147343, -0.015281, 0.043451, -0.099113, 0.067217, -0.137158, -0.078262, 0.060903, 0.029655, 0.080851, 0.219556, 0.007792, -0.176716, -0.009462, -0.01338, -0.05812, -0.218241, -0.044338, -0.033962, -0.177191, 0.004158, -0.063443, 0.095306, -0.059582, -0.042852, -0.032206, -0.017522, 0.013618, 0.047469, -0.044765, -0.134361, -0.042739, -0.03316, -0.041124, 0.029339, 0.240791, -0.201559, -0.004042, 0.154136, -0.178339, -0.002931, -0.014964, 0.193751, 0.034811, -0.065494, 0.052282, 0.251784, 0.155842, -0.111389, -0.069003, -0.128661, -0.06771, -0.221632, -0.07439, 0.030526, -0.203072, -0.222593, -0.115533, -0.109241, 0.178919, 0.193445, 0.073687, 0.225045, -0.064626, 0.02544, 0.081094, 0.258651, 0.135284, -0.007966, 0.012244, 0.101303, 0.234593, -0.097289, -0.263411, -0.07255, 0.061633, -0.095391, -0.188454, -0.116025, -0.151759, -0.077035, -0.089543, 0.018137, -0.024519, -0.100929, -0.209645, 0.093295, -0.038882, -0.207426, -0.195474, -0.176298, -0.117268, 0.162037, -0.179367, -0.221825, 0.057227, -0.071653, 0.006496, 0.204113, 0.564721, 0.199533, -0.132357, 0.290194, 0.269395, 0.313792, 0.116555, 0.103996, 0.078974, 0.260212, 0.161493, -0.049, -0.091735, -0.056434, -0.124251, -0.262552, -0.140403, 0.033245, -0.061151, 0.009861, 0.236495, -0.198618, 0.067062, 0.032097, 0.324195, 0.150443, -0.017628, 0.199665, -0.175671, 0.156651, -0.116152, -0.170958, 0.003405, -0.113472, 0.031535, -0.133228, -0.209831, 0.008155, -0.018316, -0.036284, -0.147235, -0.224316, 0.121603, 0.093958, 0.038024, -0.072087, -0.302887, 0.093814, 0.129304, -0.119195, -0.204045, -0.1002, 0.083161, -0.292072, -0.32462, -0.137588, 0.077416, 0.05675, 0.048213, -0.166956, -0.168311, -0.257147, 0.022004, 0.090186, 0.096969, 0.090346, -0.129254, 0.004233, -0.036155, 0.016906, -0.17101, -0.128022, 0.002462, -0.127943, -0.265428, -0.227581, -0.050403, 0.048668, -0.048982, 0.133615, 0.081745, -0.072007, 0.092683, 0.052945, 0.102444, 0.01086, -0.117164, 0.01281, 0.134702, 0.115456, -0.182389, -0.074833, 0.144519, 0.047953, -0.087837, -0.161235, -0.035416, 0.006858, -0.204773, -0.084563, -0.023606, -0.093506, -0.069247, -0.139801, -0.104524, 0.116352, 0.084541, 0.014852, -0.132891, -0.041142, 0.134487, 0.026496, 0.010446, 0.121865, 0.12172, -0.067715, 0.04842, 0.114448, 0.073637, 0.049237, -0.083119, -0.1145, -0.012754, -0.122055, -0.088054, 0.165906, -0.126133, 0.153443, -0.101841, -0.284914, -0.197208, 0.145135, -0.116978, -0.158528, -0.235818, -0.142846, 0.082439, 0.0062, 0.030995, -0.20917, -0.195049, -0.036472, -0.157774, -0.197514, -0.321616, -0.237317, 0.030524, -0.312256, -0.332354, -0.356209, 0.073182, 0.203913, -0.16812, -0.247564, -0.216569, 0.290897, 0.39868, -0.121571, 0.043721, 0.32753, 0.361718, -0.252167, 0.106864, -0.027364, -0.196723, -0.201282, -0.254456, 0.097249, 0.23114, 0.072066, 0.12389, 0.11896, 0.157483, 0.030157, -0.088205, 0.170757, 0.158687, -0.12649, -0.207873, -0.050144, 0.103657, -0.140812, 0.145812, -0.078974, -0.092847, -0.030985, -0.086869, 0.212504, 0.060074, 0.079549, -0.048412, -0.028885, -0.038591, -0.024722, -0.115239, 0.039859, -0.031946, -0.23825, -0.034581, -0.097212, 0.066834, -0.016985, 0.100673, -0.104955, -0.138814, -0.142107, -0.276825, 0.313751, -0.041833, -0.213556, -0.041193, -0.129772, -0.060194, 0.048115, 0.088997, 0.106838, 0.232932, -0.163269, -0.230556, -0.154398, -0.076472, -0.004677, 0.055177, -0.074822, -0.025069, 0.169218, 0.083544, 0.178273, 0.053702, 0.030275, 0.14361, 0.099264, 0.26433, 0.033601, 0.00844, 0.278003, 0.216873, -0.075225, 0.134713, 0.079486, 0.210377, 0.22002, -0.09813, -0.063101, -0.009933, -0.180712, -0.195884, -0.183734, -0.109589, 0.019034, 0.14254, 0.166275, -0.036024, -0.102334, -0.059398, -0.04437, 0.005768, -0.031363, -0.13877, -0.209254, -0.272026, -0.181752, -0.096204, 0.041553, 0.000272, -0.09035, -0.089246, 0.084791, -0.022218, -0.096799, 0.007331, 0.042913, -0.141183, -0.179241, -0.189369, -0.078612, 0.121314, 0.02167, -0.076614, -0.279845, -0.09636, 0.243925, 0.182804, -0.018775, -0.250267, -0.014575, 0.117552, -0.294646, -0.017946, -0.047252, -0.16416, -0.066641, 0.07301, -0.046515, -0.108988, 0.003971, 0.085281, 0.042113, 0.187626, -0.199948, -0.148504, -0.024575, -0.210726, 0.088998, 0.054545, -0.111185, 0.176679, -0.075457, 0.048311, -0.214717, -0.098717, 0.185371, -0.184582, -0.082622, -0.026693, -0.107818, -0.101066, 0.053038, -0.157986, -0.063929, 0.098612, 0.029901, 0.001519, 0.26066, 0.056189, -0.232528, 0.004835, -0.174801, 0.19723, 0.068074, 0.001018, 0.062336, -0.123678, -0.14417, -0.149109, -0.184001, 0.146202, -0.186912, -0.174375, 0.004131, -0.139373, -0.054248, 0.022871, -0.054633, 0.011019, -0.124625, -0.040466, 0.212977, 0.098284, 0.083955, -0.06253, -0.105299, 0.000713, 0.29081, 0.093463, -0.046142, 0.02103, 0.079957, 0.374124, 0.052287, -0.168351, 0.081789, 0.113738, 0.152972, 0.235212, 0.187086, 0.13727, -0.11584, -0.126881, -0.216733, -0.163369, -0.229006, -0.19122, -0.097773, -0.041524, -0.051489, -0.029064, -0.098645, -0.090592, -0.197994, -0.066206, -0.115255, 0.081912, 0.037804, -0.243977, -0.15621, -0.035603, -0.265496, -0.026013, 0.033248, -0.146299, 0.038986, -0.318096, 0.141332, 0.217581, -0.023375, -0.197731, -0.12991, 0.172327, 0.173742, -0.026692, -0.059743, 0.150824, 0.177103, -0.056469, -0.194489, -0.112571, 0.102003, 0.064131, 0.022393, -0.048666, -0.0672, -0.1604, 0.298845, 0.09397, -0.051887, -0.205118, -0.067404, 0.376012, 0.071057, -0.089997, -0.088732, 0.10997, 0.311087, -0.039821, -0.172806, -0.088214, 0.082167, 0.177043, -0.017854, -0.2617, -0.040618, 0.13886, -0.062939, -0.233929, -0.167183, -0.065485, -0.08285, 0.012885, 0.030689, -0.179839, 0.015564, 0.050101, -0.108285, -0.182342, -0.049374, 0.119454, -0.245006, -0.177289, -0.257459, -0.126977, 0.109409, -0.196674, -0.182636, -0.122508, -0.122105, -0.191303, -0.305913, -0.09152, -0.057699, 0.008145, -0.119225, -0.329709, 0.047233, 0.063177, 0.051146, -0.134499, -0.083132, 0.120721, 0.101965, -0.238948, -0.098088, -0.031556, 0.303789, 0.079854, -0.239758, -0.178034, -0.017719, 0.252876, 0.000966, -0.279924, -0.083746, 0.294118, 0.014805, -0.106284, -0.237468, -0.016263, -0.347829, -0.417531, -0.03429, -0.030044, -0.16154, -0.281336, -0.147475, 0.061177, 0.007218, -0.212638, -0.05275, 0.033004, 0.051011, -0.089037, -0.076527, -0.143096, 0.044749, 0.039637, -0.128621, -0.019346, -0.088056, 0.03252, -0.112128, 0.013764, -0.184778, -0.228624, -0.314689, -0.317224, -0.098223, 0.012016, -0.086097, -0.249854, -0.025783, -0.157959, 0.010197, 0.015699, 0.043518, -0.014384, 0.025849, 0.140219, -0.173878, -0.008749, -0.111521, 0.113645, -0.068346, -0.252407, -0.065703, -0.111865, -0.101498, -0.143169, -0.120456, -0.22813, -0.241432, -0.087703, -0.134443, 0.005942, -0.307727, -0.013326, 0.032675, -0.023637, 0.097239, -0.204952, 0.042783, 0.142751, 0.091825, -0.18678, 0.146784, 0.166533, 0.131582, 0.009871, -0.161783, 0.364034, 0.203628, 0.095253, -0.003483, -0.146672, 0.007529, 0.064982, 0.059668, 0.068554, -0.308482, -0.248655, 0.014579, 0.132789, 0.197204, -0.432372, 0.069386, -0.065153, -0.141059, -0.094225, -0.102085, -0.005929, -0.001751, -0.208911, -0.095097, -0.208567, 0.051501, -0.140734, 0.013656, -0.113894]}, {"name": "Parameter5", "shape": [8, 1, 5, 5], "dtype": "float32", "min": -0.972681, "max": 1.018965, "mean": -0.00736, "std": 0.337114, "weights": [-0.008906, -0.236907, -0.508822, -0.064562, 0.141812, -0.591976, -0.475285, -0.049348, 0.768216, 0.263465, -0.491763, 0.055618, 1.018965, 0.554704, -0.441664, -0.159537, 0.557541, 0.592091, -0.294741, -0.61318, 0.038499, 0.226019, -0.218556, -0.477194, -0.291705, -0.039882, 0.2186, 0.498727, 0.423672, 0.048548, -0.101182, -0.276909, -0.004399, 0.527172, 0.40341, -0.150838, -0.326698, -0.158986, 0.358996, 0.372636, -0.567677, -0.385716, -0.173696, 0.228037, 0.332749, -0.380782, -0.22948, -0.06624, -0.014561, 0.284912, -0.023685, 0.104505, 0.253627, 0.361772, 0.690962, 0.334917, 0.417, 0.384828, 0.32941, 0.243015, -0.469071, -0.075959, -0.144525, -0.173563, -0.246771, -0.972681, -0.715617, -0.538213, -0.61678, -0.448452, -0.198983, -0.333356, -0.349077, -0.146036, -0.063598, -0.29535, -0.332416, -0.327995, -0.079208, -0.222431, -0.476763, -0.210716, -0.057529, 0.163739, 0.161974, -0.391726, -0.023514, 0.123266, 0.0424, 0.228049, 0.09454, 0.372037, 0.219387, -0.0112, 0.181176, 0.327519, 0.351116, 0.029065, 0.209222, 0.340717, -0.214539, -0.122048, -0.002381, -0.225739, -0.161164, 0.089048, 0.204976, -0.156348, -0.225654, -0.562098, -0.060235, 0.410432, -0.014487, -0.474925, -0.564055, -0.115562, 0.142097, 0.276739, 0.042599, -0.011549, 0.009696, 0.246114, 0.625613, 0.683264, 0.236071, -0.166046, -0.333815, -0.191194, 0.053498, 0.141575, 0.182871, -0.548081, -0.733281, -0.588267, -0.384224, 0.540284, 0.346127, -0.252293, -0.346535, -0.210915, 0.220151, 0.658915, 0.364784, 0.129374, -0.10956, 0.060227, 0.302853, 0.236986, 0.469152, 0.223293, 0.097971, 0.559485, -0.214432, -0.457677, -0.211826, 0.36441, 0.487063, -0.407679, -0.429202, -0.247543, 0.414929, 0.300013, -0.457893, -0.303916, -0.089539, 0.278055, 0.114431, -0.172314, -0.351678, -0.152029, 0.348671, 0.185797, 0.070887, 0.134177, -0.046183, -0.022086, -0.132005, 0.091686, 0.231607, 0.339742, 0.16505, 0.376483, 0.19503, 0.31517, 0.567141, -0.118004, 0.195982, 0.132555, 0.047791, 0.133643, 0.028377, -0.139151, -0.120777, -0.197532, -0.502287, -0.035823, -0.189828, -0.427537, -0.284748, -0.19035]}, {"name": "Parameter6", "shape": [8, 1, 1], "dtype": "float32", "min": -0.433836, "max": 0.091641, "mean": -0.102255, "std": 0.148328, "weights": [-0.16154, -0.433836, 0.091641, -0.016852, -0.065026, -0.131738, 0.020418, -0.12111]}, {"name": "Parameter88", "shape": [16, 1, 1], "dtype": "float32", "min": -0.414741, "max": 0.013284, "mean": -0.155444, "std": 0.10568, "weights": [-0.082249, -0.108869, -0.14104, -0.204869, -0.179136, -0.215438, -0.133805, -0.195725, -0.268251, -0.258212, -0.076156, 0.013284, -0.004445, -0.414741, -0.178791, -0.038656]}, {"name": "Parameter194", "shape": [1, 10], "dtype": "float32", "min": -0.12641, "max": 0.140219, "mean": -5e-06, "std": 0.076701, "weights": [-0.044856, 0.007792, 0.068101, 0.029994, -0.12641, 0.140219, -0.055285, -0.049384, 0.084322, -0.05454]}]}